Language model created by QuickLM on Tue Oct  6 11:41:27 EDT 2015
Copyright (c) 1996-2010 Carnegie Mellon University and Alexander I. Rudnicky

The model is in standard ARPA format, designed by Doug Paul while he was at MITRE.

The code that was used to produce this language model is available in Open Source.
Please visit http://www.speech.cs.cmu.edu/tools/ for more information

The (fixed) discount mass is 0.5. The backoffs are computed using the ratio method.
This model based on a corpus of 4620 sentences and 4897 words

\data\
ngram 1=4897
ngram 2=13514
ngram 3=14761

\1-grams:
-1.3259 </s> -0.3010
-1.3259 <s> -0.2048
-2.0531 A -0.2901
-4.1455 ABBREVIATE -0.2968
-4.9906 ABIDES -0.2968
-4.6895 ABILITY -0.2965
-4.5135 ABLE -0.2965
-4.1455 ABLY -0.2800
-4.1455 ABOLISH -0.3010
-4.9906 ABORIGINE -0.3002
-4.9906 ABORIGINES -0.2800
-3.3374 ABOUT -0.2513
-4.5135 ABOVE -0.2766
-4.9906 ABRUPTLY -0.2800
-4.9906 ABSENT -0.2800
-4.9906 ABSOLUTION -0.3001
-4.9906 ABSORPTION -0.2990
-4.9906 ABSURD -0.2800
-4.9906 ABSURDLY -0.3010
-3.8445 ACADEMIC -0.3009
-4.9906 ACCELEROMETER -0.3010
-4.9906 ACCELEROMETERS -0.3009
-4.6895 ACCEPT -0.2931
-4.9906 ACCEPTED -0.3005
-4.9906 ACCIDENT -0.2800
-4.1455 ACCLAIM -0.2800
-4.9906 ACCOMMODATE -0.3010
-4.1455 ACCOMPLISH -0.3008
-4.9906 ACCOMPLISHMENTS -0.3010
-4.0363 ACCORDING -0.2965
-4.9906 ACCORDINGLY -0.3010
-4.9906 ACCOUNT -0.3001
-4.1455 ACCOUNTS -0.2968
-4.9906 ACCURATE -0.3010
-4.9906 ACCUSINGLY -0.2800
-4.6895 ACE -0.3010
-4.9906 ACHIEVE -0.2972
-4.9906 ACKNOWLEDGED -0.2939
-4.9906 ACQUIESCENCE -0.3002
-4.9906 ACQUIRE -0.3010
-4.1455 ACRES -0.2990
-3.8766 ACROSS -0.2930
-4.6895 ACT -0.2990
-3.9906 ACTION -0.2800
-4.9906 ACTIONS -0.2990
-4.9906 ACTIVATED -0.3010
-4.0875 ACTIVITIES -0.2800
-4.0875 ACTIVITY -0.2800
-4.1455 ACTOR -0.3010
-4.9906 ACTORS -0.3007
-4.0363 ACTS -0.2985
-4.5135 ACTUAL -0.3009
-4.5135 ACTUALLY -0.3010
-4.6895 ADAGE -0.2800
-4.9906 ADAPTATIONS -0.3000
-3.6895 ADD -0.2711
-4.6895 ADDED -0.2800
-4.1455 ADDITION -0.2989
-4.9906 ADDRESS -0.2800
-4.9906 ADDRESSED -0.3010
-4.6895 ADEQUATE -0.3010
-4.9906 ADHESIVE -0.3010
-4.1455 ADJOURNED -0.2800
-4.9906 ADJUSTABLE -0.3010
-4.9906 ADMINISTRATION -0.2992
-4.6895 ADMINISTRATIVE -0.2989
-4.9906 ADMIRE -0.3006
-4.9906 ADMITTED -0.2965
-4.9906 ADOPTED -0.2939
-4.1455 ADULT -0.3010
-4.9906 ADULTERERS -0.2800
-4.9906 ADULTS -0.3009
-4.3885 ADVANCE -0.3005
-4.9906 ADVANCED -0.3009
-4.9906 ADVANCES -0.3008
-4.6895 ADVANTAGE -0.2990
-4.9906 ADVANTAGES -0.2972
-4.9906 ADVENTURE -0.2800
-4.0875 ADVERTISING -0.3002
-4.6895 ADVICE -0.3001
-4.6895 ADVISED -0.2800
-4.9906 ADVISEMENT -0.2800
-4.9906 AERIAL -0.3010
-4.9906 AFFECT -0.2939
-4.9906 AFFECTIONATE -0.3010
-4.1455 AFFIRMATIVE -0.3010
-4.9906 AFLOAT -0.2800
-4.5135 AFRAID -0.2943
-3.5592 AFTER -0.2885
-4.1455 AFTERNOON -0.2800
-3.8145 AGAIN -0.2712
-4.1455 AGAINST -0.2909
-4.5135 AGE -0.2774
-3.6684 AGENCY -0.2800
-4.9906 AGENDA -0.2800
-4.9906 AGENTS -0.3008
-4.1455 AGGRESSIVE -0.3010
-4.6895 AGO -0.2794
-4.9906 AGONY -0.2800
-4.0875 AGREE -0.2937
-4.9906 AGREED -0.2800
-4.0875 AHEAD -0.2800
-4.5135 AID -0.2783
-4.9906 AIDS -0.2968
-4.9906 AIM -0.3009
-4.9906 AIMLESS -0.3010
-4.3885 AINT -0.2973
-4.2916 AIR -0.2986
-4.6895 AIRBORNE -0.2800
-4.6895 AIRCRAFT -0.3009
-4.6895 AIRFIELDS -0.2791
-4.6895 AIRPLANES -0.3005
-4.1455 AL -0.3010
-4.9906 ALARM -0.2800
-4.9906 ALCOHOL -0.2800
-4.9906 ALCOHOLIC -0.3010
-4.9906 ALCOHOLICS -0.2800
-4.9906 ALCOVES -0.2968
-4.9906 ALERT -0.3008
-4.1455 ALFALFA -0.2992
-4.9906 ALGAE -0.3009
-4.1455 ALGEBRAIC -0.3010
-4.9906 ALIBI -0.3010
-4.9906 ALICE -0.3006
-4.1455 ALIEN -0.3010
-3.8445 ALIMONY -0.3010
-4.9906 ALKALINE -0.2800
-2.2542 ALL -0.2511
-4.9906 ALLERGIES -0.3010
-4.1455 ALLEVIATE -0.3010
-3.4465 ALLOW -0.3006
-4.1455 ALLOWANCE -0.3006
-4.9906 ALMONDS -0.2989
-3.7865 ALMOST -0.2985
-4.0875 ALONE -0.2793
-3.7353 ALONG -0.2929
-4.9906 ALOUD -0.2800
-4.1455 ALREADY -0.2772
-3.5926 ALSO -0.2657
-4.9906 ALTERNATIVE -0.2800
-3.9906 ALTHOUGH -0.2993
-4.9906 ALTOGETHER -0.2800
-4.9906 ALUMNI -0.3010
-3.5135 ALWAYS -0.2974
-4.9906 AMATEUR -0.3010
-4.9906 AMAZED -0.3010
-4.9906 AMBASSADORS -0.3010
-4.9906 AMBER -0.3010
-4.1455 AMBIDEXTROUS -0.3010
-4.6895 AMBIGUITY -0.3010
-4.1455 AMBIGUOUS -0.3010
-4.9906 AMBITIONS -0.2800
-4.1455 AMBULANCE -0.3002
-4.1455 AMOEBAS -0.3010
-4.5135 AMONG -0.2935
-4.9906 AMOUNT -0.2990
-4.6895 AMOUNTS -0.2753
-4.9906 AMPLE -0.2989
-2.2339 AN -0.2978
-4.3885 ANALYSIS -0.2948
-4.9906 ANALYTICITY -0.2990
-4.9906 ANARCHY -0.3010
-4.9906 ANATOMICAL -0.3009
-4.9906 ANCHOR -0.3001
-3.8445 ANCIENT -0.2992
-2.3075 AND -0.2560
-4.9906 ANDREIS -0.3010
-4.1455 ANECDOTAL -0.3010
-4.1455 ANGORA -0.3010
-4.9906 ANGRILY -0.2800
-4.0875 ANGRY -0.2799
-4.9906 ANGULAR -0.3010
-4.6895 ANIMAL -0.2958
-4.0875 ANIMALS -0.2797
-4.9906 ANNOUNCING -0.3010
-4.1455 ANNOYING -0.3010
-4.9906 ANNUAL -0.3010
-4.9906 ANONYMOUS -0.3010
-3.6684 ANOTHER -0.2967
-4.6895 ANSWER -0.3004
-3.9906 ANSWERED -0.2795
-4.0875 ANSWERS -0.2960
-4.6895 ANT -0.3010
-4.1455 ANTAGONISTIC -0.3010
-4.1455 ANTARCTIC -0.2800
-4.9906 ANTICIPATED -0.2800
-4.9906 ANTIGEN -0.3000
-4.9906 ANTISEPTIC -0.2989
-4.6895 ANTISLAVERY -0.3010
-4.9906 ANTITHESIS -0.2990
-4.9906 ANTS -0.2990
-3.4465 ANY -0.2771
-4.5135 ANYBODY -0.3008
-4.6895 ANYHOW -0.2792
-4.5135 ANYONE -0.3004
-4.1455 ANYONES -0.3010
-4.1455 ANYTHING -0.2889
-4.6895 ANYWAY -0.2792
-4.6895 APPEAR -0.2963
-4.6895 APPEARANCE -0.2800
-4.9906 APPEARED -0.2990
-4.6895 APPEARS -0.2800
-4.9906 APPETITE -0.3010
-4.9906 APPETITES -0.3002
-4.9906 APPLE -0.2800
-4.1455 APPLES -0.2989
-4.1455 APPLIANCES -0.2800
-4.6895 APPLICATION -0.2990
-4.9906 APPLIES -0.2965
-4.1455 APPLY -0.3010
-4.9906 APPLYING -0.3010
-4.1455 APPOINTED -0.2965
-4.1455 APPOINTMENT -0.2968
-4.9906 APPRECIATE -0.2939
-3.8445 APPRECIATED -0.2800
-4.9906 APPRECIATIVELY -0.2989
-4.0875 APPROACH -0.2774
-4.9906 APPROACHED -0.2800
-4.9906 APPROPRIATE -0.3010
-4.9906 APPROVAL -0.3007
-4.9906 APPROVED -0.3002
-4.9906 APPROVINGLY -0.2972
-4.9906 APPROXIMATION -0.2800
-4.1455 APRONS -0.3010
-3.8445 APTITUDE -0.2992
-4.1455 AQUATIC -0.3010
-4.9906 ARBITRATE -0.2800
-4.9906 ARC -0.3010
-4.9906 ARCADE -0.2800
-4.1455 ARCHEOLOGICAL -0.3010
-2.6140 ARE -0.2441
-4.3885 AREA -0.2781
-4.9906 AREAS -0.2968
-4.6895 ARENT -0.2997
-4.1455 ARGUE -0.3010
-4.9906 ARGUED -0.2800
-4.9906 ARGUMENT -0.2939
-4.9906 ARISE -0.3007
-4.6895 ARISES -0.3006
-4.6895 ARISTOCRATIC -0.3010
-4.6895 ARM -0.2800
-4.9906 ARMED -0.3002
-4.9906 ARMY -0.3010
-4.9906 AROSE -0.3010
-3.7601 AROUND -0.2631
-4.9906 ARRIVE -0.3007
-4.3885 ART -0.3009
-4.1455 ARTICLE -0.3000
-4.9906 ARTICULATION -0.2989
-4.9906 ARTIST -0.2992
-4.9906 ARTISTIC -0.3010
-4.1455 ARTISTS -0.3010
-2.8937 AS -0.2730
-4.9906 ASHAMED -0.2990
-4.1455 ASHTRAY -0.3010
-4.9906 ASIDE -0.2965
-2.3241 ASK -0.2987
-4.2916 ASKED -0.2970
-4.6895 ASLEEP -0.2988
-4.9906 ASPECT -0.2800
-4.9906 ASPECTS -0.2990
-4.9906 ASSAIL -0.3005
-4.9906 ASSASSIN -0.2800
-4.9906 ASSAULTS -0.3005
-4.9906 ASSERT -0.3010
-4.9906 ASSIGN -0.3007
-4.6895 ASSIGNMENT -0.2958
-4.9906 ASSISTANT -0.3010
-4.9906 ASSOCIATED -0.3002
-4.9906 ASSOCIATES -0.2968
-4.9906 ASSOCIATIONS -0.3010
-3.8145 ASSUME -0.2997
-4.9906 ASSUMED -0.2939
-4.9906 ASSURE -0.3007
-4.9906 ASSURED -0.3007
-4.9906 ASSUREDLY -0.3010
-4.9906 ASSURES -0.3007
-4.9906 ASSURING -0.3010
-4.9906 ASTHMA -0.3010
-4.9906 ASTONISHINGLY -0.3010
-4.6895 ASTRONOMY -0.2760
-3.1332 AT -0.2780
-3.6684 ATE -0.2961
-4.0875 ATHEISTS -0.2965
-4.1455 ATHLETIC -0.3010
-4.6895 ATMOSPHERE -0.2799
-4.5135 ATOMIC -0.3009
-4.9906 ATOP -0.2972
-4.1455 ATTACH -0.3010
-4.6895 ATTACK -0.2997
-4.0363 ATTACKED -0.2719
-4.1455 ATTENDANCE -0.2992
-4.9906 ATTENDANTS -0.3007
-4.0875 ATTENTION -0.2800
-3.8445 ATTITUDE -0.2782
-4.6895 ATTRACTIVE -0.2799
-4.9906 ATTRIBUTED -0.2965
-4.1455 ATYPICAL -0.3010
-4.1455 AUBURN -0.3010
-4.0875 AUDIENCE -0.2778
-4.1455 AUDIOVISUAL -0.3010
-4.1455 AUDITORY -0.3010
-4.6895 AUTHORITY -0.2800
-4.1455 AUTHORIZATION -0.2990
-4.9906 AUTHORS -0.3010
-4.9906 AUTOFLUORESCENCE -0.3005
-4.1455 AUTOGRAPHS -0.2800
-4.6895 AUTOMATIC -0.3010
-4.9906 AUTOMOBILE -0.3010
-4.9906 AUTONOMY -0.2990
-4.1455 AUTUMN -0.3010
-3.8145 AVAILABLE -0.2912
-4.1455 AVALANCHE -0.3010
-4.9906 AVERAGE -0.2990
-4.9906 AVOCADO -0.3008
-4.9906 AVOCADOS -0.3010
-4.9906 AVOIDED -0.3005
-4.9906 AVOIDING -0.2986
-4.9906 AVOWED -0.3010
-4.9906 AWARDS -0.2800
-3.7118 AWAY -0.2779
-4.6895 AWKWARD -0.2799
-4.9906 AWOKE -0.2985
-4.1455 AXIS -0.2800
-4.9906 BABBLED -0.2800
-4.1455 BABOONS -0.3010
-3.5434 BACK -0.2582
-4.1455 BACKED -0.3007
-4.9906 BACKGROUNDS -0.2800
-4.9906 BACKYARDS -0.2800
-4.6895 BACTERIA -0.2800
-4.1455 BAD -0.2790
-4.9906 BADNESS -0.3010
-4.9906 BAFFLE -0.3005
-4.9906 BAG -0.2989
-4.1455 BAGPIPES -0.2989
-4.6895 BAGS -0.2799
-4.9906 BALANCE -0.2800
-4.9906 BALE -0.3003
-4.9906 BALEFUL -0.3005
-4.5135 BALL -0.2800
-4.0875 BALLET -0.2800
-4.6895 BALLOONS -0.2998
-4.9906 BALLPLAYER -0.2800
-4.9906 BALLS -0.2939
-4.9906 BALLYHOO -0.3006
-4.1455 BANDAGED -0.3008
-4.9906 BANDAGES -0.2800
-4.1455 BANK -0.3010
-4.9906 BANKERS -0.3010
-4.9906 BANKS -0.2998
-4.9906 BARBARIC -0.2800
-4.0363 BARBED -0.3010
-4.1455 BARBS -0.3010
-4.9906 BARE -0.3010
-3.6684 BARELY -0.3008
-4.9906 BARLEY -0.2992
-4.9906 BARN -0.2800
-4.1455 BARRACUDA -0.3010
-4.9906 BARRELS -0.3007
-4.9906 BARRICADES -0.2990
-4.9906 BARRIERS -0.2800
-4.9906 BASEBALL -0.2800
-4.9906 BASEBALLS -0.3007
-4.9906 BASED -0.3003
-4.6895 BASIC -0.3010
-4.6895 BASIS -0.2800
-4.9906 BASKETBALL -0.3009
-4.6895 BATH -0.3010
-4.9906 BATHE -0.3007
-4.9906 BATHING -0.2939
-4.5135 BATHS -0.3005
-4.9906 BATHTUBS -0.2800
-4.9906 BATTERY -0.3010
-4.9906 BATTERYPOWERED -0.3010
-4.9906 BATTING -0.3010
-4.9906 BAYED -0.3008
-4.9906 BAYONET -0.3010
-4.1455 BAYOU -0.2800
-4.9906 BAZAAR -0.2800
-2.7451 BE -0.2766
-4.1455 BEANS -0.2968
-4.9906 BEARD -0.2989
-4.9906 BEATNIKS -0.3010
-4.5135 BEAUTIFUL -0.3008
-4.6895 BEAUTIFULLY -0.2800
-4.6895 BEAUTY -0.2990
-4.9906 BECALMED -0.2939
-3.9492 BECAME -0.2899
-4.5135 BECAUSE -0.2918
-4.9906 BECKONS -0.3009
-3.8766 BECOME -0.3008
-4.9906 BECOMES -0.3008
-4.9906 BECOMING -0.3010
-4.6895 BED -0.2984
-4.9906 BEDLAM -0.2800
-4.9906 BEDROOM -0.2800
-4.0363 BEDS -0.2800
-4.6895 BEEFSTEAK -0.2800
-3.6684 BEEN -0.2679
-4.9906 BEEP -0.3010
-4.6895 BEER -0.3010
-3.7865 BEFORE -0.2682
-4.2124 BEGAN -0.2753
-3.9906 BEGIN -0.2883
-4.1455 BEGINS -0.3002
-4.9906 BEHAVED -0.2992
-4.9906 BEHAVIOR -0.2800
-4.0875 BEHIND -0.2768
-4.1455 BEING -0.2798
-4.9906 BELCHED -0.3010
-4.6895 BELIEVED -0.2977
-4.9906 BELLOWS -0.2800
-4.1455 BELLS -0.3010
-4.9906 BELONG -0.2968
-4.9906 BELONGS -0.2965
-4.9906 BELOVED -0.3010
-4.0363 BELOW -0.2990
-4.9906 BELT -0.3010
-4.6895 BENCH -0.2800
-4.9906 BENEATH -0.2939
-4.9906 BENEFIT -0.3005
-4.6895 BENEFITS -0.2800
-4.9906 BEQUESTS -0.2972
-4.9906 BESIDE -0.2987
-4.9906 BESIDES -0.2800
-4.1455 BEST -0.3010
-4.9906 BET -0.2965
-4.9906 BETIDE -0.2939
-4.9906 BETRAYED -0.3007
-4.2916 BETTER -0.2792
-4.2916 BETWEEN -0.3001
-4.0875 BEVERAGE -0.2800
-4.9906 BEVERAGES -0.3000
-4.3885 BEYOND -0.3004
-4.1455 BIBLICAL -0.3010
-4.1455 BIBLIOGRAPHIES -0.2800
-4.9906 BICKERING -0.2800
-4.1455 BIDDING -0.2800
-3.2347 BIG -0.3000
-4.6895 BIGGER -0.2988
-4.1455 BIKE -0.3010
-4.9906 BILLOWED -0.2972
-4.9906 BILLS -0.2800
-4.9906 BINOMIAL -0.3010
-4.9906 BIOLOGICAL -0.3010
-4.1455 BIOLOGISTS -0.3009
-4.1455 BIOLOGY -0.2989
-4.6895 BIRDS -0.2797
-4.3885 BIRTH -0.2992
-3.8145 BIRTHDAY -0.3009
-4.9906 BISCUIT -0.2800
-4.3885 BIT -0.3002
-4.9906 BITES -0.3007
-4.9906 BITTER -0.3010
-4.9906 BIVOUAC -0.3010
-4.9906 BIZARRE -0.3010
-3.8766 BLACK -0.3007
-4.9906 BLACKENED -0.3010
-4.9906 BLANKETS -0.2800
-4.9906 BLASTDOWN -0.2800
-4.9906 BLEND -0.3010
-4.1455 BLEU -0.3009
-4.6895 BLEW -0.2999
-4.9906 BLISSFUL -0.2989
-4.1455 BLISTERED -0.3005
-4.9906 BLOAT -0.2800
-4.9906 BLOCKADE -0.2992
-4.6895 BLOCKS -0.3007
-4.9906 BLONDE -0.3010
-4.6895 BLOW -0.3009
-4.9906 BLOWERS -0.3008
-4.9906 BLOWING -0.3010
-4.5135 BLUE -0.3009
-4.1455 BLUEJAY -0.3010
-4.1455 BLUES -0.2800
-4.9906 BLUING -0.2800
-4.9906 BLUISH -0.3010
-4.9906 BLUNT -0.2939
-4.1455 BOARD -0.2800
-4.9906 BOARDINGHOUSES -0.3007
-4.6895 BOAT -0.2800
-3.8445 BOB -0.3009
-4.9906 BOBBY -0.3010
-4.1455 BOBCAT -0.2989
-4.9906 BODIES -0.3010
-4.2916 BODY -0.2784
-4.9906 BOGGED -0.3008
-4.6895 BOIL -0.2799
-4.9906 BOLD -0.2800
-4.9906 BOLT -0.3010
-4.9906 BOMB -0.3010
-4.6895 BOMBS -0.2800
-4.5135 BONE -0.2756
-4.9906 BONES -0.2800
-4.1455 BONGOS -0.3000
-4.1455 BOOK -0.2965
-4.0875 BOOKS -0.2800
-4.9906 BOOMERANG -0.3010
-4.6895 BOOST -0.2992
-4.9906 BOOTLEGGERS -0.3000
-4.9906 BOOTS -0.2800
-4.9906 BORED -0.3010
-4.1455 BORN -0.2800
-4.9906 BORROW -0.3009
-4.6895 BOSS -0.2789
-4.1455 BOSTON -0.3010
-3.3471 BOTH -0.2858
-4.6895 BOTHER -0.2994
-4.9906 BOTHERS -0.3008
-4.9906 BOTTLE -0.3010
-4.1455 BOTTOM -0.2800
-3.6482 BOUGHT -0.2999
-4.9906 BOUNCE -0.3010
-4.9906 BOUNDS -0.2800
-4.9906 BOURGEOISIE -0.3010
-4.0875 BOWL -0.2791
-3.8445 BOX -0.2800
-3.6684 BOY -0.2963
-4.2916 BOYS -0.2771
-4.1455 BRACELET -0.3000
-4.9906 BRAIDING -0.3010
-4.5135 BRAIN -0.2797
-4.9906 BRAKES -0.3010
-4.9906 BRANCH -0.3010
-4.9906 BRAND -0.2990
-4.9906 BRAVE -0.3010
-4.0875 BREAK -0.3001
-3.8445 BREAKFAST -0.2800
-4.9906 BREAST -0.3010
-4.9906 BREED -0.2990
-4.9906 BRICK -0.2800
-4.9906 BRIDE -0.3010
-4.1455 BRIDES -0.3010
-4.6895 BRIEF -0.3003
-4.6895 BRIEFLY -0.2939
-3.9906 BRIGHT -0.2988
-4.9906 BRIGHTER -0.2800
-4.1455 BRIGHTLY -0.2983
-4.9906 BRIM -0.3009
-4.5135 BRING -0.2952
-4.6895 BRINGS -0.3007
-4.9906 BRISTLES -0.3000
-4.0875 BROKE -0.3001
-4.1455 BROKEN -0.3008
-4.9906 BRONC -0.3000
-3.6684 BROTHER -0.2800
-4.1455 BROTHERS -0.3010
-4.2124 BROUGHT -0.2985
-4.5135 BROWN -0.3007
-4.9906 BRUISES -0.2989
-4.1455 BRUSH -0.3010
-4.9906 BRUSHY -0.3010
-4.9906 BUBBLES -0.3009
-4.9906 BUCKLE -0.2800
-4.9906 BUDDIES -0.3010
-4.9906 BUDDY -0.2800
-4.9906 BUFFALO -0.3010
-4.9906 BUGEYED -0.2989
-4.9906 BUGGED -0.3008
-4.0875 BUILD -0.2965
-4.0875 BUILDING -0.2797
-4.9906 BUILDINGS -0.2989
-4.6895 BUILT -0.2988
-4.9906 BULGED -0.2939
-4.9906 BULLET -0.2800
-4.9906 BULLETS -0.3007
-4.9906 BUM -0.3009
-4.9906 BUMP -0.3008
-4.9906 BUNKS -0.3005
-4.9906 BUNS -0.3007
-4.1455 BUREAUCRACY -0.2800
-4.1455 BURGLAR -0.3006
-4.9906 BURN -0.3008
-4.9906 BURNED -0.3010
-4.1455 BURNER -0.2800
-4.6895 BURNING -0.3007
-4.9906 BURSTING -0.2800
-4.9906 BURY -0.3009
-4.6895 BUS -0.2797
-4.9906 BUSHEL -0.2800
-4.9906 BUSINESS -0.2800
-4.9906 BUSY -0.3000
-2.9777 BUT -0.2627
-4.1455 BUTTERFLY -0.3009
-4.1455 BUTTERSCOTCH -0.3010
-3.8445 BUY -0.2971
-4.0875 BUYING -0.2971
-4.9906 BUZZ -0.2800
-4.6895 BUZZING -0.3010
-2.8766 BY -0.2562
-4.0875 CAB -0.2799
-4.9906 CABINETS -0.3010
-4.9906 CABLE -0.3010
-4.9906 CAFE -0.2800
-4.9906 CAFETERIA -0.3009
-4.9906 CAGE -0.2990
-4.9906 CALENDAR -0.2800
-4.9906 CALENDARS -0.2800
-4.1455 CALF -0.3010
-4.1455 CALICO -0.3010
-4.9906 CALL -0.2998
-4.2916 CALLED -0.2785
-4.9906 CALLING -0.3007
-4.5135 CALLS -0.2923
-4.9906 CALM -0.2989
-3.8445 CAME -0.2866
-4.1455 CAMEO -0.3006
-4.9906 CAMERA -0.3010
-4.0363 CAMP -0.3010
-4.9906 CAMPING -0.3010
-4.9906 CAMPUS -0.3010
-3.1273 CAN -0.2646
-4.1455 CANDIES -0.2968
-4.9906 CANDLES -0.3005
-4.9906 CANISTER -0.2989
-4.1455 CANNED -0.3010
-4.0363 CANNOT -0.3002
-4.9906 CANOES -0.3010
-4.9906 CANT -0.3010
-4.9906 CANTALOUPE -0.2989
-4.1455 CANTEEN -0.3002
-4.9906 CANTER -0.3002
-4.0875 CAPABLE -0.2990
-4.9906 CAPILLARY -0.3010
-4.9906 CAPITAL -0.3007
-4.9906 CAPITALISTS -0.2800
-4.9906 CAPITALIZE -0.3003
-4.9906 CAPN -0.2800
-4.9906 CAPSULE -0.2800
-4.6895 CAR -0.2800
-4.9906 CARAWAY -0.3010
-4.9906 CARDBOARD -0.3010
-4.9906 CARDS -0.2800
-4.9906 CARE -0.3008
-4.9906 CAREFREE -0.3010
-4.0875 CAREFUL -0.2978
-4.0363 CAREFULLY -0.2987
-4.1455 CARL -0.3010
-4.6895 CARPET -0.3010
-4.5135 CARRIED -0.2758
-4.9906 CARRIES -0.2972
-2.3250 CARRY -0.2913
-4.9906 CARRYING -0.3010
-4.3885 CARS -0.3003
-4.1455 CARTOON -0.3010
-4.0875 CARTOONS -0.2947
-4.9906 CARVED -0.2800
-4.6895 CASE -0.2962
-4.3885 CASES -0.3001
-4.1455 CASH -0.3010
-4.9906 CASSANDRA -0.3010
-4.1455 CAST -0.2800
-4.9906 CASTOR -0.3010
-4.9906 CASTORBEANS -0.3008
-4.9906 CASUALLY -0.2800
-4.0875 CAT -0.2965
-4.0875 CATCH -0.2977
-4.9906 CATEGORIES -0.2800
-4.9906 CATKINS -0.2800
-3.8445 CATS -0.2999
-4.6895 CATTLE -0.3009
-4.0875 CAUGHT -0.3010
-3.5282 CAUSED -0.2957
-4.9906 CAUSES -0.3007
-4.9906 CAUTION -0.3010
-4.9906 CAVITY -0.3009
-4.9906 CEASEFIRE -0.2800
-4.9906 CEILING -0.3010
-4.1455 CELEBRATE -0.2985
-4.1455 CELEBRATES -0.2939
-4.9906 CELLOPHANE -0.3010
-4.5135 CELLS -0.2797
-4.0875 CEMENT -0.2992
-4.9906 CENT -0.2800
-4.9906 CENTERED -0.3003
-4.9906 CENTRE -0.2800
-4.9906 CENTURY -0.2800
-4.9906 CEREAL -0.3000
-4.9906 CEREBRAL -0.3010
-4.5135 CERTAIN -0.2989
-4.1455 CHAIN -0.3002
-4.9906 CHAIR -0.3010
-4.9906 CHAIRS -0.3010
-4.1455 CHALLENGE -0.3008
-4.1455 CHALLENGED -0.2987
-4.0875 CHAMBER -0.2800
-4.5135 CHANCE -0.2942
-3.9492 CHANGE -0.2745
-4.0875 CHANGES -0.2725
-4.9906 CHANGING -0.3008
-4.6895 CHAOS -0.2798
-4.6895 CHARACTER -0.2990
-4.9906 CHARACTERISTICS -0.3001
-4.0875 CHARGE -0.2990
-4.1455 CHARGED -0.3002
-4.9906 CHARM -0.2989
-4.1455 CHARMER -0.3008
-4.1455 CHASES -0.3010
-4.9906 CHASING -0.2972
-4.9906 CHATTERING -0.2988
-4.9906 CHAUFFEURDRIVEN -0.3010
-4.9906 CHAW -0.2990
-4.1455 CHEATING -0.2800
-4.0875 CHECK -0.2725
-4.9906 CHECKED -0.3008
-4.9906 CHEEK -0.2800
-3.5434 CHEESE -0.2787
-4.5135 CHEMICAL -0.3010
-4.1455 CHEMICALS -0.3000
-4.9906 CHESTNUTS -0.3000
-4.9906 CHESTS -0.3010
-4.1455 CHEW -0.3003
-4.9906 CHIEF -0.3010
-4.9906 CHIEFLY -0.3010
-3.7865 CHILD -0.2741
-4.6895 CHILDHOOD -0.2982
-3.7353 CHILDREN -0.2722
-4.9906 CHILLED -0.3007
-4.1455 CHIP -0.3010
-4.1455 CHIPPER -0.2985
-4.1455 CHIVES -0.2992
-4.1455 CHLORIDE -0.3010
-4.1455 CHLORINE -0.2989
-4.1455 CHOCOLATE -0.2989
-4.0875 CHOICES -0.2979
-4.9906 CHOKE -0.3001
-4.1455 CHOOSING -0.3005
-4.0875 CHOP -0.2939
-4.9906 CHOPPED -0.3010
-4.9906 CHOREOGRAPHER -0.3009
-4.6895 CHORTLED -0.2800
-4.9906 CHORUSED -0.3010
-4.0875 CHOSE -0.2957
-4.9906 CHOSEN -0.3004
-4.9906 CHROME -0.2989
-4.9906 CHRONICLERS -0.3000
-4.1455 CHRONOLOGICAL -0.3010
-4.9906 CHRONOLOGICALLY -0.2800
-4.6895 CHUCK -0.2800
-4.9906 CHUCKLED -0.2939
-3.8445 CHURCH -0.2796
-4.9906 CIGAR -0.2800
-4.1455 CIGARETTES -0.2968
-4.9906 CINCH -0.2800
-4.9906 CINEMATIC -0.2800
-4.9906 CIRCLE -0.2990
-4.6895 CIRCUMSTANCES -0.3000
-4.6895 CITIZEN -0.2797
-4.0875 CITIZENSHIP -0.2800
-4.9906 CIVIL -0.3010
-4.9906 CIVILIAN -0.3009
-4.9906 CIVILIZATION -0.2992
-4.9906 CIVILIZED -0.3010
-4.1455 CLAMP -0.3010
-4.1455 CLAMS -0.2935
-4.1455 CLAMSHELL -0.3009
-4.9906 CLAPPING -0.3010
-4.1455 CLARIFICATION -0.2800
-4.9906 CLARIFIED -0.2989
-4.9906 CLARIFY -0.2972
-4.1455 CLASP -0.2939
-4.9906 CLASPED -0.3010
-4.6895 CLASS -0.2992
-4.1455 CLASSICAL -0.3010
-4.9906 CLATTER -0.3008
-4.9906 CLAUSE -0.2800
-3.9492 CLAY -0.2770
-4.6895 CLEAN -0.3010
-4.9906 CLEANED -0.3010
-4.9906 CLEANERS -0.2968
-4.0875 CLEAR -0.3000
-4.9906 CLEARED -0.3010
-4.9906 CLEARER -0.3010
-4.9906 CLEARING -0.3010
-4.0363 CLEARLY -0.3006
-4.9906 CLERKS -0.3009
-4.1455 CLIFFS -0.3010
-4.1455 CLIMATES -0.2800
-4.6895 CLIMBED -0.2929
-4.9906 CLIMBING -0.2989
-4.9906 CLINCHES -0.2800
-4.9906 CLING -0.2965
-4.9906 CLOCKWORK -0.2800
-4.2916 CLOSE -0.2744
-4.6895 CLOSER -0.2800
-4.9906 CLOSET -0.2800
-4.9906 CLOSING -0.2800
-4.9906 CLOT -0.3007
-4.3885 CLOTH -0.2987
-4.6895 CLOTHES -0.2756
-4.9906 CLOTHESHORSE -0.3007
-4.1455 CLOTHING -0.2800
-4.9906 CLOTTED -0.3010
-4.6895 CLOUD -0.2779
-4.9906 CLOUDBURST -0.3010
-4.1455 CLOVERLEAF -0.3010
-3.9906 CLUB -0.2792
-4.6895 CLUMSY -0.2797
-4.9906 CMON -0.3000
-4.1455 COACH -0.3008
-4.9906 COAGULATING -0.2989
-4.9906 COALBLACK -0.3010
-4.9906 COALITION -0.3000
-4.9906 COALS -0.2800
-4.1455 COAST -0.2992
-4.0875 COAT -0.2800
-4.1455 COAUTHORS -0.3003
-4.9906 COBBLERS -0.3010
-4.1455 COCONUT -0.3009
-4.9906 COCONUTS -0.3010
-4.9906 CODE -0.2800
-4.9906 CODES -0.2989
-4.1455 COEDUCATIONAL -0.2800
-4.1455 COEXIST -0.2800
-3.8445 COFFEE -0.2782
-4.9906 COIN -0.2965
-4.1455 COINCIDED -0.3002
-4.1455 COINS -0.2800
-4.6895 COLD -0.3010
-4.9906 COLDBLOODED -0.3010
-4.9906 COLLEAGUES -0.3002
-4.9906 COLLECTION -0.2989
-4.1455 COLLECTS -0.3010
-4.1455 COLLEGES -0.3000
-4.9906 COLLIE -0.3010
-4.9906 COLLUSION -0.2800
-4.5135 COLOR -0.2779
-3.8445 COLORFUL -0.2800
-4.6895 COLUMN -0.2990
-4.9906 COMBUSTION -0.3010
-3.7118 COME -0.2921
-4.0875 COMES -0.2999
-4.6895 COMING -0.2962
-4.9906 COMMAND -0.3010
-4.9906 COMMENT -0.2800
-3.9906 COMMON -0.2901
-4.9906 COMMONPLACE -0.2800
-4.9906 COMMUNISM -0.2800
-4.5135 COMMUNITY -0.2782
-4.9906 COMPACT -0.3010
-4.1455 COMPANIONS -0.2800
-4.5135 COMPANY -0.2798
-4.1455 COMPANYS -0.3010
-4.9906 COMPARE -0.3010
-4.9906 COMPARISON -0.2992
-4.9906 COMPENSATION -0.2992
-4.9906 COMPETENTLY -0.3010
-4.9906 COMPETING -0.3010
-4.1455 COMPETITION -0.2800
-4.9906 COMPETITIVE -0.3005
-4.9906 COMPETITORS -0.2800
-4.1455 COMPILE -0.2800
-4.6895 COMPLETE -0.3010
-4.0363 COMPLETELY -0.3010
-4.1455 COMPLEX -0.2800
-4.9906 COMPLEXITY -0.2990
-4.1455 COMPLIANCE -0.3002
-4.9906 COMPLICATED -0.2800
-4.9906 COMPLICITY -0.3000
-4.9906 COMPOSE -0.3010
-4.9906 COMPOSITION -0.3008
-4.1455 COMPOSURE -0.2800
-4.9906 COMPOUND -0.2800
-4.1455 COMPOUNDED -0.2939
-4.9906 COMPOUNDS -0.3000
-4.9906 COMPRESSES -0.2965
-4.9906 COMPULSION -0.2800
-4.1455 COMPUTER -0.3010
-4.9906 COMPUTERS -0.3000
-4.9906 COMRADES -0.3007
-4.9906 CONCEIVABLY -0.2939
-4.9906 CONCEIVED -0.3010
-4.6895 CONCEPT -0.2990
-4.6895 CONCERN -0.2929
-4.9906 CONCERNS -0.3010
-4.9906 CONCERT -0.2800
-4.9906 CONCESSIONAIRE -0.3010
-4.9906 CONCLUSION -0.2800
-4.9906 CONCLUSIONS -0.3006
-4.6895 CONCRETE -0.3010
-4.9906 CONCURRENT -0.3010
-4.9906 CONDEMNS -0.3007
-4.9906 CONDITION -0.2800
-4.0875 CONDITIONS -0.2778
-4.9906 CONFABULATION -0.3008
-4.6895 CONFIDENCE -0.2968
-4.9906 CONFIDENTIAL -0.3010
-4.6895 CONFIGURATION -0.2798
-4.9906 CONFINES -0.2800
-4.1455 CONFIRM -0.3010
-4.6895 CONFIRMATION -0.2982
-4.9906 CONFRONTED -0.3005
-4.6895 CONFUSION -0.2800
-4.9906 CONGESTION -0.2800
-4.9906 CONGRATULATE -0.2939
-4.9906 CONGREGATION -0.2800
-4.1455 CONNOISSEUR -0.3006
-4.9906 CONSCIENCE -0.2800
-4.9906 CONSEQUENCES -0.2990
-4.9906 CONSERVATISM -0.2989
-4.6895 CONSIDER -0.3003
-4.9906 CONSIDERABLE -0.3010
-4.9906 CONSIDERABLY -0.3010
-4.6895 CONSIDERED -0.2965
-4.9906 CONSIDERING -0.3010
-4.9906 CONSISTENTLY -0.2800
-4.9906 CONSOLIDATION -0.2800
-4.9906 CONSPICUOUS -0.3010
-4.0875 CONSTANTLY -0.2800
-4.9906 CONSTRUCTIONS -0.3010
-4.1455 CONSUME -0.3008
-4.9906 CONSUMERS -0.3010
-4.1455 CONSUMING -0.2800
-4.9906 CONSUMPTION -0.2800
-4.9906 CONTAIN -0.3010
-4.1455 CONTAINED -0.3009
-4.9906 CONTAINER -0.3010
-4.1455 CONTAINS -0.3008
-4.9906 CONTENTEDLY -0.2800
-4.1455 CONTINENTAL -0.3010
-4.6895 CONTINUE -0.2965
-4.5135 CONTINUED -0.2965
-4.9906 CONTINUES -0.2965
-4.9906 CONTINUING -0.3010
-4.6895 CONTINUOUS -0.2800
-4.9906 CONTINUOUSLY -0.3006
-4.9906 CONTRADICTORILY -0.2800
-4.9906 CONTRARY -0.3010
-4.5135 CONTRAST -0.2752
-4.9906 CONTRIBUTE -0.2965
-4.0875 CONTRIBUTED -0.2965
-4.1455 CONTRIBUTIONS -0.3006
-4.6895 CONTROL -0.3010
-4.9906 CONTROLS -0.3007
-4.9906 CONVEY -0.2968
-4.9906 CONVICTION -0.3000
-4.9906 CONVINCE -0.2989
-4.9906 COOK -0.3010
-4.9906 COOKEDOVER -0.3010
-4.9906 COOKIES -0.3010
-4.0875 COOKING -0.2799
-4.9906 COOPERATED -0.3010
-4.1455 COOPERATES -0.2968
-4.1455 COOPERATION -0.3010
-4.9906 COOPERATIVE -0.3010
-4.9906 COP -0.3007
-4.9906 COPPER -0.3007
-4.9906 COPY -0.2800
-4.9906 CORN -0.3010
-4.0363 CORNER -0.3007
-4.9906 CORNMEAL -0.2800
-4.9906 COROLLARIES -0.2800
-4.0875 CORRECT -0.3007
-4.9906 CORRUGATED -0.3010
-4.1455 CORSAGE -0.3010
-4.1455 CORY -0.3010
-3.9906 COST -0.3003
-4.9906 COSTLY -0.3006
-4.9906 COSTS -0.2800
-3.8445 COSTUMES -0.2789
-4.0875 COTTAGE -0.3009
-4.6895 COUGH -0.2800
-3.3374 COULD -0.2936
-4.0363 COULDNT -0.2996
-4.9906 COULDVE -0.3006
-4.0875 COUNT -0.2931
-4.1455 COUNTED -0.2800
-4.6895 COUNTRY -0.2947
-4.0875 COUNTY -0.2968
-4.9906 COUPLES -0.3010
-4.1455 COURIER -0.3000
-3.9492 COURSE -0.2962
-4.9906 COURT -0.3002
-4.9906 COURTS -0.3010
-4.9906 COVER -0.3007
-4.5135 COVERAGE -0.2783
-4.6895 COVERED -0.2972
-4.9906 COVERS -0.2972
-4.0875 COW -0.3010
-4.9906 COWARD -0.2800
-4.9906 COWBOY -0.3010
-4.9906 COWBOYS -0.3010
-4.9906 COWLING -0.3010
-4.0363 COWS -0.2800
-4.1455 COYOTE -0.3010
-4.1455 CRAB -0.3010
-4.6895 CRACK -0.2918
-4.9906 CRACKED -0.3010
-4.9906 CRAFT -0.2800
-4.9906 CRASH -0.2800
-4.6895 CRASHED -0.3005
-4.9906 CRASHING -0.3008
-4.9906 CRAVE -0.2972
-4.9906 CRAWLING -0.3010
-4.9906 CRAZILY -0.3010
-4.9906 CRAZY -0.3007
-3.6289 CREAM -0.2799
-4.1455 CREATE -0.3010
-4.6895 CREATED -0.2987
-4.9906 CREATION -0.2800
-4.6895 CREDIT -0.2800
-4.1455 CREOLE -0.3010
-4.9906 CREST -0.3008
-4.9906 CREW -0.3010
-4.9906 CRIMSON -0.3010
-4.6895 CRISIS -0.2800
-4.9906 CRISP -0.3010
-4.9906 CRISSCROSS -0.3010
-4.1455 CRISSCROSSED -0.2939
-3.8445 CRITICAL -0.3010
-4.0363 CROOKED -0.3010
-4.9906 CROSSED -0.2939
-4.9906 CROSSROADS -0.2800
-4.9906 CROWD -0.2800
-4.9906 CROWN -0.2989
-4.1455 CRUCIAL -0.2800
-4.9906 CRUCIFIED -0.3007
-4.9906 CRUDE -0.3010
-4.9906 CRUDELY -0.3010
-4.9906 CRUEL -0.3010
-4.9906 CRUELTY -0.2800
-4.9906 CRUSHERS -0.2800
-4.6895 CRY -0.2800
-4.9906 CRYSTALLIZING -0.2800
-4.1455 CUBIC -0.3010
-4.1455 CUISINE -0.2992
-4.9906 CULTIVATED -0.3010
-4.6895 CULTURAL -0.3010
-4.9906 CULTURES -0.3008
-4.1455 CUPCAKES -0.2989
-4.9906 CURE -0.2800
-4.0875 CURED -0.3005
-3.7601 CURIOSITY -0.2774
-4.6895 CURIOUSLY -0.3010
-4.9906 CURLY -0.3010
-4.9906 CURRENT -0.2800
-4.1455 CURRY -0.2800
-4.9906 CURVE -0.3010
-4.6895 CURVES -0.3006
-4.9906 CUSTOMERS -0.2800
-3.8445 CUT -0.2869
-4.1455 CYCLICAL -0.3010
-4.9906 CYNICS -0.2965
-4.1455 DAD -0.3006
-4.6895 DAILY -0.3010
-4.0875 DAMAGE -0.2961
-4.9906 DAMAGED -0.2800
-4.9906 DAMP -0.3010
-4.9906 DANCERS -0.2800
-4.9906 DANCES -0.3010
-4.9906 DANGER -0.2968
-4.1455 DANNY -0.3009
-2.3157 DARK -0.2988
-4.6895 DARKNESS -0.2800
-4.9906 DARNED -0.3010
-3.8766 DATA -0.2788
-4.1455 DATE -0.2800
-4.6895 DAVY -0.2800
-3.9492 DAY -0.2751
-4.9906 DAYDREAMED -0.3003
-4.3885 DAYS -0.2796
-4.1455 DAYTIME -0.3009
-4.5135 DEAD -0.2800
-4.1455 DEADLINE -0.3010
-3.9492 DEAL -0.2939
-4.9906 DEALERS -0.3007
-4.9906 DEAR -0.2985
-4.3885 DEATH -0.2800
-4.9906 DEBTS -0.3010
-4.9906 DEBUT -0.3009
-4.9906 DECADENT -0.3010
-4.9906 DECEITFUL -0.3010
-4.6895 DECIDE -0.2928
-4.6895 DECIDED -0.2725
-4.9906 DECIDES -0.2965
-4.9906 DECKING -0.2992
-4.9906 DECLINING -0.3010
-4.9906 DECORATOR -0.3009
-4.6895 DECREASE -0.2935
-4.9906 DEDUCTIBLE -0.3010
-4.9906 DEED -0.3010
-4.3885 DEEP -0.3009
-4.9906 DEEPER -0.3009
-4.9906 DEEPLY -0.3010
-4.9906 DEFECTS -0.3007
-4.6895 DEFEND -0.3010
-4.6895 DEFENSE -0.2799
-4.9906 DEFIANTLY -0.2800
-4.9906 DEFINE -0.3003
-4.9906 DEFINITELY -0.3009
-4.6895 DEGREE -0.2800
-4.1455 DEGREES -0.2800
-4.9906 DELEGATED -0.3010
-4.1455 DELETE -0.3010
-4.9906 DELICATE -0.3010
-4.1455 DELICIOUS -0.2800
-4.9906 DELIGHTFUL -0.3000
-4.9906 DELINEATING -0.3007
-4.9906 DELIVERING -0.2939
-4.9906 DEMANDED -0.2800
-4.9906 DEMINERALIZATION -0.2800
-4.9906 DEMONSTRATION -0.2983
-4.9906 DENSE -0.3000
-4.9906 DENSITY -0.3010
-4.9906 DENUNCIATION -0.3009
-4.6895 DENY -0.3003
-4.1455 DEPARTMENTS -0.2800
-4.1455 DEPARTURE -0.3010
-4.9906 DEPEND -0.3010
-4.9906 DEPUTY -0.3010
-4.9906 DERIVED -0.3005
-4.9906 DERIVING -0.3004
-4.1455 DESCRIBE -0.2939
-4.9906 DESEGREGATE -0.2800
-4.9906 DESERVES -0.2972
-4.6895 DESIGN -0.2992
-4.9906 DESIGNER -0.2800
-4.6895 DESIRABLE -0.3000
-4.9906 DESIRE -0.2989
-4.1455 DESIRES -0.3000
-4.5135 DESK -0.2797
-4.9906 DESOLATION -0.2800
-4.9906 DESPAIR -0.3007
-4.1455 DESPERATELY -0.3009
-4.9906 DESPISED -0.3010
-4.9906 DESPITE -0.2939
-3.8445 DESSERT -0.2800
-4.9906 DESTINY -0.2992
-4.0363 DESTROY -0.3010
-4.5135 DETAIL -0.2800
-4.9906 DETAILS -0.2800
-4.9906 DETECTABLE -0.2968
-4.9906 DETECTIVES -0.3010
-4.1455 DETERMINATION -0.2800
-4.9906 DETERMINE -0.3010
-4.9906 DETRACT -0.3005
-4.6895 DEVELOP -0.3009
-4.9906 DEVELOPED -0.3010
-4.1455 DEVELOPING -0.3010
-4.0363 DEVELOPMENT -0.2989
-4.0875 DIAGNOSIS -0.2997
-4.9906 DIAGONALLY -0.3008
-4.1455 DIANE -0.3008
-4.9906 DIARRHOEA -0.2800
-4.9906 DICTATORS -0.2800
-3.3278 DID -0.2658
-3.5434 DIDNT -0.2991
-4.5135 DIE -0.2755
-4.5135 DIED -0.2794
-4.9906 DIET -0.2800
-4.9906 DIFFER -0.3005
-4.9906 DIFFERENCE -0.2983
-4.9906 DIFFERENCES -0.3007
-4.9906 DIFFERENT -0.3010
-4.9906 DIFFERENTLY -0.2800
-4.0363 DIFFICULT -0.2965
-4.9906 DIGNITY -0.2800
-4.9906 DIM -0.2800
-4.1455 DIME -0.2800
-4.9906 DIMENSIONS -0.2990
-4.1455 DIMINISH -0.2965
-4.9906 DIMINISHING -0.3010
-4.9906 DINGO -0.3010
-3.6482 DINNER -0.2778
-4.1455 DIPLOMA -0.2800
-4.6895 DIRECTION -0.2778
-4.9906 DIRECTIONS -0.2800
-4.9906 DIRECTOR -0.2800
-4.9906 DIRECTORY -0.2992
-4.9906 DIRTY -0.3010
-3.8445 DISAPPEARED -0.2799
-4.9906 DISAPPROVAL -0.2800
-4.9906 DISAPPROVES -0.2990
-4.9906 DISASTER -0.2800
-4.9906 DISCARD -0.3007
-4.9906 DISCIPLINED -0.2800
-4.1455 DISCLAIMER -0.2800
-4.1455 DISCOUNT -0.3010
-4.9906 DISCOURAGED -0.3010
-4.1455 DISCOURAGING -0.3010
-4.9906 DISCOVERED -0.2800
-4.9906 DISCRETIONARY -0.3010
-4.9906 DISCUSSION -0.3007
-4.0875 DISCUSSIONS -0.2989
-4.1455 DISEASE -0.2800
-4.1455 DISGUISE -0.2800
-4.9906 DISGUSTING -0.2939
-4.0875 DISH -0.2800
-4.9906 DISHES -0.3010
-4.9906 DISLIKED -0.3010
-4.6895 DISOBEYED -0.2939
-4.1455 DISPENSING -0.3010
-4.9906 DISPERSED -0.3010
-4.9906 DISPLACEMENT -0.2990
-4.0875 DISPLAY -0.2980
-4.0875 DISPUTE -0.2800
-4.9906 DISPUTES -0.3010
-4.9906 DISREGARDING -0.3007
-4.9906 DISSOLVE -0.2800
-4.9906 DISTANCES -0.2965
-4.9906 DISTINCT -0.3010
-4.9906 DISTINGUISHED -0.3010
-4.9906 DISTORTED -0.2989
-4.9906 DISTRACTED -0.3007
-4.1455 DISTRESS -0.2989
-4.9906 DITCHES -0.2800
-4.9906 DIVE -0.2800
-4.9906 DIVIDED -0.3010
-4.9906 DIVINITIES -0.2965
-4.9906 DIVISION -0.2990
-4.9906 DIVORCE -0.3010
-4.1455 DIVORCED -0.3010
-3.0221 DO -0.2628
-3.8145 DOCTOR -0.2789
-4.0875 DOCTORS -0.2800
-4.5135 DOCTRINE -0.2997
-4.6895 DOCUMENTED -0.2756
-4.1455 DOCUMENTS -0.3009
-4.9906 DODGING -0.3008
-3.5926 DOES -0.2941
-4.5135 DOESNT -0.3010
-3.7353 DOG -0.2759
-4.9906 DOGMATICALLY -0.2800
-4.6895 DOGS -0.3003
-4.9906 DOIN -0.3003
-4.6895 DOING -0.2798
-4.0875 DOLL -0.2800
-4.9906 DOLLARANDCENTS -0.3010
-4.6895 DOLLARS -0.2950
-4.9906 DOLLARSANDCENTS -0.3010
-4.1455 DOLPHINS -0.3000
-4.9906 DOMESTIC -0.3010
-4.9906 DOMINATED -0.3005
-4.9906 DONATE -0.3010
-4.9906 DONATED -0.3007
-4.5135 DONE -0.2797
-2.3022 DONT -0.2952
-3.9492 DOOR -0.2800
-4.9906 DOORS -0.3007
-4.9906 DOORWAYS -0.2800
-4.9906 DOUBLE -0.3010
-4.9906 DOUBLEGLAZE -0.2965
-4.9906 DOUBT -0.2983
-4.9906 DOUGH -0.2965
-4.9906 DOUSED -0.2939
-3.3673 DOWN -0.2565
-4.9906 DOWNTOWN -0.2800
-4.9906 DOWNWARD -0.2800
-4.5135 DRAMATIC -0.2800
-4.9906 DRANK -0.3010
-4.9906 DRASTICALLY -0.3010
-3.8445 DRAW -0.3005
-4.1455 DRAWING -0.2939
-4.9906 DRAWLED -0.2800
-4.9906 DRAWN -0.3005
-4.6895 DREAM -0.2800
-4.9906 DREAMS -0.2800
-4.1455 DRENCHED -0.3005
-4.9906 DRESS -0.3009
-4.1455 DRESSING -0.2800
-4.9906 DRESSY -0.3010
-4.9906 DREW -0.3010
-4.9906 DRIED -0.3010
-4.1455 DRIFT -0.2992
-4.9906 DRIFTING -0.2992
-4.6895 DRINK -0.2800
-4.9906 DRIVE -0.3001
-4.5135 DRIVEN -0.2799
-4.9906 DRIVERS -0.2989
-4.1455 DROP -0.3010
-4.9906 DROPPED -0.3010
-4.6895 DROPS -0.2920
-4.5135 DROVE -0.2985
-3.9906 DRUGS -0.2966
-4.1455 DRUGSTORE -0.3000
-4.1455 DRUNKARD -0.2992
-4.9906 DRUNKARDS -0.2985
-4.9906 DRUNKENNESS -0.3000
-4.0363 DRY -0.3010
-4.9906 DUBIOUS -0.3010
-4.9906 DUCK -0.3002
-4.1455 DUCKS -0.3005
-4.0875 DUE -0.2965
-4.9906 DUG -0.2968
-4.6895 DUMB -0.2800
-4.9906 DUMPED -0.3007
-4.9906 DUPLICATE -0.3010
-4.6895 DURING -0.3001
-4.6895 DUST -0.3005
-4.9906 DUSTING -0.3010
-4.1455 DUTCH -0.3010
-4.9906 DUTY -0.3009
-4.0875 DWARF -0.2775
-4.9906 DYEING -0.3007
-4.9906 DYNAMICS -0.2990
-4.9906 DYNASTIC -0.3010
-3.2197 EACH -0.2964
-4.9906 EAGERLY -0.2800
-4.6895 EAGERNESS -0.2965
-4.6895 EAR -0.2989
-4.5135 EARLIER -0.3010
-3.6289 EARLY -0.2945
-4.9906 EARNESTLY -0.3010
-4.5135 EARTH -0.2793
-4.9906 EARTHENWARE -0.3010
-4.1455 EARTHQUAKE -0.2800
-4.9906 EARTHS -0.2939
-4.6895 EASE -0.2756
-4.9906 EASED -0.3005
-4.3885 EASIER -0.2752
-4.6895 EASILY -0.3009
-4.1455 EASTERN -0.3010
-3.7865 EASY -0.2955
-4.1455 EASYGOING -0.3010
-3.5282 EAT -0.2771
-4.9906 EATEN -0.3010
-3.8145 EATING -0.2799
-4.9906 ECCENTRICITY -0.2965
-4.9906 ECHO -0.2990
-4.6895 ECONOMIC -0.2989
-4.9906 ECONOMICALLY -0.2800
-4.6895 ECONOMY -0.2995
-4.9906 ECUMENICAL -0.2989
-3.8145 EDGE -0.2778
-4.9906 EDGES -0.2800
-4.9906 EDGY -0.3010
-4.0875 EDUCATION -0.2800
-4.9906 EDUCATIONAL -0.3010
-4.9906 EFFECT -0.2800
-4.6895 EFFECTIVE -0.3010
-4.1455 EFFECTS -0.2800
-4.5135 EFFORT -0.2771
-4.0363 EGGS -0.2974
-4.9906 EGOTIST -0.2800
-3.8145 EIGHT -0.2999
-4.9906 EIGHTEENTH -0.3010
-4.0875 EITHER -0.2770
-4.9906 ELABORATELY -0.3010
-4.9906 ELBOWING -0.2989
-4.6895 ELECTRIC -0.3010
-4.9906 ELECTRONIC -0.3010
-4.9906 ELEMENT -0.2992
-4.9906 ELEMENTARYSCHOOL -0.3010
-4.9906 ELEMENTS -0.3009
-4.9906 ELEVATOR -0.2989
-4.1455 ELEVEN -0.3010
-4.9906 ELLIPSOIDS -0.2939
-3.8445 ELM -0.3009
-4.9906 ELONGATION -0.3008
-3.6684 ELSE -0.2794
-4.2124 EM -0.2742
-4.9906 EMBANKMENT -0.3007
-4.9906 EMBRACING -0.3008
-4.9906 EMERGE -0.3010
-4.1455 EMERGENCY -0.3010
-4.9906 EMOTIONALLY -0.3004
-4.9906 EMOTIONS -0.2800
-4.0875 EMPEROR -0.2986
-4.0363 EMPHASIZED -0.2939
-4.9906 EMPHYSEMA -0.3010
-4.9906 EMPIRICAL -0.3010
-4.1455 EMPLOYEE -0.3010
-4.9906 EMPLOYEES -0.3003
-4.9906 EMPTY -0.3010
-4.9906 ENAMEL -0.2800
-4.9906 ENCAMPED -0.3010
-4.9906 ENCLOSED -0.2968
-4.9906 ENCOUNTERED -0.3010
-4.9906 ENCOURAGE -0.3007
-4.1455 ENCOURAGED -0.3005
-4.1455 ENCYCLOPEDIAS -0.3009
-4.9906 END -0.2990
-4.9906 ENDS -0.2989
-4.9906 ENDURANCE -0.2800
-4.3885 ENEMY -0.3003
-4.6895 ENERGY -0.3000
-4.9906 ENGINE -0.3010
-4.9906 ENGINEER -0.2800
-4.0875 ENGINEERING -0.3010
-4.9906 ENGINEERS -0.3010
-4.9906 ENGULFED -0.3005
-4.9906 ENIGMA -0.2800
-3.8445 ENJOY -0.3003
-4.9906 ENJOYED -0.3010
-4.9906 ENLISTED -0.2972
-3.5926 ENOUGH -0.2669
-4.9906 ENRICH -0.3008
-4.9906 ENSUE -0.3008
-3.8445 ENTER -0.3009
-4.9906 ENTHUSIASTIC -0.3004
-4.5135 ENTIRE -0.3010
-4.6895 ENTIRELY -0.3008
-4.9906 ENTITLE -0.3007
-4.9906 ENTRIES -0.3010
-4.9906 ENTRY -0.3008
-4.6895 ENVIRONMENT -0.2790
-4.9906 ENVIRONMENTS -0.2800
-4.9906 EPHEMERAL -0.2800
-4.9906 EPIDEMIC -0.3010
-4.1455 EQUAL -0.2965
-4.9906 EQUALLY -0.3010
-4.9906 EQUATION -0.2800
-3.9906 EQUIPMENT -0.2789
-4.9906 EQUIPPED -0.2965
-4.9906 EQUIVALENT -0.3010
-4.9906 ERA -0.2800
-4.9906 ERECT -0.2800
-4.9906 ERUPTION -0.2800
-4.1455 ESCALATOR -0.2800
-4.9906 ESOTERIC -0.3010
-4.9906 ESPECIALLY -0.3010
-3.8445 ESSAY -0.2992
-4.6895 ESSENTIAL -0.2795
-4.6895 ESSENTIALLY -0.3010
-4.9906 ESTABLISHMENT -0.2800
-4.9906 ESTIMATES -0.2800
-4.9906 ETC -0.2800
-4.9906 ETERNAL -0.3010
-4.1455 ETIQUETTE -0.3010
-4.9906 EVACUATE -0.2800
-4.1455 EVALUATE -0.3004
-4.9906 EVALUATED -0.3005
-4.9906 EVALUATION -0.2800
-3.6895 EVEN -0.2927
-3.5282 EVENING -0.2800
-4.6895 EVENLY -0.2799
-4.0363 EVENTS -0.2963
-4.9906 EVENTUALITIES -0.3000
-4.9906 EVENTUALLY -0.3002
-3.8145 EVER -0.2773
-4.9906 EVERINCREASING -0.3010
-3.1777 EVERY -0.3003
-4.6895 EVERYBODY -0.2968
-4.6895 EVERYONE -0.2992
-4.5135 EVERYTHING -0.2963
-3.9492 EVIDENCE -0.2763
-4.9906 EVIDENT -0.3008
-4.9906 EVOCATIVE -0.3010
-4.9906 EXACERBATED -0.3010
-4.9906 EXACERBATIONS -0.3010
-4.9906 EXAGGERATED -0.2800
-4.9906 EXAMINATION -0.2990
-4.6895 EXAMINED -0.3001
-4.3885 EXAMPLE -0.2759
-3.8445 EXAMPLES -0.2800
-4.6895 EXCELLENT -0.3010
-4.5135 EXCEPT -0.2999
-4.6895 EXCEPTION -0.2990
-4.9906 EXCESS -0.3010
-4.9906 EXCHANGE -0.2968
-4.1455 EXCHANGED -0.3010
-4.1455 EXCITEMENT -0.2800
-4.9906 EXCLAIMING -0.2800
-4.0875 EXCLUSIVE -0.3010
-4.0875 EXECUTE -0.2997
-4.1455 EXECUTION -0.2990
-4.9906 EXECUTIVE -0.3010
-4.9906 EXERCISE -0.3010
-4.9906 EXERCISES -0.3000
-4.1455 EXHIBITED -0.3010
-4.9906 EXHIBITS -0.3010
-4.0875 EXIST -0.2756
-4.6895 EXISTED -0.2756
-4.5135 EXISTENCE -0.2782
-4.1455 EXISTING -0.3010
-4.6895 EXISTS -0.2778
-4.1455 EXOTIC -0.3010
-4.9906 EXPECT -0.3010
-4.9906 EXPECTED -0.2800
-4.9906 EXPECTING -0.2972
-4.9906 EXPECTS -0.2965
-4.9906 EXPENSIVE -0.3010
-3.9492 EXPERIENCE -0.2756
-4.6895 EXPERIENCED -0.2778
-4.9906 EXPERIMENT -0.3010
-4.9906 EXPERIMENTAL -0.3010
-4.0875 EXPERIMENTS -0.2800
-4.1455 EXPERTISE -0.2800
-4.9906 EXPERTLY -0.3010
-4.5135 EXPERTS -0.2778
-4.9906 EXPLAIN -0.3008
-4.6895 EXPLAINS -0.3002
-4.9906 EXPLANATION -0.2992
-4.1455 EXPLICITLY -0.3010
-4.6895 EXPLOSION -0.3008
-4.9906 EXPORT -0.3010
-4.9906 EXPOSURE -0.2965
-4.1455 EXPRESSION -0.2800
-4.9906 EXPRESSWAY -0.3010
-4.1455 EXQUISITE -0.2800
-4.6895 EXTENDED -0.3005
-4.9906 EXTENDING -0.3010
-4.9906 EXTENSIVE -0.3010
-4.6895 EXTENT -0.3009
-3.8145 EXTRA -0.3010
-4.9906 EXTRAORDINARY -0.3010
-4.3885 EYE -0.2779
-4.1455 EYEDROPS -0.3005
-4.9906 EYELIDS -0.3010
-3.6289 EYES -0.2776
-4.1455 EYESTRAIN -0.2800
-3.9492 FACE -0.2721
-4.5135 FACES -0.2798
-4.5135 FACT -0.2796
-4.9906 FACTORS -0.3010
-4.6895 FACTS -0.2800
-4.6895 FACULTY -0.2800
-4.9906 FADED -0.2800
-4.1455 FAIL -0.3005
-4.9906 FAILED -0.2965
-4.0875 FAILS -0.2963
-4.0875 FAILURE -0.2965
-4.9906 FAIR -0.3010
-4.6895 FAITH -0.3007
-4.5135 FALL -0.2796
-4.9906 FALLS -0.2989
-4.9906 FALSE -0.3010
-4.9906 FALTERS -0.3007
-4.9906 FAME -0.3009
-4.2916 FAMILY -0.2787
-4.0875 FAMOUS -0.3010
-4.9906 FANCIER -0.3009
-4.9906 FANCY -0.2800
-4.1455 FANGS -0.2800
-4.1455 FAR -0.2871
-3.9906 FARM -0.2797
-4.0875 FARMERS -0.3010
-4.1455 FARMLAND -0.2989
-4.9906 FARTHER -0.2800
-4.9906 FASCICULATIONS -0.3007
-4.1455 FASCINATING -0.3010
-4.9906 FASHIONED -0.2800
-4.9906 FAST -0.2800
-4.9906 FASTER -0.2800
-4.9906 FAT -0.3010
-4.9906 FATHER -0.2800
-4.6895 FATHERS -0.3009
-4.9906 FATIGUE -0.2989
-4.9906 FATIGUED -0.3010
-4.9906 FATIGUES -0.2989
-4.9906 FAULT -0.2800
-4.9906 FAULTS -0.3004
-4.9906 FAVOR -0.2800
-4.9906 FAVORITE -0.3010
-4.1455 FAWN -0.2800
-4.6895 FEAR -0.2779
-4.9906 FEARFUL -0.2989
-4.9906 FEARS -0.3008
-4.9906 FEASIBLE -0.2800
-4.9906 FEAST -0.3008
-4.9906 FEATHER -0.2968
-4.1455 FEATHERS -0.2800
-4.0363 FEATURES -0.2961
-4.9906 FEED -0.3010
-4.3885 FEEL -0.2984
-4.9906 FEELING -0.3010
-4.0875 FEELINGS -0.2988
-3.8145 FEET -0.2763
-4.3885 FELL -0.2790
-4.9906 FELLA -0.2800
-4.0363 FELT -0.2865
-4.9906 FEMALE -0.3010
-4.9906 FENCED -0.3007
-4.9906 FERMENTED -0.3005
-4.9906 FERTILIZERS -0.2989
-4.9906 FEVER -0.2800
-4.9906 FEVERISHLY -0.2800
-4.1455 FEW -0.2794
-4.9906 FEWER -0.3010
-4.9906 FIBERS -0.2800
-4.9906 FIBROSIS -0.2989
-4.9906 FICTION -0.2800
-4.9906 FIDDLES -0.3010
-4.0875 FIELD -0.2965
-4.9906 FIELDS -0.2800
-4.9906 FIELDWORK -0.2800
-4.9906 FIERCELY -0.2800
-4.9906 FIERY -0.3010
-4.9906 FIFTEEN -0.3010
-4.1455 FIFTH -0.3010
-4.6895 FIFTY -0.2800
-4.9906 FIGHT -0.2986
-4.9906 FIGHTS -0.3010
-4.5135 FIGURE -0.2962
-4.9906 FIGURED -0.3003
-4.6895 FIGURES -0.2997
-4.9906 FILE -0.2965
-3.8445 FILES -0.2800
-3.7865 FILL -0.2867
-4.9906 FILLING -0.3002
-3.9906 FILM -0.2798
-4.6895 FILMS -0.2779
-4.9906 FILTERED -0.3010
-4.6895 FINAL -0.3010
-4.5135 FINALLY -0.2997
-4.9906 FINANCING -0.3000
-4.3885 FIND -0.2959
-4.1455 FINDING -0.3010
-4.0875 FINDS -0.2964
-4.5135 FINE -0.2800
-4.9906 FINEFEATHERED -0.3010
-4.1455 FINGER -0.2987
-4.9906 FINGERPRINTS -0.2800
-4.5135 FINGERS -0.2800
-4.0363 FINISH -0.2798
-4.9906 FINISHING -0.3010
-4.2916 FIRE -0.2758
-4.9906 FIREPLACE -0.2800
-4.1455 FIRES -0.3000
-4.9906 FIRING -0.3010
-4.9906 FIRMLY -0.3010
-4.9906 FIRMNESS -0.3007
-3.3471 FIRST -0.2741
-4.9906 FISCAL -0.3010
-4.9906 FISHERMEN -0.3009
-4.6895 FISHING -0.2968
-4.6895 FIST -0.2793
-4.9906 FIT -0.3010
-4.3885 FIVE -0.2988
-4.9906 FIVEHUNDRED -0.3010
-4.9906 FIX -0.3008
-4.0875 FIXED -0.2800
-4.1455 FJORDS -0.3008
-4.0875 FLAG -0.3010
-4.6895 FLAME -0.3010
-4.6895 FLASH -0.2800
-4.9906 FLASHING -0.2800
-4.6895 FLAT -0.3010
-4.9906 FLATBOTTOMED -0.3010
-4.9906 FLAWLESS -0.2800
-4.9906 FLAXSEED -0.3010
-4.9906 FLED -0.3005
-4.9906 FLESH -0.2800
-4.0363 FLEW -0.2965
-4.9906 FLEXIBLE -0.3010
-4.9906 FLICKERED -0.2800
-4.9906 FLIP -0.2972
-4.9906 FLOAT -0.2968
-4.9906 FLOC -0.2800
-4.3885 FLOOR -0.2800
-4.9906 FLOORBOARDS -0.2972
-4.9906 FLOPPED -0.3009
-4.9906 FLOURISHES -0.2800
-4.6895 FLOW -0.2968
-4.1455 FLOWER -0.3010
-4.9906 FLOWERPOT -0.2800
-4.9906 FLOWERS -0.2800
-4.6895 FLUID -0.3010
-4.1455 FLURRIES -0.2800
-4.9906 FLUTTERED -0.2800
-4.1455 FLYING -0.3010
-4.1455 FOAM -0.3010
-4.9906 FOAMY -0.3010
-4.9906 FOCUS -0.2985
-4.9906 FOIL -0.2800
-4.9906 FOLDS -0.2990
-4.9906 FOLLOW -0.3010
-4.6895 FOLLOWED -0.2966
-4.6895 FOLLOWING -0.2938
-4.6895 FOLLOWS -0.3008
-4.0875 FOOD -0.2789
-4.9906 FOODS -0.2800
-4.9906 FOOL -0.2972
-4.9906 FOOLING -0.3010
-4.6895 FOOLISH -0.2800
-4.9906 FOOLS -0.3000
-4.6895 FOOT -0.3000
-4.1455 FOOTBALL -0.3010
-4.9906 FOOTFALL -0.2800
-4.9906 FOOTNOTES -0.2800
-2.6561 FOR -0.2515
-4.1455 FORBIDDEN -0.2989
-4.1455 FORCE -0.2800
-4.6895 FORCED -0.2964
-3.9906 FORCES -0.2778
-4.0875 FOREIGN -0.3009
-4.9906 FOREIGNERS -0.2800
-3.8445 FOREST -0.2789
-4.9906 FOREVER -0.2800
-4.1455 FORGERY -0.2800
-4.5135 FORGET -0.2979
-4.5135 FORM -0.2737
-4.9906 FORMED -0.3010
-4.9906 FORMER -0.3010
-4.9906 FORMS -0.2800
-4.6895 FORMULA -0.2958
-4.9906 FORMULATION -0.2968
-4.6895 FORTH -0.3003
-4.9906 FORTYSEVEN -0.3010
-4.6895 FORWARD -0.3000
-4.9906 FOSTERS -0.3010
-4.9906 FOUGHT -0.2939
-4.9906 FOUL -0.2800
-3.5434 FOUND -0.2683
-3.9492 FOUR -0.3009
-4.9906 FRANKFURTER -0.3010
-4.9906 FRANKFURTERS -0.2800
-3.8145 FREELY -0.2800
-4.9906 FREETHINKERS -0.3000
-4.1455 FREQUENT -0.3010
-3.7865 FREQUENTLY -0.2790
-3.6482 FRESH -0.3009
-4.9906 FRIEND -0.3010
-4.0875 FRIENDS -0.2778
-4.1455 FRIGHTENED -0.3010
-4.9906 FRINGE -0.2990
-4.9906 FRIVOLOUS -0.3010
-2.8937 FROM -0.2578
-4.6895 FRONT -0.2990
-4.9906 FROSTBITE -0.2800
-4.9906 FROWNINGLY -0.3007
-4.9906 FROZE -0.3010
-3.8445 FRUIT -0.3009
-4.1455 FRUSTRATION -0.3010
-4.1455 FUDGE -0.3010
-4.6895 FULFILLING -0.2968
-3.9906 FULL -0.2989
-4.9906 FULLNESS -0.3010
-4.9906 FUMBLED -0.3010
-4.9906 FUMING -0.3010
-4.1455 FUN -0.2965
-4.9906 FUNCTION -0.3010
-4.6895 FUNCTIONAL -0.3010
-4.1455 FUND -0.3010
-4.1455 FUNDING -0.3009
-4.9906 FUNGICIDES -0.3000
-4.1455 FUNNY -0.3009
-4.9906 FUR -0.3010
-4.9906 FURIOUSLY -0.3002
-4.9906 FURNISH -0.3010
-4.1455 FURRIER -0.3009
-4.6895 FURTHER -0.3002
-4.1455 FUTURE -0.3009
-4.1455 GAB -0.3010
-4.9906 GADFLY -0.3009
-4.9906 GADGET -0.2800
-4.6895 GAG -0.2800
-4.9906 GAIN -0.3010
-4.0875 GAINED -0.3004
-4.9906 GAIT -0.2992
-4.9906 GALLON -0.2985
-4.6895 GAME -0.2791
-4.9906 GANG -0.3007
-4.9906 GANGPLANK -0.3010
-4.1455 GARAGE -0.3010
-4.0875 GARBAGE -0.3010
-3.6684 GARDEN -0.2797
-4.1455 GARDENS -0.2992
-4.1455 GARLIC -0.2968
-4.9906 GARRISONED -0.2800
-3.5926 GAS -0.3009
-4.9906 GASHES -0.3003
-4.9906 GASSING -0.3010
-4.9906 GATES -0.2800
-4.9906 GATHERED -0.3010
-4.6895 GATHERING -0.2779
-4.9906 GAUDY -0.2800
-3.8145 GAVE -0.2933
-4.9906 GAZED -0.3009
-4.9906 GEAR -0.2800
-4.9906 GEEING -0.2989
-4.3885 GENERAL -0.2799
-4.9906 GENERALIZATIONS -0.3008
-4.9906 GENERALIZE -0.3009
-4.9906 GENERALLY -0.3010
-4.1455 GENERALS -0.3010
-4.9906 GENERATIONS -0.2800
-4.9906 GENEROUS -0.3010
-4.9906 GENEROUSLY -0.2800
-3.8445 GENTLY -0.3009
-4.9906 GENUINELY -0.3010
-4.9906 GEOCENTRICISM -0.3010
-4.9906 GEOGRAPHICALLY -0.2800
-3.8445 GEOLOGICAL -0.3010
-3.8445 GEORGE -0.2991
-3.2916 GET -0.2595
-4.1455 GETS -0.3010
-4.0363 GETTING -0.2999
-4.9906 GHETTO -0.3010
-4.9906 GHETTOS -0.2800
-4.1455 GIANT -0.3010
-4.9906 GIANTS -0.3010
-3.8145 GIFT -0.2800
-4.1455 GIFTS -0.3000
-4.1455 GIGANTIC -0.3010
-4.6895 GIN -0.3010
-4.1455 GIRAFFES -0.3002
-4.1455 GIRL -0.2769
-4.9906 GIRLIE -0.3006
-4.9906 GIRLISHLY -0.3010
-4.6895 GIRLS -0.2938
-3.7865 GIVE -0.2894
-4.2916 GIVEN -0.2749
-4.0363 GIVES -0.2926
-4.6895 GIVIN -0.3006
-4.5135 GLASS -0.3010
-4.9906 GLAZED -0.3005
-4.9906 GLEAM -0.2968
-4.9906 GLEAMED -0.2968
-4.9906 GLEAMING -0.3010
-4.9906 GLIMPSE -0.2990
-4.1455 GLISTENING -0.3009
-4.9906 GLOSSY -0.3010
-4.9906 GLOW -0.2800
-4.1455 GLUE -0.3010
-4.9906 GLUED -0.3010
-4.9906 GLUTTONS -0.2800
-3.4343 GO -0.2710
-4.9906 GOAL -0.2800
-4.1455 GOCART -0.3008
-3.9492 GOES -0.3006
-4.9906 GOIN -0.3010
-3.8145 GOING -0.2956
-4.0875 GOLD -0.3010
-4.9906 GOLFING -0.3010
-4.0875 GONE -0.2772
-4.5135 GONNA -0.3007
-3.4591 GOOD -0.2772
-4.9906 GOODNESS -0.2989
-4.9906 GOODNIGHT -0.3002
-4.1455 GOOSE -0.3010
-4.1455 GOOSEBERRY -0.3009
-4.1455 GORGEOUS -0.3010
-4.9906 GOSH -0.2939
-3.7118 GOT -0.2846
-4.1455 GOULASH -0.3001
-4.9906 GOVERN -0.3010
-3.8445 GOVERNMENT -0.3010
-4.1455 GOWNS -0.2800
-4.9906 GRACEFULLY -0.2985
-4.9906 GRADEEQUIVALENT -0.3000
-4.6895 GRADUALLY -0.2961
-4.1455 GRADUATION -0.3010
-4.9906 GRAINS -0.2989
-4.9906 GRANTS -0.3000
-3.8445 GRAPH -0.2793
-4.9906 GRATEFUL -0.2800
-4.9906 GRAYING -0.3010
-4.1455 GREASING -0.2985
-2.3259 GREASY -0.2989
-3.6482 GREAT -0.3008
-4.1455 GREATLY -0.3010
-4.9906 GREEDILY -0.2989
-4.1455 GREEN -0.3010
-4.9906 GREENNESS -0.2800
-4.9906 GREETED -0.3005
-4.1455 GREGORY -0.2989
-4.9906 GRIEVANCE -0.3000
-4.0875 GRIEVANCES -0.2800
-4.9906 GRILL -0.3009
-4.9906 GRINNED -0.2800
-4.9906 GRIP -0.3003
-4.9906 GROIN -0.3010
-4.9906 GROOM -0.3010
-4.9906 GROSS -0.3010
-4.9906 GROTESQUE -0.3010
-4.6895 GROUND -0.3010
-4.1455 GROUNDHOG -0.3010
-3.7353 GROUP -0.2989
-4.9906 GROUPS -0.2800
-4.0363 GROW -0.3010
-4.0875 GROWING -0.3010
-4.0875 GROWN -0.2961
-4.9906 GROWS -0.3010
-4.9906 GRUDGINGLY -0.3005
-4.9906 GRUNT -0.3010
-4.9906 GUARANTEED -0.3007
-4.0875 GUARANTEES -0.2958
-4.9906 GUERRILLA -0.3010
-4.9906 GUERRILLAS -0.3007
-4.9906 GUESS -0.3006
-4.9906 GUIDANCE -0.2989
-4.9906 GUIDE -0.3010
-4.9906 GUIDEBOOK -0.3010
-4.9906 GUIDES -0.3000
-4.9906 GUILT -0.2989
-4.6895 GUILTY -0.3010
-4.9906 GUM -0.2992
-4.9906 GUMS -0.2989
-4.9906 GUN -0.3010
-4.9906 GUNMAN -0.3010
-4.1455 GUNPOWDER -0.3001
-4.9906 GURGLE -0.2990
-4.1455 GUS -0.3008
-4.9906 GUSHED -0.3010
-4.9906 GUTTURAL -0.3010
-4.5135 GUY -0.2777
-4.9906 GUYS -0.2988
-4.1455 GWEN -0.3010
-4.9906 GYRO -0.3010
-4.9906 GYROCOMPASS -0.3010
-4.6895 HA -0.2800
-4.1455 HABIT -0.2800
-2.2696 HAD -0.2801
-4.6895 HAFTA -0.3008
-4.9906 HAILS -0.3008
-3.8766 HAIR -0.2777
-4.5135 HALF -0.2951
-4.9906 HALFINCH -0.3010
-4.9906 HALFMAN -0.2800
-4.1455 HALLOWEEN -0.3010
-3.8445 HALLWAY -0.2800
-4.9906 HAM -0.3009
-4.9906 HAMRADIO -0.3010
-3.5756 HAND -0.2740
-4.1455 HANDBAG -0.3007
-4.6895 HANDFUL -0.2988
-4.1455 HANDLE -0.2939
-4.9906 HANDLING -0.3010
-4.2124 HANDS -0.2958
-4.9906 HANDSOME -0.3010
-4.9906 HANDYMANCARPENTER -0.2800
-4.9906 HANGING -0.3003
-4.9906 HANGOVERS -0.2800
-4.9906 HAPPEN -0.2965
-4.6895 HAPPENED -0.2963
-4.9906 HAPPILY -0.3008
-4.6895 HAPPY -0.2986
-3.5926 HARD -0.2739
-4.6895 HARDLY -0.2971
-4.9906 HARDY -0.3010
-4.9906 HARMLESSLY -0.3006
-4.9906 HARMONY -0.2800
-4.1455 HARMS -0.2972
-4.9906 HARSH -0.2800
-3.2502 HAS -0.2799
-4.9906 HASTILY -0.2939
-4.0363 HAT -0.2790
-4.5135 HATE -0.2978
-4.9906 HATRED -0.2990
-4.1455 HAUGHTY -0.3010
-4.1455 HAULING -0.3009
-4.1455 HAUNTED -0.3010
-2.8972 HAVE -0.2557
-4.9906 HAVENT -0.3010
-4.6895 HAVING -0.2972
-4.9906 HAWING -0.3005
-4.6895 HAY -0.3010
-4.9906 HAZARDS -0.2965
-4.6895 HAZE -0.2800
-2.6232 HE -0.2898
-3.9492 HEAD -0.2776
-4.9906 HEADACHE -0.2800
-4.9906 HEADACHES -0.3001
-4.9906 HEADING -0.2800
-4.9906 HEADINTHECLOUDS -0.3010
-4.9906 HEADQUARTERS -0.3007
-4.6895 HEADS -0.2800
-4.9906 HEALING -0.2800
-4.9906 HEALTH -0.3010
-4.9906 HEALTHFUL -0.3010
-4.1455 HEALTHY -0.3001
-4.9906 HEAP -0.2800
-4.0875 HEAR -0.2935
-4.6895 HEARD -0.2725
-4.9906 HEART -0.3010
-4.6895 HEARTILY -0.2800
-4.1455 HEAT -0.3010
-4.9906 HEATS -0.3010
-4.9906 HEAVEN -0.2989
-4.9906 HEAVIER -0.3009
-4.6895 HEAVY -0.2989
-4.3885 HED -0.2981
-4.9906 HEELS -0.3000
-4.9906 HEIGHTS -0.3006
-4.9906 HELIUM -0.3010
-4.3885 HELL -0.2799
-4.6895 HELLO -0.3010
-3.6482 HELP -0.2737
-4.6895 HELPFUL -0.3006
-4.9906 HELPING -0.3010
-4.9906 HELPLESS -0.3000
-4.6895 HELPS -0.2937
-4.6895 HEMORRHAGE -0.2779
-4.9906 HEN -0.3010
-4.9906 HEPATITIS -0.3000
-2.8868 HER -0.2549
-4.1455 HERBS -0.3010
-4.9906 HERD -0.3010
-4.6895 HERDIN -0.2800
-3.7118 HERE -0.2743
-4.9906 HERITAGE -0.2992
-4.9906 HEROIC -0.3010
-4.1455 HEROISM -0.2800
-4.5135 HERSELF -0.2799
-4.2916 HES -0.2969
-4.9906 HESITATE -0.2800
-4.9906 HEY -0.3009
-4.9906 HIBACHI -0.2968
-4.6895 HIDE -0.2971
-4.9906 HIDES -0.2939
-4.9906 HIDING -0.3008
-3.6289 HIGH -0.2722
-4.5135 HIGHER -0.2968
-4.9906 HIGHEST -0.3010
-4.5135 HIGHLY -0.3010
-4.9906 HIKING -0.2800
-4.9906 HILLS -0.3010
-3.0663 HIM -0.2557
-3.9114 HIMSELF -0.2690
-4.1455 HINDU -0.3010
-4.9906 HINT -0.2990
-4.9906 HIRE -0.3010
-4.0363 HIRED -0.2971
-4.1455 HIRES -0.3010
-4.9906 HIRING -0.2939
-2.7141 HIS -0.2773
-4.1455 HISPANIC -0.3010
-4.9906 HISTORICAL -0.3010
-4.9906 HISTORICALLY -0.2972
-4.1455 HISTORY -0.2800
-4.0875 HIT -0.2938
-4.9906 HOARSE -0.3010
-4.6895 HOLD -0.3002
-4.9906 HOLDER -0.3006
-4.6895 HOLDING -0.2977
-4.5135 HOLDS -0.2944
-4.9906 HOLE -0.2968
-4.9906 HOLES -0.2968
-4.1455 HOLIDAY -0.3010
-3.6104 HOME -0.2790
-4.9906 HOMEMADE -0.3010
-4.9906 HOMES -0.2800
-4.9906 HOMOGENEOUS -0.3010
-4.9906 HONEST -0.2989
-4.9906 HONESTY -0.3010
-4.6895 HONEY -0.2789
-4.9906 HONEYBEES -0.3010
-3.7353 HONOR -0.2792
-4.1455 HOOD -0.2990
-4.9906 HOOFS -0.3007
-4.9906 HOOKING -0.3007
-4.2124 HOPE -0.2682
-4.9906 HOPED -0.3004
-4.9906 HOPEFUL -0.3010
-4.9906 HORIZON -0.2800
-4.9906 HORROR -0.2800
-3.9906 HORSE -0.2999
-4.9906 HORSEBACK -0.3010
-4.9906 HORSEPLAY -0.2800
-4.6895 HOSPITALIZATION -0.2782
-4.9906 HOST -0.2990
-3.4992 HOT -0.2776
-4.9906 HOTEL -0.3010
-4.9906 HOTELS -0.2989
-4.5135 HOUR -0.2800
-3.8445 HOURS -0.2969
-3.8766 HOUSE -0.2763
-4.1455 HOUSEHOLD -0.3009
-4.9906 HOUSEHOLDER -0.3010
-4.9906 HOUSES -0.3010
-4.1455 HOUSEWIVES -0.3008
-4.9906 HOUSEWORK -0.2800
-3.2197 HOW -0.2908
-3.8445 HOWEVER -0.2869
-4.6895 HOWS -0.2985
-3.5434 HUGE -0.3009
-4.6895 HUGGING -0.2933
-4.1455 HULL -0.2800
-4.9906 HUM -0.3010
-4.9906 HUMAN -0.3010
-4.9906 HUMANISM -0.2800
-4.1455 HUMID -0.3010
-4.9906 HUMIDITY -0.3010
-4.9906 HUMOR -0.2990
-4.9906 HUMOROUS -0.3010
-4.6895 HUNDRED -0.3010
-3.9906 HUNG -0.2961
-4.1455 HUNGARIAN -0.3010
-4.9906 HUNTER -0.3010
-4.9906 HURRIEDLY -0.3010
-4.9906 HURRY -0.3008
-4.9906 HURT -0.2998
-4.6895 HUSBAND -0.3002
-4.9906 HUSBANDS -0.3010
-4.9906 HUT -0.3010
-4.9906 HYACINTHS -0.3007
-4.1455 HYENA -0.3000
-4.1455 HYENAS -0.2989
-4.9906 HYPOCRITES -0.2800
-4.9906 HYPOTHALAMIC -0.3010
-4.9906 HYPOTHETICAL -0.3009
-4.6895 HYSTERICAL -0.2800
-2.9949 I -0.2957
-3.6482 ICE -0.3009
-4.1455 ICES -0.2800
-4.1455 ICICLES -0.3010
-4.1455 ICY -0.3010
-4.1455 IDEA -0.2795
-4.0875 IDEAL -0.3000
-4.9906 IDEALLY -0.3000
-4.2916 IDEAS -0.2990
-4.0875 IDENTICAL -0.3002
-4.9906 IDENTIFY -0.3005
-4.6895 IDEOLOGICAL -0.3010
-4.1455 IDEOLOGY -0.3010
-4.1455 IDIOTIC -0.3010
-4.1455 IDIOTICALLY -0.2800
-4.9906 IDOLIZE -0.2800
-3.2916 IF -0.2819
-4.9906 IGNORE -0.2939
-4.0875 IGNORED -0.2939
-4.9906 IGNORES -0.3010
-4.0875 ILL -0.2983
-4.1455 ILLEGAL -0.2965
-4.1455 ILLEGALLY -0.3010
-4.9906 ILLUMINATED -0.3010
-4.1455 ILLUMINATING -0.3010
-4.9906 ILLUMINED -0.2939
-4.5135 IM -0.3007
-4.3885 IMAGE -0.2779
-4.9906 IMAGES -0.3005
-4.1455 IMAGINATION -0.2800
-4.9906 IMAGINE -0.3003
-4.6895 IMAGINED -0.2800
-4.9906 IMMATERIAL -0.3003
-4.0363 IMMEDIATE -0.2988
-4.9906 IMMEDIATELY -0.3005
-4.9906 IMMORTAL -0.2800
-4.9906 IMPACT -0.2990
-4.9906 IMPERFECT -0.3010
-4.9906 IMPERSONAL -0.3010
-4.9906 IMPLAUSIBLY -0.3010
-4.9906 IMPLICATIONS -0.2989
-4.9906 IMPLIED -0.3005
-4.9906 IMPORT -0.3008
-4.5135 IMPORTANCE -0.2737
-4.1455 IMPORTANT -0.2756
-4.9906 IMPORTS -0.3003
-4.0363 IMPOSSIBLE -0.2753
-4.9906 IMPRESSIONS -0.3008
-4.9906 IMPROVED -0.2800
-2.0151 IN -0.2472
-4.9906 INADEQUATE -0.2800
-4.9906 INADVISABLE -0.2800
-4.9906 INANIMATE -0.3010
-4.9906 INARTICULATE -0.2988
-4.9906 INAUGURAL -0.3010
-4.6895 INCLUDED -0.3002
-4.9906 INCLUDING -0.3010
-4.9906 INCLUSIONS -0.2800
-4.9906 INCOME -0.2800
-4.9906 INCOMPLETE -0.3010
-4.9906 INCREASE -0.3005
-4.6895 INCREASED -0.2965
-4.1455 INCREASES -0.2800
-4.3885 INDEED -0.2793
-4.9906 INDEFINABLE -0.2800
-4.9906 INDEFINITE -0.3010
-4.9906 INDEMNITY -0.2800
-4.9906 INDEPENDENT -0.3010
-4.9906 INDEX -0.3010
-4.9906 INDICATE -0.3010
-4.9906 INDICATED -0.2800
-4.9906 INDISPENSABLE -0.2800
-4.3885 INDIVIDUAL -0.3009
-4.9906 INDIVIDUALS -0.3010
-4.9906 INDUSTRY -0.3010
-4.9906 INEFFECTIVE -0.3010
-4.9906 INERTIA -0.2990
-4.9906 INEVITABLE -0.2800
-4.9906 INEXCUSABLE -0.2800
-4.6895 INFECTION -0.2799
-4.9906 INFECTIOUS -0.3010
-4.9906 INFERENCES -0.2800
-4.1455 INFERIORITY -0.3010
-4.9906 INFIDELS -0.3010
-4.9906 INFILTRATION -0.2968
-4.9906 INFLAMMATORY -0.3010
-4.9906 INFLATED -0.2800
-4.9906 INFLUENCES -0.3006
-4.6895 INFORMATION -0.2793
-4.1455 INFORMATIVE -0.3010
-4.9906 INFREQUENT -0.2800
-4.9906 INFURIATION -0.2990
-4.9906 INGENUITY -0.3006
-4.9906 INGREDIENT -0.2968
-4.6895 INGREDIENTS -0.2989
-4.9906 INHABIT -0.2972
-4.9906 INHERITED -0.3009
-4.9906 INHIBITOR -0.2800
-4.9906 INHUMAN -0.3010
-4.6895 INITIATIVE -0.2756
-4.9906 INJECTED -0.3008
-4.9906 INJECTIONMOLDED -0.3010
-4.9906 INJURIES -0.2800
-4.1455 INNOCENCE -0.2800
-4.9906 INQUIRED -0.3001
-4.9906 INQUIRY -0.3003
-4.9906 INSECTICIDE -0.3010
-4.9906 INSECTICIDES -0.2989
-4.9906 INSERT -0.3010
-4.6895 INSIDE -0.2939
-4.9906 INSIST -0.2983
-4.9906 INSTABILITY -0.2800
-4.9906 INSTALLATIONS -0.2800
-4.9906 INSTALLED -0.2800
-4.9906 INSTANCE -0.3010
-4.9906 INSTANTANEOUS -0.2800
-3.8145 INSTEAD -0.2779
-3.8445 INSTRUCTIONS -0.2992
-4.1455 INSTRUMENTS -0.2800
-4.9906 INSUFFICIENT -0.2965
-4.6895 INSULATE -0.3010
-4.2916 INSURANCE -0.2796
-4.6895 INTEGRATION -0.2779
-4.9906 INTEGRITY -0.3000
-4.0875 INTELLIGENCE -0.2800
-4.1455 INTELLIGENT -0.3010
-4.1455 INTELLIGIBLE -0.2800
-4.9906 INTENT -0.2990
-4.1455 INTERCHANGEABLY -0.2800
-4.9906 INTEREST -0.2968
-4.9906 INTERESTED -0.3010
-4.9906 INTERESTING -0.3008
-4.0363 INTERIOR -0.2789
-4.9906 INTERNAL -0.3010
-4.1455 INTERPRETATION -0.2990
-4.9906 INTERPRETATIONS -0.3010
-4.6895 INTERVALS -0.2985
-4.1455 INTERVIEW -0.3002
-4.9906 INTERVIEWEE -0.3008
-4.9906 INTERWEAVING -0.3010
-4.9906 INTIMATE -0.3010
-3.2830 INTO -0.2852
-4.9906 INTRUSIONS -0.2800
-4.1455 INTUITION -0.2989
-4.9906 INVALUABLE -0.2800
-4.6895 INVARIABLY -0.3009
-4.9906 INVENTORIES -0.3007
-4.1455 INVEST -0.2968
-4.9906 INVITATION -0.2800
-4.3885 INVOLVED -0.2755
-4.6895 INVOLVES -0.2939
-4.9906 INVOLVING -0.3010
-4.9906 INWARD -0.3007
-4.9906 INWARDLY -0.3010
-4.1455 IRATE -0.3010
-4.1455 IRIS -0.3010
-4.1455 IRISH -0.3010
-4.9906 IRON -0.3001
-4.9906 IRONICALLY -0.3009
-4.1455 IRONING -0.3010
-4.9906 IRONPOOR -0.2800
-4.9906 IRONS -0.2800
-4.9906 IRREMEDIABLE -0.2800
-4.9906 IRRITATED -0.2800
-4.1455 IRVINGS -0.3008
-2.3874 IS -0.2504
-4.9906 ISNT -0.2983
-4.1455 ISOTOPES -0.2965
-4.9906 ISSUED -0.2800
-4.9906 ISSUES -0.2965
-2.7576 IT -0.2448
-4.9906 ITCHING -0.3010
-4.9906 ITD -0.3002
-4.1455 ITEMIZE -0.2986
-4.9906 ITEMS -0.2972
-3.1581 ITS -0.2956
-4.3885 ITSELF -0.2727
-4.9906 IVE -0.3009
-4.9906 JABBED -0.3007
-4.9906 JACKET -0.2989
-4.9906 JAGGED -0.3010
-4.1455 JAGUARS -0.3003
-4.1455 JAM -0.2800
-4.1455 JAR -0.3010
-4.1455 JAW -0.3010
-4.9906 JEALOUSIES -0.2989
-4.9906 JEALOUSY -0.2800
-4.1455 JEEP -0.3000
-4.1455 JEFFS -0.3010
-4.9906 JEOPARDIZE -0.3003
-4.9906 JERK -0.2800
-4.9906 JERKY -0.3010
-4.1455 JIM -0.3009
-4.1455 JIMS -0.3010
-3.9492 JOB -0.2749
-4.9906 JOCULAR -0.3010
-4.1455 JOHNS -0.3009
-4.9906 JOIN -0.3009
-4.1455 JOINT -0.3010
-4.9906 JOKERS -0.2800
-4.0875 JOKES -0.3008
-4.9906 JOKING -0.3010
-4.9906 JOURNALESE -0.2800
-4.1455 JOURNALIST -0.2800
-4.1455 JOYCE -0.2800
-4.1455 JUDGE -0.2939
-4.1455 JUDGED -0.3005
-3.6482 JUICE -0.2800
-4.1455 JUICY -0.3010
-4.9906 JUMP -0.3003
-4.9906 JUMPED -0.3009
-4.9906 JUNGLE -0.3010
-4.1455 JUNGLELIKE -0.3010
-4.5135 JUNIOR -0.2792
-3.4721 JUST -0.2898
-4.9906 JUSTIFICATION -0.2990
-4.1455 KAYAK -0.3008
-4.9906 KAYO -0.3007
-4.9906 KEELSON -0.3008
-3.4465 KEEP -0.2658
-4.0363 KEPT -0.2968
-4.6895 KEROSENE -0.3010
-4.9906 KEY -0.2800
-4.9906 KEYED -0.2965
-4.9906 KICK -0.3008
-4.2916 KID -0.2787
-4.6895 KIDS -0.3000
-4.2916 KILL -0.2772
-4.5135 KILLED -0.2926
-4.9906 KIN -0.2965
-4.3885 KIND -0.2779
-4.9906 KINDA -0.2988
-4.9906 KINDLY -0.3010
-4.1455 KIPPERS -0.3001
-4.9906 KISSED -0.3005
-4.6895 KITCHEN -0.3006
-4.9906 KNEE -0.2800
-4.9906 KNEELING -0.2965
-4.9906 KNEES -0.2800
-4.1455 KNEW -0.2968
-4.9906 KNICKKNACKS -0.3010
-4.9906 KNIFE -0.3010
-4.9906 KNIFELIKE -0.3010
-4.9906 KNIT -0.3010
-4.9906 KNIVES -0.2800
-4.9906 KNOCKED -0.3008
-3.6684 KNOW -0.2687
-4.9906 KNOWED -0.3005
-4.9906 KNOWING -0.2968
-4.3885 KNOWN -0.2772
-4.5135 KNOWS -0.2721
-4.9906 LABELED -0.2800
-4.5135 LABOR -0.2800
-4.9906 LABORATORY -0.3010
-4.9906 LACERATE -0.2939
-4.0875 LACK -0.2779
-4.9906 LACKEYS -0.2990
-4.9906 LACTATING -0.3010
-4.6895 LADDER -0.3009
-4.9906 LADYS -0.3009
-4.1455 LAGOON -0.3010
-4.9906 LAID -0.3010
-4.1455 LAMBS -0.3010
-4.9906 LAMPS -0.3007
-4.1455 LAND -0.2800
-4.9906 LANDBASED -0.3010
-4.6895 LANDLORD -0.2800
-4.9906 LANDMARKS -0.2968
-4.3885 LANGUAGE -0.2987
-3.5926 LARGE -0.3009
-4.9906 LARGELY -0.3010
-4.0363 LARGER -0.2796
-4.9906 LARVAE -0.3010
-4.9906 LASHINGS -0.3010
-3.9492 LAST -0.2915
-4.9906 LATCHES -0.3008
-4.9906 LATE -0.2800
-4.1455 LATER -0.2772
-4.0875 LATEST -0.3010
-4.9906 LATHE -0.2800
-4.9906 LATITUDES -0.2989
-4.5135 LAUGHED -0.3007
-4.2124 LAW -0.2964
-4.9906 LAWFUL -0.3010
-4.9906 LAWS -0.3010
-4.1455 LAWYER -0.3000
-4.0875 LAY -0.3009
-4.1455 LAYOFFS -0.3010
-4.9906 LAYUP -0.3010
-4.6895 LAZY -0.3010
-4.6895 LEADING -0.2961
-4.9906 LEAF -0.3008
-4.9906 LEAFLET -0.3008
-4.9906 LEAGUES -0.3000
-4.6895 LEARN -0.2959
-4.1455 LEARNED -0.3010
-4.9906 LEAST -0.2939
-4.0875 LEATHER -0.3009
-4.5135 LEAVE -0.2980
-4.0875 LEAVES -0.2725
-4.9906 LEAVINGS -0.2800
-4.6895 LED -0.2942
-3.8145 LEFT -0.2730
-4.6895 LEG -0.2800
-4.9906 LEGAL -0.3010
-4.6895 LEGEND -0.3008
-4.6895 LEGISLATION -0.2789
-4.9906 LEGISLATIVE -0.2800
-4.1455 LEGISLATURE -0.3010
-4.6895 LEGS -0.3010
-4.1455 LEMON -0.3010
-4.6895 LENGTH -0.2990
-4.1455 LENGTHY -0.3010
-4.9906 LEOPARDS -0.2800
-4.3885 LESS -0.2798
-4.6895 LESSON -0.2979
-4.9906 LESSONS -0.2800
-3.7601 LET -0.2870
-4.5135 LETS -0.3009
-4.6895 LETTER -0.2800
-4.6895 LETTERS -0.2999
-4.6895 LEVEL -0.2800
-4.9906 LEVELING -0.3010
-4.3885 LEVELS -0.2798
-4.9906 LEWD -0.3010
-4.9906 LIBERALS -0.3000
-4.6895 LIBRARY -0.2990
-4.9906 LIDS -0.2800
-4.5135 LIE -0.2756
-3.9906 LIFE -0.2733
-4.9906 LIFEBOATS -0.3007
-4.1455 LIFELONG -0.3010
-4.5135 LIFT -0.2702
-4.9906 LIFTING -0.3005
-4.9906 LIGAMENT -0.3010
-3.9492 LIGHT -0.2795
-4.1455 LIGHTBULBS -0.2989
-4.9906 LIGHTED -0.3010
-4.9906 LIGHTER -0.3010
-4.6895 LIGHTLY -0.2799
-2.2822 LIKE -0.2617
-4.5135 LIKED -0.2746
-4.6895 LIKES -0.3008
-4.9906 LIKEWISE -0.3003
-4.9906 LIMIT -0.3003
-4.9906 LIMITED -0.3010
-4.9906 LINCOLN -0.3010
-3.9906 LINE -0.2795
-4.9906 LINED -0.3002
-3.9906 LINES -0.2786
-4.9906 LION -0.2968
-4.9906 LIP -0.2800
-4.2916 LIPS -0.2800
-4.6895 LIQUID -0.3010
-4.9906 LIQUIDS -0.3008
-4.9906 LIQUOR -0.2800
-4.9906 LIST -0.2990
-4.9906 LISTED -0.2800
-4.9906 LISTS -0.2989
-4.9906 LITERALLY -0.2800
-4.9906 LITERATURE -0.3001
-4.1455 LITHOGRAPHS -0.2800
-4.0875 LITTLE -0.3005
-3.7353 LIVE -0.2754
-4.0875 LIVELY -0.3008
-4.0875 LIVES -0.2968
-4.9906 LIVESTOCK -0.3009
-4.9906 LIVING -0.3007
-4.1455 LOADS -0.2800
-4.9906 LOBES -0.2990
-4.0363 LOCAL -0.3008
-4.9906 LOCATE -0.3010
-4.9906 LOCK -0.3007
-4.1455 LOCKED -0.3007
-4.1455 LODGE -0.3010
-4.9906 LOGICAL -0.2989
-4.9906 LOGICALLY -0.3006
-4.9906 LOGS -0.2990
-4.1455 LONE -0.3010
-4.9906 LONELINESS -0.3000
-3.4591 LONG -0.2977
-4.9906 LONGED -0.2965
-3.8445 LONGER -0.2676
-4.9906 LONGITUDES -0.3010
-4.9906 LONGTERM -0.3010
-3.6482 LOOK -0.2954
-3.8445 LOOKED -0.2996
-4.9906 LOOKING -0.3006
-4.5135 LOOKS -0.2987
-4.6895 LOOSE -0.3010
-4.5135 LOSE -0.2910
-4.9906 LOSS -0.2800
-4.9906 LOSSES -0.2990
-3.8766 LOST -0.2729
-4.0363 LOT -0.2779
-4.9906 LOTIONS -0.2800
-3.8445 LOTS -0.2990
-4.5135 LOUDLY -0.2969
-4.9906 LOUSE -0.2987
-4.9906 LOUSINESS -0.2992
-4.3885 LOVE -0.2984
-4.0875 LOVED -0.2892
-4.6895 LOVELY -0.3010
-4.3885 LOW -0.2787
-4.3885 LOWER -0.2963
-4.9906 LOWERED -0.3005
-4.6895 LOYAL -0.3010
-4.9906 LOYALTIES -0.2989
-4.5135 LUCK -0.2797
-4.9906 LUCKY -0.3010
-4.9906 LULLABY -0.2989
-4.9906 LUMBER -0.3010
-4.9906 LUNGS -0.3010
-4.9906 LUXURY -0.2800
-4.9906 LYING -0.3009
-4.6895 MAAM -0.2931
-4.9906 MACHINE -0.3010
-4.6895 MACHINERY -0.2800
-4.9906 MACHINES -0.2800
-4.9906 MAD -0.3009
-3.3374 MADE -0.2865
-4.9906 MADSTONES -0.3009
-4.9906 MAGNIFIED -0.2985
-4.9906 MAGPIES -0.2800
-4.9906 MAHOGANY -0.3010
-4.1455 MAIDS -0.3010
-4.9906 MAIL -0.2939
-4.5135 MAIN -0.3008
-4.0875 MAINTENANCE -0.2800
-4.0875 MAJOR -0.3010
-4.5135 MAJORITY -0.2982
-3.4343 MAKE -0.2825
-3.9906 MAKES -0.2951
-4.1455 MAKING -0.3010
-4.6895 MALADIES -0.3000
-4.9906 MALARIA -0.2800
-4.1455 MALE -0.3010
-4.1455 MAMMALS -0.2800
-3.7865 MAN -0.2734
-4.9906 MANAGE -0.3003
-4.9906 MANAGED -0.2985
-4.9906 MANAGEMENT -0.3010
-4.1455 MANDATES -0.3010
-4.1455 MANGO -0.2989
-4.9906 MANHOOD -0.2987
-4.9906 MANNER -0.2983
-4.6895 MANNERS -0.3010
-4.0363 MANS -0.3009
-4.9906 MANUAL -0.3010
-4.9906 MANUFACTURER -0.3008
-3.2830 MANY -0.2933
-4.9906 MAP -0.2989
-4.9906 MARES -0.3010
-4.9906 MARGARET -0.2800
-3.9906 MARINE -0.2800
-4.9906 MARINES -0.3010
-4.9906 MARK -0.2800
-4.5135 MARKETING -0.3010
-4.6895 MARKETS -0.2987
-4.9906 MARKS -0.2800
-4.9906 MARKSMANSHIP -0.3010
-4.5135 MARRIAGE -0.2800
-4.9906 MARRIED -0.3009
-4.1455 MARSHMALLOWS -0.3003
-4.9906 MARVEL -0.2800
-4.1455 MASK -0.3001
-4.1455 MASQUERADE -0.3010
-4.6895 MASS -0.2989
-4.9906 MASSAGE -0.2939
-4.9906 MASSIVE -0.3010
-4.9906 MASTER -0.3003
-4.9906 MASTERFUL -0.2800
-4.9906 MASTERS -0.3009
-4.9906 MATCHING -0.3010
-4.9906 MATE -0.2800
-4.6895 MATERIAL -0.2958
-4.9906 MATERIALS -0.3010
-4.9906 MATES -0.3010
-4.9906 MATHEWS -0.3007
-4.5135 MATTER -0.2791
-4.6895 MATTERS -0.2798
-4.9906 MATTRESSES -0.2989
-4.9906 MATURITY -0.2800
-4.9906 MAXIMAL -0.3010
-4.9906 MAXIMUM -0.2800
-3.2502 MAY -0.2978
-4.1455 MAYAN -0.3010
-3.8145 MAYBE -0.2966
-4.9906 MAYONNAISE -0.2800
-2.2771 ME -0.2521
-4.9906 MEADOW -0.2989
-4.6895 MEALS -0.2980
-4.9906 MEALYNOSED -0.2800
-3.8766 MEAN -0.2950
-4.9906 MEANINGFUL -0.2989
-4.2916 MEANS -0.2981
-4.9906 MEANT -0.3005
-4.3885 MEANWHILE -0.2937
-4.6895 MEASURE -0.3001
-4.0363 MEASURED -0.2968
-4.6895 MEASUREMENT -0.2800
-4.6895 MEAT -0.3010
-4.9906 MECHANIC -0.2992
-4.9906 MECHANICAL -0.3010
-4.9906 MECHANISM -0.2800
-4.9906 MEDIA -0.2800
-4.9906 MEDIAN -0.3010
-4.9906 MEDICINE -0.2800
-4.1455 MEDIOCRITY -0.3009
-4.0875 MEET -0.2966
-4.1455 MEETING -0.2992
-4.9906 MEETINGS -0.3000
-4.9906 MELANCHOLY -0.3010
-4.9906 MELODY -0.2992
-4.9906 MELTED -0.3010
-4.9906 MEMBER -0.3010
-4.9906 MEMBERS -0.3010
-4.9906 MEMBERSHIP -0.3003
-4.9906 MEMORY -0.3010
-3.8145 MEN -0.2769
-4.9906 MENTAL -0.3007
-4.9906 MERCENARY -0.3010
-4.1455 MERCILESSLY -0.2800
-4.9906 MERE -0.3010
-4.6895 MERELY -0.2964
-4.9906 MERGER -0.3007
-4.9906 MERIT -0.3005
-4.9906 MERRILY -0.2800
-4.6895 MESS -0.2797
-4.6895 MESSAGE -0.2990
-4.9906 MESSY -0.2989
-3.9906 MET -0.2944
-4.9906 METALLIC -0.3010
-4.9906 METHODS -0.2800
-4.9906 METTLE -0.2989
-4.9906 MICROMETEORITE -0.3010
-4.9906 MICROMETEORITES -0.2992
-4.0875 MICROORGANISMS -0.2789
-4.9906 MICROSCOPICALLY -0.3009
-4.9906 MIDAIR -0.2800
-4.6895 MIDNIGHT -0.2984
-3.7353 MIGHT -0.2990
-4.9906 MIGHTY -0.3010
-4.9906 MIKE -0.3000
-4.6895 MILE -0.3005
-4.0363 MILES -0.2800
-4.6895 MILITARY -0.2989
-3.9492 MILK -0.2951
-4.6895 MIND -0.2725
-4.9906 MINDED -0.3007
-4.9906 MINDS -0.2800
-4.9906 MINE -0.3008
-4.1455 MINOR -0.3010
-4.9906 MINORITY -0.3010
-4.9906 MINUTE -0.2989
-4.3885 MINUTES -0.2755
-4.9906 MIRACULOUS -0.2989
-4.9906 MIRROR -0.2800
-4.9906 MISERABLE -0.3009
-4.6895 MISERY -0.2778
-4.9906 MISHAP -0.2800
-4.9906 MISINTERPRET -0.3007
-4.6895 MISLEADING -0.2800
-4.9906 MISPERCEIVES -0.2939
-4.1455 MISPLACED -0.3003
-4.1455 MISPRINT -0.3010
-4.6895 MISS -0.3004
-4.9906 MISTAKEN -0.3008
-4.9906 MIXED -0.3010
-4.9906 MIXING -0.3010
-4.9906 MODELED -0.3010
-4.1455 MODELING -0.2965
-4.9906 MODELS -0.3010
-4.9906 MODERN -0.3010
-4.9906 MODERNIZATION -0.2990
-4.9906 MODEST -0.3010
-4.9906 MODESTY -0.3006
-4.9906 MODIFIED -0.3001
-4.9906 MODULAR -0.3010
-4.9906 MOIST -0.2989
-4.9906 MOISTENED -0.3002
-3.8445 MOISTURE -0.2964
-4.9906 MOLD -0.3008
-4.9906 MOLLUSKS -0.3000
-4.1455 MOM -0.2800
-3.9492 MOMENT -0.2767
-4.9906 MOMENTARY -0.3010
-4.9906 MOMMA -0.2800
-3.6684 MONDAY -0.2799
-3.7118 MONEY -0.2760
-4.9906 MONITORED -0.2800
-4.9906 MONKEYGLAND -0.3010
-4.9906 MONOPOLIZE -0.2939
-4.9906 MONSTROUS -0.3010
-4.6895 MONTH -0.2800
-4.9906 MONTHS -0.3005
-4.1455 MOON -0.3010
-4.9906 MOONLIGHT -0.3010
-4.9906 MOPPED -0.3002
-4.3885 MORAL -0.3010
-4.9906 MORALE -0.3010
-3.3185 MORE -0.2768
-4.9906 MORGUE -0.3010
-3.8145 MORNING -0.2800
-4.9906 MORPHOLOGICAL -0.3010
-4.1455 MOSQUITOES -0.3010
-3.3995 MOST -0.2986
-4.9906 MOSTLY -0.3003
-4.9906 MOTEL -0.2989
-4.1455 MOTH -0.3010
-4.6895 MOTHER -0.2988
-4.9906 MOTHERS -0.3010
-4.9906 MOTHERSINLAW -0.3009
-4.9906 MOTIONING -0.2965
-4.9906 MOTIVATES -0.3002
-4.9906 MOTOR -0.3010
-4.1455 MOTORISTS -0.2800
-4.9906 MOUNT -0.3010
-4.9906 MOUNTAIN -0.3010
-4.9906 MOUNTAINSIDE -0.3002
-4.9906 MOURNFULLY -0.3000
-4.1455 MOUSE -0.3010
-4.5135 MOUTH -0.2800
-3.9492 MOVE -0.2933
-4.3885 MOVED -0.2968
-4.9906 MOVEMENT -0.3009
-4.9906 MOVES -0.3009
-4.9906 MOVIE -0.2800
-3.4465 MOVIES -0.2791
-4.6895 MOVING -0.2966
-4.9906 MRS -0.3010
-3.3278 MUCH -0.2744
-4.9906 MUCUS -0.3010
-4.9906 MUDDLEHEADED -0.3010
-4.9906 MUDDY -0.3010
-4.9906 MUDWAGON -0.2987
-4.9906 MUFFLED -0.3007
-4.9906 MUGS -0.2983
-4.9906 MULTIPLE -0.3010
-4.5135 MURDER -0.2800
-4.9906 MURDERER -0.2800
-4.1455 MURKY -0.3010
-4.6895 MURMURED -0.2965
-4.0363 MUSCLES -0.2778
-4.9906 MUSCULAR -0.3006
-3.8145 MUSEUM -0.2800
-4.0875 MUSIC -0.3002
-4.0875 MUSICAL -0.3010
-4.1455 MUSICIANS -0.3007
-3.8445 MUSKRAT -0.2988
-3.4108 MUST -0.2896
-4.3885 MUSTARD -0.2979
-3.0715 MY -0.3001
-4.1455 MYOPIA -0.3010
-4.9906 MYSELF -0.2800
-4.6895 MYSTERIOUS -0.2778
-4.9906 NAGGING -0.3007
-4.6895 NAILED -0.2792
-4.9906 NAILS -0.2989
-4.0875 NAIVE -0.3010
-4.9906 NAKED -0.2989
-4.0875 NAME -0.2789
-4.9906 NAMED -0.3009
-4.0875 NAMES -0.3010
-4.1455 NANS -0.3010
-4.9906 NARROW -0.3010
-4.9906 NARROWER -0.2800
-4.9906 NASTY -0.2800
-4.9906 NATHAN -0.3008
-4.0875 NATIONAL -0.3010
-4.6895 NATURAL -0.2798
-4.3885 NATURALLY -0.3006
-4.6895 NATURE -0.2794
-4.9906 NAVIGATE -0.2988
-3.5434 NEAR -0.2939
-4.9906 NEARATHAND -0.2800
-4.9906 NEARBY -0.2800
-4.1455 NEARER -0.2965
-4.9906 NEARING -0.3010
-3.9492 NEARLY -0.2985
-4.6895 NECESSARILY -0.3008
-4.2916 NECESSARY -0.2752
-4.9906 NECESSITATES -0.2939
-4.6895 NECESSITY -0.2962
-4.9906 NECK -0.2800
-4.1455 NECKLACE -0.2800
-4.1455 NECTAR -0.2800
-3.5135 NEED -0.2736
-3.9492 NEEDED -0.2752
-4.0875 NEEDLE -0.2778
-4.9906 NEEDLESHARP -0.3010
-4.9906 NEEDLESS -0.2965
-3.6104 NEEDS -0.3007
-4.9906 NEGLECT -0.3010
-4.9906 NEGLIGENT -0.3010
-4.9906 NEGLIGIBLE -0.2800
-4.2916 NEITHER -0.2989
-4.1455 NEOCLASSIC -0.3010
-4.9906 NERVES -0.2800
-4.1455 NEVADA -0.2800
-4.1455 NEVADAS -0.3010
-3.2582 NEVER -0.2995
-4.5135 NEVERTHELESS -0.2943
-3.1581 NEW -0.2792
-4.0875 NEWS -0.3009
-4.9906 NEWSPAPER -0.2989
-3.9114 NEXT -0.2741
-4.0363 NICE -0.3009
-3.7353 NIGHT -0.2782
-4.9906 NIGHTMARES -0.2965
-4.0363 NINE -0.2990
-4.9906 NIP -0.3010
-3.1098 NO -0.2944
-4.1455 NOBODY -0.2990
-4.9906 NOBODYS -0.3010
-4.6895 NODDED -0.3010
-4.5135 NONE -0.2988
-4.9906 NONNONSENSE -0.3000
-4.1455 NONPROFIT -0.3010
-4.9906 NONSUPERVISORY -0.3010
-4.9906 NONSYSTEMATIC -0.3010
-4.2916 NOR -0.2980
-4.3885 NORA -0.2697
-4.1455 NORAS -0.3010
-4.6895 NORMAL -0.2988
-4.9906 NORTH -0.2800
-4.9906 NORTHEAST -0.3009
-4.9906 NORTHERN -0.3010
-4.1455 NORWEGIAN -0.3010
-4.6895 NOSE -0.3009
-2.9150 NOT -0.2560
-4.6895 NOTE -0.3010
-4.9906 NOTES -0.2989
-4.9906 NOTHIN -0.3010
-3.6289 NOTHING -0.2729
-4.9906 NOTICE -0.2990
-4.1455 NOTICES -0.2968
-4.1455 NOTORIETY -0.3009
-4.1455 NOVEL -0.3010
-4.9906 NOVELISTS -0.2800
-4.9906 NOVELTY -0.3008
-3.2124 NOW -0.2484
-4.9906 NOWADAYS -0.3000
-4.6895 NOWHERE -0.2800
-4.9906 NUCLEAR -0.3010
-4.9906 NUCLEUS -0.2800
-4.9906 NUMB -0.3008
-3.9114 NUMBER -0.2990
-4.9906 NUMBERING -0.3010
-4.9906 NUMBNESS -0.3010
-4.9906 NUMEROUS -0.3010
-4.9906 NUTRIENTS -0.2800
-4.9906 NUTS -0.3000
-4.9906 O -0.3010
-4.0875 OAK -0.2800
-4.9906 OATMEAL -0.2800
-4.0875 OATS -0.2797
-4.9906 OBEYING -0.2972
-4.6895 OBJECT -0.2926
-4.9906 OBJECTIVE -0.3010
-4.9906 OBJECTIVES -0.2800
-4.9906 OBJECTS -0.2800
-4.6895 OBSERVE -0.2800
-4.9906 OBSERVERS -0.3010
-4.9906 OBSESSION -0.2800
-4.9906 OBSOLESCENT -0.3010
-4.9906 OBSTACLES -0.2800
-4.9906 OBTAINED -0.3005
-4.1455 OBTAINING -0.3008
-4.9906 OBVIOUSLY -0.3003
-4.1455 OCCASIONALLY -0.3008
-4.9906 OCCUPIED -0.2972
-4.9906 OCCUR -0.3010
-3.8445 OCCURS -0.2800
-4.1455 OCEAN -0.2800
-4.9906 OCEANOGRAPHIC -0.3010
-4.1455 OCEANS -0.3010
-4.9906 OCLOCK -0.3010
-4.9906 ODD -0.3010
-4.9906 ODDSON -0.3010
-4.6895 ODOR -0.2799
-2.3335 OF -0.2663
-3.6104 OFF -0.2577
-4.1455 OFFENSIVE -0.3005
-4.6895 OFFER -0.2965
-4.5135 OFFERED -0.2956
-4.9906 OFFERING -0.3009
-4.9906 OFFICE -0.2800
-4.9906 OFFICER -0.3009
-4.9906 OFFICERS -0.3010
-4.9906 OFFICES -0.3000
-4.1455 OFFICIAL -0.3010
-4.9906 OFFICIALS -0.3005
-3.2424 OFTEN -0.2756
-4.9906 OGRESS -0.2800
-4.2124 OH -0.2999
-4.5135 OIL -0.3003
-4.9906 OILFIELD -0.3010
-2.3185 OILY -0.2985
-4.1455 OINTMENT -0.3010
-3.7865 OLD -0.2726
-4.1455 OLDER -0.3009
-4.9906 OLDTIMERS -0.3008
-4.9906 OLE -0.3010
-4.9906 OLIVE -0.3010
-2.7705 ON -0.2485
-3.7865 ONCE -0.2729
-3.3093 ONE -0.2731
-3.9114 ONES -0.2788
-4.9906 ONEUPMANSHIP -0.2992
-4.5135 ONION -0.2966
-3.3778 ONLY -0.2842
-4.0363 ONTO -0.2899
-4.1455 OOZED -0.3008
-4.0875 OPAQUE -0.2989
-3.7118 OPEN -0.2935
-4.9906 OPENED -0.2972
-4.1455 OPENS -0.3008
-4.9906 OPERATED -0.3010
-4.1455 OPERATES -0.3005
-4.0875 OPERATION -0.2800
-4.9906 OPINIONS -0.3010
-4.9906 OPIUM -0.3005
-4.9906 OPPORTUNITY -0.3001
-4.9906 OPPOSING -0.3010
-4.6895 OPPOSITE -0.3010
-4.9906 OPPRESSIVE -0.2800
-4.9906 OPTICAL -0.3010
-4.9906 OPTIMAL -0.3010
-3.0985 OR -0.2852
-3.6684 ORANGE -0.3002
-4.9906 ORATORICAL -0.3010
-4.9906 ORCHESTRA -0.3000
-3.7353 ORDER -0.2648
-4.9906 ORDERING -0.2990
-4.9906 ORGANISM -0.2983
-4.1455 ORGANIZATIONS -0.3005
-4.9906 ORIENTED -0.3010
-4.9906 ORIGIN -0.2990
-4.1455 ORIGINAL -0.3005
-4.9906 ORIGINALS -0.3000
-4.9906 ORTHODONTIC -0.3010
-4.9906 ORTHODONTIST -0.3010
-3.6895 OTHER -0.2753
-4.0363 OTHERS -0.2959
-4.6895 OTHERWISE -0.2725
-4.1455 OTTOS -0.3009
-4.9906 OUGHT -0.2965
-3.2124 OUR -0.2999
-4.6895 OURSELVES -0.2725
-3.2582 OUT -0.2498
-4.1455 OUTAGE -0.3010
-4.1455 OUTCAST -0.2800
-4.1455 OUTCOME -0.3000
-3.8445 OUTDOORS -0.2793
-4.0363 OUTER -0.3009
-4.9906 OUTFIELDERS -0.3010
-4.9906 OUTFIT -0.3009
-4.9906 OUTGROW -0.3009
-4.1455 OUTLAWS -0.3009
-4.9906 OUTLOOK -0.3008
-4.9906 OUTOFDOORS -0.3010
-4.9906 OUTPOST -0.3010
-4.9906 OUTPUTS -0.2800
-4.9906 OUTSET -0.2990
-4.3885 OUTSIDE -0.2780
-4.1455 OUTSTANDING -0.3010
-4.6895 OUTWARD -0.2800
-3.5282 OVER -0.2679
-4.9906 OVERBOARD -0.2800
-4.1455 OVERCAME -0.3008
-4.9906 OVEREATING -0.2992
-4.1455 OVERFLOWED -0.3010
-4.9906 OVERHANGS -0.3000
-4.9906 OVERHEAD -0.2800
-4.9906 OVERLAP -0.3008
-4.9906 OVERLAPPING -0.3010
-4.9906 OVERLOADED -0.2983
-4.1455 OVERLY -0.3010
-4.9906 OVERNIGHT -0.3010
-4.9906 OVERNIGHTERS -0.3008
-4.9906 OVERPLAYED -0.3005
-4.9906 OVERPROTECTION -0.2992
-4.9906 OVERRIDING -0.3010
-4.9906 OVERSIZED -0.3010
-4.9906 OVERTAKE -0.3010
-4.1455 OVERTHROW -0.3010
-4.1455 OVERWEIGHT -0.3010
-4.9906 OVERWHELM -0.2987
-4.1455 OVERWHELMED -0.3005
-3.8145 OWN -0.3010
-4.6895 OWNER -0.3010
-4.9906 OWNS -0.3007
-4.1455 OYSTER -0.3003
-4.1455 OYSTERS -0.3009
-4.9906 PA -0.2989
-4.9906 PACE -0.3008
-4.6895 PACK -0.2928
-4.9906 PACKAGE -0.2990
-4.9906 PACKING -0.3010
-4.9906 PADLOCK -0.2800
-4.9906 PAID -0.3005
-4.9906 PAIL -0.3010
-4.5135 PAIN -0.2733
-4.9906 PAINTINGS -0.2990
-4.0875 PAIR -0.2990
-4.1455 PAIRS -0.2990
-4.9906 PALE -0.2800
-4.9906 PALPABLY -0.3010
-4.9906 PAMPHLETS -0.2992
-4.9906 PAN -0.2800
-4.9906 PANELIZATION -0.2800
-4.5135 PANIC -0.2756
-4.9906 PANSIES -0.3000
-4.1455 PAPAYA -0.3000
-4.0875 PAPER -0.3009
-4.9906 PAPERWEIGHT -0.3008
-4.9906 PARADES -0.3010
-4.1455 PARAGRAPH -0.3003
-4.9906 PARALLEL -0.3010
-4.6895 PARALYSIS -0.2797
-4.1455 PARANOID -0.3008
-4.9906 PARDON -0.2987
-4.9906 PARK -0.3000
-4.6895 PARKING -0.3010
-4.9906 PARROTS -0.3007
-4.5135 PART -0.2800
-4.9906 PARTED -0.3010
-4.9906 PARTICIPANTS -0.3010
-3.8445 PARTICIPATE -0.2968
-4.9906 PARTICIPATES -0.2800
-4.9906 PARTICULAR -0.3010
-4.6895 PARTICULARLY -0.3010
-3.8445 PARTIES -0.3004
-4.6895 PARTLY -0.3010
-4.6895 PARTS -0.3002
-4.9906 PARTTIME -0.3010
-4.6895 PASS -0.3007
-4.6895 PASSED -0.3003
-4.9906 PASSIVE -0.2965
-4.9906 PAST -0.3010
-4.6895 PASTE -0.2779
-4.9906 PASTIME -0.2990
-4.1455 PATH -0.3008
-4.9906 PATHETIC -0.2968
-4.1455 PATHOLOGICAL -0.3010
-3.8445 PATIENT -0.2778
-4.9906 PATRONS -0.3007
-4.6895 PATTERN -0.3006
-4.6895 PATTERNS -0.2799
-4.9906 PAUSE -0.3000
-4.2124 PAY -0.2959
-4.1455 PAYMENTS -0.3010
-4.1455 PAYS -0.2965
-4.6895 PEACE -0.2797
-4.9906 PEACH -0.2987
-4.1455 PEACHES -0.2800
-4.1455 PEARLS -0.2800
-4.9906 PEAS -0.3007
-4.9906 PECULIAR -0.3010
-4.1455 PEELING -0.2985
-4.1455 PENALTY -0.2800
-4.9906 PENDULUM -0.2965
-4.9906 PENETRATED -0.3007
-4.1455 PENGUINS -0.3010
-4.9906 PENICILLIN -0.2800
-3.8445 PEOPLE -0.2772
-4.9906 PEPPERED -0.2800
-4.6895 PER -0.3010
-4.9906 PERENNIAL -0.3010
-4.9906 PERFECT -0.3000
-4.9906 PERFECTLY -0.2800
-4.0875 PERFORMANCE -0.3010
-4.9906 PERFORMANCES -0.3010
-4.9906 PERFORMERS -0.3006
-4.2916 PERHAPS -0.2882
-4.9906 PERILS -0.2800
-4.5135 PERIOD -0.2792
-4.9906 PERIODICAL -0.3010
-4.9906 PERIODICALLY -0.3003
-4.0875 PERMANENT -0.2999
-4.9906 PERMIT -0.3010
-4.1455 PERPENDICULAR -0.2800
-4.9906 PERSON -0.2983
-4.3885 PERSONAL -0.3010
-4.9906 PERSONALITY -0.2800
-4.9906 PERSONALIZED -0.3003
-4.9906 PERSONNEL -0.3010
-4.6895 PERSONS -0.2800
-4.9906 PERT -0.3010
-4.9906 PERTINENT -0.2965
-4.9906 PERVASIVE -0.2800
-4.9906 PERVERSE -0.3009
-4.9906 PERYEAR -0.3010
-4.9906 PESSIMISM -0.2968
-4.9906 PESTS -0.2800
-4.9906 PETTING -0.2800
-4.6895 PETTY -0.3010
-4.9906 PHASE -0.2800
-4.9906 PHENOMENON -0.2939
-4.1455 PHILS -0.3009
-4.6895 PHONE -0.3007
-4.9906 PHONES -0.2800
-4.9906 PHOTOCHEMICAL -0.3010
-4.9906 PHOTOGRAPHS -0.3010
-4.9906 PHOTOS -0.3008
-4.5135 PHYSICAL -0.2988
-4.9906 PIANO -0.3010
-4.9906 PICK -0.3007
-4.0875 PICKED -0.3007
-4.9906 PICKET -0.3010
-4.1455 PICKPOCKET -0.3000
-4.1455 PICKPOCKETS -0.3010
-4.9906 PICTURE -0.3008
-4.9906 PICTURES -0.3010
-3.6482 PIE -0.2996
-4.9906 PIECE -0.2990
-4.9906 PIECEMEAL -0.2989
-4.6895 PIECES -0.2800
-4.9906 PIG -0.3010
-4.9906 PIGEONS -0.2800
-4.9906 PILE -0.3005
-4.9906 PILED -0.3010
-4.9906 PILLS -0.3000
-4.6895 PILOTS -0.3007
-4.1455 PINE -0.3010
-4.6895 PINK -0.3002
-4.6895 PINS -0.2999
-4.9906 PINTO -0.2989
-4.9906 PINTSIZED -0.3010
-4.9906 PIONEER -0.3010
-4.9906 PIPED -0.3010
-4.9906 PISTACHIO -0.3010
-4.9906 PIT -0.3010
-4.9906 PITCH -0.3010
-4.9906 PITCHED -0.3009
-4.9906 PITCHER -0.2800
-4.9906 PITIABLE -0.2800
-4.9906 PITY -0.3001
-3.6289 PLACE -0.2723
-4.1455 PLACED -0.3009
-4.9906 PLACES -0.2965
-3.8766 PLAN -0.2743
-4.9906 PLANE -0.3010
-4.9906 PLANES -0.3008
-4.9906 PLANETS -0.3007
-4.5135 PLANNING -0.2778
-4.0875 PLANT -0.2800
-4.1455 PLANTED -0.3010
-4.9906 PLASTERS -0.3010
-4.1455 PLATE -0.2800
-4.5135 PLATFORM -0.2968
-3.9492 PLAY -0.2766
-4.5135 PLAYED -0.3008
-4.9906 PLAYER -0.2998
-4.1455 PLAYERS -0.3010
-4.9906 PLAYIN -0.3010
-3.5434 PLEASE -0.3009
-4.0363 PLEASURE -0.2778
-4.1455 PLEDGE -0.2965
-4.9906 PLENTY -0.2990
-4.1455 PLOW -0.3009
-4.1455 PLYMOUTH -0.3010
-4.9906 PLYWOOD -0.2800
-4.9906 PNEUMONIA -0.2800
-4.6895 POCKET -0.3001
-4.9906 POCKETS -0.2800
-4.6895 POEMS -0.2800
-4.6895 POETRY -0.2935
-4.9906 POETS -0.3006
-4.9906 POIGNANCY -0.2800
-4.2916 POINT -0.2711
-4.5135 POINTING -0.2936
-4.0875 POINTS -0.2922
-4.9906 POISED -0.2972
-4.1455 POISON -0.3008
-4.0875 POISONOUS -0.3010
-4.1455 POLICEMAN -0.2965
-4.0363 POLICY -0.2794
-4.9906 POLISHED -0.2939
-4.9906 POLITENESS -0.3010
-4.9906 POLITICAL -0.3010
-4.9906 POMPOUSNESS -0.2965
-4.5135 POOL -0.2992
-4.9906 POOLS -0.3005
-4.9906 POOLSIDE -0.2992
-4.0363 POOR -0.3009
-4.1455 POP -0.2800
-4.9906 POPULACE -0.3008
-4.0875 POPULARITY -0.2800
-4.5135 POPULATION -0.2996
-4.1455 PORCH -0.3010
-4.1455 PORCUPINES -0.3010
-4.9906 PORTRAY -0.2972
-4.9906 PORTRAYAL -0.2990
-4.6895 POSITION -0.2965
-4.0363 POSITIVE -0.3009
-4.6895 POSSESSED -0.2953
-4.9906 POSSIBILITY -0.2992
-3.9492 POSSIBLE -0.2752
-4.6895 POST -0.3010
-4.9906 POSTATTACK -0.3010
-4.1455 POSTDATE -0.2972
-3.8445 POSTPONED -0.2800
-4.9906 POTTERY -0.3010
-4.9906 POULTICES -0.2989
-4.9906 POUND -0.3010
-4.9906 POURING -0.3010
-4.3885 POWDER -0.2800
-4.0875 POWER -0.2990
-4.9906 POWERFUL -0.3009
-4.9906 POWERFULLY -0.3008
-4.9906 POWERS -0.2800
-4.1455 PRACTICAL -0.3008
-4.9906 PRACTICALLY -0.3004
-4.9906 PRACTICED -0.3005
-4.9906 PRACTICES -0.2800
-4.9906 PRAISES -0.3008
-4.9906 PRAYED -0.2800
-4.9906 PREACHED -0.3004
-4.9906 PRECARIOUSLY -0.3010
-4.1455 PRECAUTION -0.2939
-4.9906 PRECEDED -0.3005
-4.1455 PRECINCTS -0.2987
-4.9906 PRECISION -0.3010
-4.1455 PREDICAMENT -0.2800
-4.6895 PREDISPOSITIONS -0.3000
-4.1455 PREFERS -0.3010
-4.9906 PREMIUMS -0.2800
-4.9906 PREOCCUPIED -0.2983
-4.9906 PREPARE -0.3010
-4.0875 PREPARED -0.2965
-4.1455 PREPARING -0.2939
-4.9906 PREPREPARED -0.3010
-4.9906 PREREQUISITE -0.3001
-4.1455 PRESCHOOLER -0.3010
-4.1455 PRESCRIBE -0.3010
-4.9906 PRESCRIPTION -0.3009
-3.7353 PRESENT -0.2724
-3.7353 PRESENTED -0.2959
-4.6895 PRESENTS -0.3005
-4.9906 PRESERVATION -0.2990
-4.9906 PRESERVED -0.2800
-4.9906 PRESIDENT -0.3009
-4.6895 PRESSURE -0.2992
-4.9906 PRESUMED -0.3010
-4.9906 PRESUMES -0.3010
-4.6895 PRETEND -0.3010
-4.9906 PRETTY -0.3010
-4.6895 PREVENT -0.3010
-4.9906 PREVENTED -0.3005
-4.9906 PREVENTING -0.3010
-4.1455 PREVIOUS -0.3010
-3.7865 PRICE -0.2781
-4.6895 PRICES -0.2979
-4.9906 PRIMACY -0.2800
-4.9906 PRIMARILY -0.2972
-4.1455 PRIMITIVE -0.3010
-4.9906 PRINCIPLES -0.2985
-4.9906 PRINT -0.3009
-4.9906 PRINTS -0.3010
-4.1455 PRIORITIES -0.2800
-4.1455 PRIORITY -0.3003
-4.1455 PRISON -0.3000
-4.9906 PRISONER -0.2968
-4.6895 PRIVATE -0.3010
-4.9906 PRIVATELY -0.3000
-4.9906 PRIVATIONS -0.3000
-4.9906 PRIZES -0.2800
-4.9906 PROBABILITIES -0.3010
-4.9906 PROBABLY -0.3010
-4.9906 PROBES -0.3005
-3.6482 PROBLEM -0.2726
-4.2916 PROBLEMS -0.2779
-4.9906 PROCAINE -0.3010
-4.9906 PROCEDURE -0.2800
-4.9906 PROCEEDS -0.2965
-3.9906 PROCESS -0.2760
-4.1455 PROCESSED -0.3010
-4.9906 PRODUCED -0.3009
-4.9906 PROFESSIONAL -0.3010
-4.9906 PROFIT -0.2965
-4.9906 PROFITS -0.3008
-4.3885 PROGRAM -0.2800
-4.0875 PROGRAMS -0.2986
-3.9906 PROGRESS -0.3006
-4.9906 PROGRESSION -0.2990
-4.0875 PROJECT -0.2997
-4.9906 PROJECTED -0.3010
-4.9906 PROMINENT -0.3009
-4.9906 PROMPTED -0.3005
-4.9906 PROMPTLY -0.3007
-4.9906 PRONOUN -0.3003
-4.1455 PRONUNCIATION -0.2992
-4.0875 PROOF -0.2983
-4.0363 PROPER -0.3009
-4.9906 PROPERTY -0.3010
-4.9906 PROPHETS -0.3010
-4.9906 PROSE -0.3010
-4.6895 PROTECTED -0.3010
-4.9906 PROTEIN -0.2800
-4.9906 PROTESTS -0.2800
-4.9906 PROUD -0.2990
-4.9906 PROVE -0.3010
-4.9906 PROVED -0.3003
-4.9906 PROVEN -0.3005
-4.9906 PROVIDE -0.3010
-4.9906 PROVIDED -0.2800
-4.5135 PROVIDES -0.2971
-4.9906 PROVISIONS -0.3009
-4.9906 PROVOCATIVELY -0.2800
-4.1455 PROVOKED -0.2985
-4.1455 PROWLER -0.3010
-4.9906 PSYCHIATRIST -0.3009
-4.0363 PSYCHOLOGICAL -0.3010
-3.9906 PUBLIC -0.2781
-4.1455 PUBLICITY -0.2989
-4.9906 PUBLISHED -0.2800
-4.6895 PULL -0.2987
-4.6895 PULLED -0.3003
-4.9906 PULLING -0.3010
-4.9906 PUMPED -0.3010
-4.9906 PUMPS -0.2968
-4.9906 PUNCH -0.3010
-4.9906 PUNGENT -0.3010
-4.9906 PUNISH -0.3010
-4.9906 PUNISHMENT -0.3009
-4.9906 PUNY -0.3010
-4.1455 PURCHASED -0.3010
-4.1455 PURE -0.3010
-4.1455 PUREE -0.3009
-4.1455 PURISTS -0.3008
-4.1455 PURPLE -0.2989
-4.9906 PURPOSELESS -0.2800
-4.9906 PURPOSELY -0.2800
-4.9906 PURSED -0.3010
-4.9906 PURSUING -0.3007
-4.6895 PUSH -0.2799
-4.6895 PUSHUPS -0.3000
-3.7118 PUT -0.2610
-4.9906 PUZZLEMENT -0.3009
-4.0363 QUALITY -0.2968
-4.9906 QUARREL -0.2800
-4.9906 QUARRELS -0.2989
-4.9906 QUARTERINCH -0.3010
-4.9906 QUEEN -0.3000
-4.9906 QUERULOUS -0.2800
-4.6895 QUESTION -0.2800
-4.2916 QUESTIONS -0.2775
-4.0875 QUICK -0.3010
-4.5135 QUICKLY -0.3009
-4.9906 QUIETED -0.3008
-4.9906 QUIETLY -0.3010
-4.9906 QUINCE -0.3010
-3.9906 QUITE -0.2968
-4.9906 RABBIT -0.3010
-4.9906 RABIES -0.3007
-4.1455 RACCOONS -0.3010
-4.1455 RACHELS -0.3010
-4.9906 RACING -0.3010
-4.9906 RACK -0.3009
-4.6895 RADAR -0.3007
-4.9906 RADIATION -0.2800
-4.6895 RADIO -0.2992
-4.1455 RADIOACTIVE -0.3010
-2.3185 RAG -0.2987
-4.9906 RAGS -0.3000
-4.0363 RAIN -0.2800
-4.9906 RAINS -0.2939
-4.1455 RAISERS -0.2800
-4.1455 RAISINS -0.3010
-4.9906 RAKED -0.3002
-4.1455 RALPH -0.3010
-4.2124 RAN -0.3001
-4.9906 RANCH -0.3010
-4.9906 RANDOM -0.2800
-4.9906 RANG -0.2800
-4.6895 RANGE -0.2997
-4.9906 RAPID -0.3010
-4.9906 RAPIDLY -0.3010
-4.0363 RARE -0.2983
-3.8145 RARELY -0.2986
-4.9906 RASPED -0.3002
-4.9906 RATE -0.3003
-4.9906 RATED -0.3010
-4.6895 RATES -0.3004
-4.9906 RATTLED -0.2800
-4.9906 RATTLESNAKE -0.3010
-4.9906 RAW -0.3010
-4.9906 REACH -0.2800
-4.6895 REACHED -0.3007
-4.9906 REACTION -0.2992
-4.6895 READ -0.2994
-4.9906 READER -0.2800
-4.9906 READINESS -0.3010
-4.0875 READING -0.2942
-4.9906 READS -0.3005
-4.0875 READY -0.2790
-4.2124 REAL -0.2799
-4.9906 REALISM -0.2800
-4.9906 REALISTIC -0.3008
-4.5135 REALITY -0.2780
-4.6895 REALIZE -0.2977
-4.9906 REALIZING -0.3008
-3.8766 REALLY -0.3002
-4.9906 REARRANGE -0.3010
-4.3885 REASON -0.2947
-4.6895 REASONABLE -0.3010
-4.9906 REASONABLY -0.3010
-4.9906 REASSURE -0.2987
-4.9906 REASSURING -0.2800
-4.1455 RECALL -0.2939
-4.9906 RECALLED -0.2800
-4.0363 RECEIVED -0.2972
-4.9906 RECEIVING -0.3007
-4.1455 RECENT -0.3010
-4.9906 RECEPTACLE -0.2800
-4.9906 RECEPTION -0.2992
-4.1455 RECOGNITION -0.2800
-4.9906 RECOGNIZE -0.3010
-4.6895 RECOGNIZED -0.3002
-4.1455 RECOILED -0.3005
-4.9906 RECOMMENDED -0.3001
-4.9906 RECONNAISSANCE -0.2800
-4.9906 RECONSIDER -0.3003
-4.9906 RECONSIDERED -0.2800
-4.3885 RECORD -0.2768
-4.1455 RECORDS -0.2800
-4.9906 RECREATION -0.3009
-4.1455 RECUPERATING -0.3005
-4.0875 RED -0.3010
-4.9906 REDECORATING -0.3010
-4.6895 REDEPOSITION -0.2972
-4.1455 REDHANDED -0.2800
-4.9906 REDHEADS -0.3000
-4.9906 REDOUBLED -0.3007
-4.9906 REDUCED -0.3010
-4.9906 REDUCING -0.3010
-4.9906 REDUCTION -0.2990
-3.8445 REDWOODS -0.3003
-4.6895 REFERENCE -0.2800
-4.9906 REFERRED -0.2965
-4.1455 REFLECT -0.2985
-4.1455 REFLECTS -0.3008
-4.9906 REFLEXES -0.3000
-4.9906 REFRIGERATOR -0.2800
-4.9906 REFUND -0.2800
-4.1455 REFURBISHING -0.3008
-4.9906 REFUSAL -0.3002
-4.9906 REFUSE -0.2800
-4.9906 REGARD -0.2965
-4.1455 REGARDING -0.3010
-4.9906 REGENERATING -0.3010
-4.0363 REGULAR -0.3010
-4.1455 REGULATIONS -0.2800
-4.3885 RELATED -0.2964
-4.6895 RELATIONSHIP -0.2779
-4.6895 RELATIVELY -0.3009
-4.0875 RELAXED -0.3009
-4.9906 RELEASE -0.3005
-4.9906 RELEASED -0.3007
-4.5135 RELIEF -0.2756
-4.9906 RELIEVED -0.3005
-4.9906 RELIEVING -0.3010
-4.9906 RELIGION -0.3010
-4.9906 RELINQUISHING -0.3005
-4.9906 REMAIN -0.3010
-4.0875 REMAINED -0.2800
-4.9906 REMAINING -0.3010
-4.9906 REMAINS -0.2965
-4.0875 REMEMBER -0.2963
-4.5135 REMEMBERED -0.2871
-4.9906 REMEMBERS -0.2992
-4.9906 REMEMBRANCE -0.3005
-4.1455 REMINDED -0.3007
-4.6895 REMINDS -0.3006
-4.9906 REMINISCENCE -0.2800
-4.1455 REMOVAL -0.2800
-4.0363 REMOVE -0.2914
-4.9906 RENT -0.2972
-4.1455 REORGANIZATION -0.2800
-4.1455 REPAINTED -0.2939
-4.0875 REPAINTING -0.3008
-4.9906 REPEAT -0.2800
-4.9906 REPEATED -0.3010
-4.9906 REPETITION -0.2800
-4.9906 REPLACE -0.3003
-4.9906 REPLACED -0.3005
-4.9906 REPLENISH -0.3010
-4.9906 REPLIED -0.2800
-4.9906 REPLY -0.2800
-4.9906 REPORT -0.3009
-4.9906 REPORTERS -0.3010
-4.9906 REPORTORIAL -0.3010
-4.9906 REPORTS -0.2989
-4.9906 REPRESENT -0.3010
-4.9906 REPRESENTS -0.2972
-4.9906 REPRODUCE -0.2939
-4.9906 REPUGNANT -0.2965
-4.0875 REQUIRED -0.2774
-4.9906 REQUIREMENTS -0.3001
-3.9906 REQUIRES -0.2944
-4.5135 RESEARCH -0.2798
-4.1455 RESEMBLE -0.3010
-4.6895 RESERVED -0.2958
-4.9906 RESIDENTIAL -0.3010
-4.9906 RESIDUES -0.2800
-4.9906 RESINSATURATED -0.3010
-4.9906 RESISTANCE -0.3010
-4.9906 RESOLUTE -0.3010
-4.9906 RESOLUTION -0.3010
-4.6895 RESOLVED -0.2937
-4.6895 RESPECT -0.2753
-4.9906 RESPECTED -0.2800
-4.9906 RESPONSE -0.2990
-4.6895 RESPONSIBILITY -0.2990
-4.9906 RESPONSIBLE -0.3001
-4.9906 RESPONSIVELY -0.2800
-4.6895 REST -0.3003
-4.9906 RESTRICTED -0.2965
-4.5135 RESULT -0.2972
-3.9114 RESULTS -0.2786
-4.9906 RESUMED -0.2800
-4.9906 RETALIATORY -0.3009
-4.9906 RETINAL -0.3010
-4.9906 RETIRE -0.2800
-4.9906 RETIRED -0.2800
-4.9906 RETIREMENT -0.3010
-4.9906 RETOUCHING -0.3000
-4.9906 RETRIBUTION -0.3010
-4.9906 REUPHOLSTERING -0.3010
-4.9906 REVEALED -0.2968
-4.9906 REVEALING -0.3010
-4.9906 REVENGE -0.3003
-4.9906 REVENUES -0.2800
-4.9906 REVERBERATED -0.2968
-4.9906 REVOLUTION -0.3008
-4.9906 REVOLVING -0.3010
-4.9906 REVULSION -0.2800
-3.8445 REWARDED -0.2794
-4.9906 REWRITE -0.3003
-4.9906 RHINOCEROS -0.3010
-4.1455 RHUBARB -0.3009
-4.1455 RHYTHM -0.2800
-4.9906 RIBBONS -0.2800
-4.9906 RICE -0.3010
-3.6289 RICH -0.2965
-4.9906 RICKETY -0.3010
-4.6895 RIDE -0.3001
-4.9906 RIDES -0.3007
-4.9906 RIDGE -0.2800
-4.9906 RIDICULOUSLY -0.3009
-4.9906 RIDING -0.2800
-4.5135 RIFLE -0.2800
-3.9492 RIGHT -0.2692
-4.9906 RIGHTS -0.2989
-4.9906 RIM -0.2990
-4.1455 RINGING -0.2800
-4.9906 RIOT -0.2939
-4.6895 RIPE -0.2790
-4.9906 RIPPED -0.3008
-4.9906 RIPPING -0.2800
-4.0875 RISE -0.2964
-4.9906 RISKS -0.2989
-4.9906 RIVERBANK -0.3007
-4.9906 ROAD -0.3010
-4.9906 ROADWAY -0.2939
-4.0875 ROAST -0.3010
-4.1455 ROB -0.3008
-4.2916 ROCK -0.2765
-4.1455 ROCKANDROLL -0.3010
-4.6895 ROCKETS -0.3007
-4.5135 RODE -0.3006
-4.9906 ROLE -0.2989
-4.9906 ROLEPLAYING -0.3009
-4.9906 ROLES -0.2800
-4.0363 ROLL -0.2778
-4.6895 ROLLED -0.3009
-4.9906 ROMANCE -0.2989
-4.1455 ROMANTIC -0.3010
-4.1455 RONS -0.3010
-3.9906 ROOF -0.2779
-4.9906 ROOFS -0.2800
-4.9906 ROOFTREE -0.2939
-4.6895 ROOM -0.2999
-4.6895 ROOMS -0.3010
-4.0363 ROSE -0.3004
-4.1455 ROSES -0.3008
-4.9906 ROSY -0.3010
-4.9906 ROUGH -0.3010
-4.9906 ROUGHTOUGH -0.3010
-4.9906 ROULETTES -0.3005
-4.9906 ROUTINE -0.2800
-4.9906 ROUTINELY -0.2800
-4.9906 ROVE -0.2800
-4.1455 ROY -0.3010
-4.6895 ROYAL -0.3007
-4.9906 RUFFLES -0.3007
-4.9906 RUG -0.3000
-4.9906 RUGS -0.2800
-4.1455 RUINS -0.2800
-4.9906 RULE -0.3010
-4.9906 RULED -0.2968
-4.9906 RULES -0.3003
-4.9906 RUMEN -0.3010
-4.0875 RUN -0.3000
-4.9906 RUNDOWN -0.3010
-4.6895 RUNNING -0.3006
-4.5135 RUNS -0.2870
-4.9906 RUSHING -0.2965
-4.6895 RUST -0.3010
-4.9906 SACRIFICE -0.2800
-4.9906 SADDLEBAGS -0.2800
-4.9906 SADNESS -0.2983
-4.1455 SAFARI -0.2800
-4.3885 SAFE -0.2753
-4.9906 SAFEKEEPING -0.2800
-4.9906 SAFER -0.3009
-4.6895 SAFETY -0.2800
-4.9906 SAGA -0.2800
-4.9906 SAGGING -0.3010
-3.5756 SAID -0.2590
-4.9906 SAILBOAT -0.3008
-4.9906 SAILED -0.3002
-4.1455 SALAD -0.3010
-4.9906 SALADS -0.2989
-4.9906 SALARY -0.2989
-4.9906 SALE -0.3004
-4.9906 SALTED -0.2800
-4.2916 SAME -0.2799
-4.9906 SAMPLE -0.2990
-4.9906 SAMPLES -0.3000
-4.1455 SANDWICH -0.2800
-4.6895 SANK -0.3009
-4.9906 SAT -0.3008
-4.6895 SATELLITES -0.3008
-4.9906 SATIRICAL -0.3008
-4.9906 SATISFACTION -0.2800
-4.6895 SATISFY -0.2937
-4.1455 SATURDAY -0.2800
-4.0875 SAUCE -0.3001
-4.9906 SAUERKRAUT -0.2992
-4.9906 SAVAGELY -0.2800
-3.7865 SAVE -0.2984
-4.9906 SAVED -0.2800
-3.2916 SAW -0.2886
-4.9906 SAWS -0.2989
-3.9492 SAY -0.2725
-4.6895 SAYING -0.3002
-4.9906 SCABBARD -0.2800
-4.1455 SCALP -0.3000
-4.1455 SCAMPERED -0.3010
-4.9906 SCAR -0.2983
-4.9906 SCATTERED -0.3010
-4.9906 SCENERY -0.2800
-4.6895 SCENES -0.2796
-4.9906 SCHEDULE -0.2800
-4.1455 SCHOLAR -0.3010
-4.1455 SCHOLARS -0.3010
-4.1455 SCHOLASTIC -0.3010
-4.1455 SCHOONER -0.2800
-4.1455 SCIENTIFIC -0.3010
-4.6895 SCIENTISTS -0.2997
-4.1455 SCOOP -0.2990
-4.6895 SCORE -0.3001
-4.9906 SCORED -0.3010
-4.9906 SCOUR -0.3010
-4.9906 SCOUTS -0.3010
-4.9906 SCOWLED -0.3007
-4.9906 SCRAPING -0.2985
-4.9906 SCRATCH -0.2939
-4.9906 SCREAM -0.3007
-4.9906 SCREECHED -0.2972
-4.1455 SCREEN -0.2800
-4.1455 SCREW -0.2968
-4.1455 SCREWDRIVER -0.2992
-4.9906 SCULPTOR -0.3010
-3.8445 SCULPTURE -0.2756
-4.9906 SE -0.2800
-4.0875 SEA -0.2990
-4.1455 SEAMSTRESSES -0.3010
-4.6895 SEARCH -0.3004
-4.6895 SEASON -0.3010
-4.9906 SEASONING -0.3000
-4.9906 SEATS -0.3010
-4.3885 SECOND -0.2989
-4.9906 SECONDARY -0.3010
-4.9906 SECRET -0.3010
-4.9906 SECTOR -0.2990
-4.9906 SECURED -0.3005
-4.1455 SECURITY -0.3010
-3.5592 SEE -0.2864
-4.9906 SEED -0.3010
-4.3885 SEEDS -0.2924
-4.9906 SEEING -0.3005
-4.9906 SEEKER -0.3010
-4.1455 SEEKING -0.2992
-4.3885 SEEM -0.2926
-4.1455 SEEMED -0.2939
-4.2124 SEEMS -0.2895
-4.9906 SEEN -0.2939
-4.1455 SEISMIC -0.3010
-3.5434 SELDOM -0.3009
-4.9906 SELECTING -0.3010
-4.9906 SELECTION -0.2800
-4.9906 SELECTIVE -0.2800
-4.9906 SELFCONFIDENT -0.2989
-4.9906 SELFCONTAINED -0.3010
-4.9906 SELFDECEIVING -0.3010
-4.9906 SELFS -0.3010
-4.9906 SELFSUFFICIENCY -0.2800
-4.9906 SELLER -0.2800
-4.9906 SEMIHEIGHTS -0.2800
-4.9906 SENATE -0.2800
-4.6895 SEND -0.3008
-4.9906 SENDING -0.3009
-4.9906 SENIOR -0.3010
-4.3885 SENSE -0.2703
-4.9906 SENSIBLY -0.2965
-4.9906 SENSITIVE -0.3009
-4.9906 SENSORY -0.3010
-4.9906 SENSUAL -0.3010
-4.9906 SENTIMENT -0.2992
-4.9906 SEPARATE -0.3010
-4.1455 SEQUOIA -0.3010
-4.9906 SERIES -0.2800
-4.1455 SERMON -0.3010
-4.1455 SERPENTS -0.3010
-3.9906 SERVE -0.2966
-4.6895 SERVED -0.3000
-4.9906 SERVES -0.2965
-4.1455 SERVICE -0.3008
-3.8766 SET -0.2892
-4.9906 SETS -0.3009
-4.9906 SETTLE -0.3009
-4.3885 SEVEN -0.3000
-4.9906 SEVENTH -0.3010
-4.9906 SEVENTY -0.3010
-3.7353 SEVERAL -0.3009
-4.1455 SEVERE -0.3010
-4.9906 SEWERS -0.2800
-4.6895 SEWING -0.2800
-4.9906 SEX -0.3003
-4.2916 SEXUAL -0.3005
-4.9906 SEXUALLY -0.2800
-4.6895 SHADE -0.2798
-4.0363 SHADOW -0.3005
-4.9906 SHAFT -0.2990
-4.9906 SHAG -0.3010
-4.9906 SHAKEN -0.2800
-4.9906 SHAKER -0.3010
-4.9906 SHAKY -0.2800
-4.2124 SHALL -0.2996
-4.9906 SHAMPOO -0.3010
-4.1455 SHAPE -0.3010
-4.9906 SHAPED -0.3005
-4.9906 SHAPES -0.2968
-4.6895 SHARE -0.3010
-4.3885 SHARP -0.3010
-4.6895 SHATTERED -0.2798
-4.9906 SHAVING -0.3002
-4.9906 SHAWLS -0.2800
-4.1455 SHAWN -0.3010
-2.2332 SHE -0.2635
-4.0363 SHED -0.2974
-4.9906 SHEIK -0.3010
-4.1455 SHEILA -0.2965
-4.1455 SHELL -0.3010
-3.8445 SHELLFISH -0.2800
-4.6895 SHELTER -0.2798
-4.9906 SHELTERED -0.3005
-4.9906 SHELVES -0.3009
-4.1455 SHERBET -0.2800
-4.9906 SHERIFF -0.3009
-4.9906 SHERIFFS -0.3010
-4.9906 SHES -0.3003
-4.9906 SHIELDING -0.3010
-4.2124 SHIMMERED -0.2968
-4.9906 SHIMMERING -0.3010
-4.1455 SHIMMERS -0.3003
-4.9906 SHIP -0.2800
-4.1455 SHIPBUILDING -0.2992
-4.0875 SHIPS -0.2800
-4.9906 SHIRT -0.3002
-4.9906 SHIVERING -0.3000
-4.0875 SHOCK -0.3009
-4.1455 SHOCKED -0.2939
-4.9906 SHOCKING -0.3010
-4.9906 SHOCKS -0.3010
-4.9906 SHOELACES -0.2800
-3.8145 SHOES -0.2796
-3.8445 SHONE -0.2968
-4.6895 SHOOK -0.2791
-4.9906 SHOOT -0.3007
-4.6895 SHOP -0.3010
-4.9906 SHOPKEEPERS -0.2800
-4.9906 SHORT -0.2800
-3.6684 SHORTAGE -0.2799
-4.1455 SHORTEN -0.3004
-4.2916 SHOT -0.2929
-3.3673 SHOULD -0.2962
-4.6895 SHOUTED -0.2800
-4.9906 SHOVE -0.3010
-4.9906 SHOVELS -0.3010
-4.9906 SHOVING -0.2800
-4.2916 SHOW -0.2899
-4.5135 SHOWED -0.2939
-4.1455 SHOWERS -0.2800
-4.6895 SHOWN -0.3008
-4.9906 SHOWS -0.3009
-4.1455 SHRAPNEL -0.2992
-4.1455 SHREDDED -0.3009
-4.9906 SHRIEKED -0.3010
-4.9906 SHRINKING -0.3009
-4.9906 SHRUBS -0.2800
-4.6895 SHRUGGED -0.2800
-4.9906 SHUCKS -0.2939
-4.9906 SHUDDERING -0.2800
-4.9906 SHUFFLE -0.2965
-4.3885 SHUT -0.2793
-4.6895 SHY -0.3000
-4.1455 SIAMESE -0.2800
-4.9906 SICK -0.2968
-4.5135 SIDE -0.2778
-4.5135 SIDES -0.2966
-4.9906 SIDEWINDER -0.2800
-4.9906 SIGH -0.3005
-4.9906 SIGHING -0.2989
-4.3885 SIGN -0.2979
-4.9906 SIGNALS -0.3007
-4.1455 SIGNED -0.3010
-4.6895 SIGNIFICANT -0.3010
-4.6895 SIGNS -0.2990
-4.9906 SILENCE -0.2800
-4.9906 SILENT -0.2800
-4.9906 SILKY -0.3010
-4.9906 SILVER -0.3010
-4.9906 SIMMER -0.3010
-4.9906 SIMMERED -0.2968
-4.0875 SIMPLE -0.3010
-4.9906 SIMPLER -0.3010
-4.9906 SIMPLEST -0.3010
-4.5135 SIMPLY -0.2899
-4.9906 SIN -0.3006
-4.5135 SINCE -0.2965
-4.6895 SINCERE -0.3010
-4.9906 SINCERITY -0.2989
-4.0875 SING -0.3007
-4.1455 SINGERS -0.3010
-4.2916 SINGLE -0.3009
-4.9906 SINGLEHANDED -0.3003
-4.9906 SINGULAR -0.3010
-4.9906 SINUOUS -0.3010
-4.9906 SINUS -0.3010
-4.6895 SIT -0.2789
-3.9906 SITE -0.2789
-4.0875 SITTING -0.2756
-4.2916 SITUATION -0.2774
-4.2916 SIX -0.2799
-4.9906 SIXTY -0.3010
-4.9906 SIZE -0.2800
-4.6895 SIZED -0.3005
-4.9906 SKATING -0.3010
-4.1455 SKEWERS -0.2800
-4.1455 SKI -0.3010
-4.9906 SKIFFS -0.3002
-4.9906 SKIING -0.3010
-4.1455 SKILL -0.2990
-4.9906 SKILLED -0.3010
-4.1455 SKILLS -0.2800
-4.9906 SKIN -0.3008
-4.9906 SKINLESS -0.3010
-4.1455 SKIRT -0.3001
-4.9906 SKIRTS -0.2985
-4.1455 SKY -0.2800
-4.9906 SKYWAVE -0.3010
-4.9906 SLAMMED -0.2968
-4.9906 SLANTED -0.3010
-4.9906 SLATE -0.2800
-4.6895 SLEEPING -0.3010
-4.9906 SLEEPY -0.3010
-4.1455 SLEIGH -0.3010
-4.9906 SLEPT -0.3010
-4.6895 SLIGHTLY -0.3010
-4.1455 SLIP -0.3010
-4.0875 SLIPPED -0.3008
-4.9906 SLIPPING -0.2939
-4.1455 SLOPES -0.2968
-4.9906 SLOPPY -0.3008
-4.9906 SLOW -0.2800
-4.9906 SLOWED -0.3000
-4.5135 SLOWLY -0.2964
-4.9906 SLUDGE -0.3010
-4.9906 SLUG -0.2987
-4.9906 SLUGGING -0.2972
-4.9906 SLYLY -0.3000
-3.6289 SMALL -0.2797
-4.1455 SMASH -0.3010
-4.9906 SMASHED -0.3003
-4.9906 SMELL -0.2992
-4.0875 SMELLED -0.3010
-4.6895 SMILE -0.2800
-4.9906 SMILED -0.2989
-4.9906 SMILING -0.3010
-4.1455 SMITHS -0.3010
-4.9906 SMOKE -0.2800
-4.9906 SMOLDERINGLY -0.2800
-4.5135 SMOOTH -0.2936
-4.9906 SMOTHERED -0.3010
-4.6895 SNAKES -0.2789
-4.1455 SNAPPER -0.3002
-4.9906 SNAPPING -0.3003
-4.6895 SNARLED -0.3010
-4.9906 SNATCHED -0.3007
-4.9906 SNIPS -0.2990
-4.0363 SNOW -0.2789
-4.9906 SNOWED -0.3010
-3.2347 SO -0.2648
-4.9906 SOAK -0.3007
-4.9906 SOBER -0.2800
-3.8445 SOCIAL -0.2987
-4.1455 SOCKS -0.3001
-4.3885 SOFT -0.2799
-4.9906 SOFTLY -0.3010
-4.6895 SOIL -0.2800
-4.9906 SOILS -0.3000
-4.1455 SOLD -0.3007
-4.9906 SOLDIERS -0.3010
-4.9906 SOLICITS -0.3005
-4.9906 SOLID -0.3010
-4.6895 SOLIDARITY -0.2989
-4.9906 SOLITARY -0.2989
-4.9906 SOLITUDE -0.2987
-4.9906 SOLUTION -0.2800
-4.9906 SOLVED -0.3005
-4.1455 SOLVES -0.2939
-3.4854 SOME -0.2762
-4.5135 SOMEBODY -0.2991
-4.9906 SOMEBODYLL -0.3010
-4.9906 SOMEHOW -0.3003
-4.3885 SOMEONE -0.2988
-4.6895 SOMEPLACE -0.2753
-4.2916 SOMETHING -0.2751
-3.7118 SOMETIMES -0.3002
-4.9906 SOMEWHAT -0.2989
-4.2916 SOMEWHERE -0.3008
-4.6895 SON -0.2800
-4.5135 SONG -0.2981
-3.9492 SOON -0.3001
-4.9906 SOOTHE -0.2939
-4.9906 SOPHISTICATED -0.3010
-4.9906 SOPHISTICATION -0.2989
-4.9906 SORCERY -0.3007
-4.9906 SORDID -0.3010
-4.6895 SORROW -0.2753
-4.9906 SORRY -0.3006
-4.5135 SORT -0.2972
-4.0875 SOUGHT -0.2938
-4.9906 SOUL -0.2800
-4.9906 SOULS -0.2800
-4.6895 SOUND -0.2798
-4.9906 SOUNDED -0.2988
-4.9906 SOUP -0.3009
-4.9906 SOURCE -0.2992
-4.5135 SOURCES -0.2779
-4.9906 SOUTH -0.3010
-4.9906 SOUTHWEST -0.2983
-4.1455 SOYBEANS -0.2800
-4.1455 SOYSAUCE -0.2983
-4.5135 SPACE -0.3004
-4.9906 SPACED -0.3010
-4.9906 SPADE -0.3010
-4.9906 SPADES -0.3010
-4.1455 SPANISH -0.3010
-4.9906 SPATIAL -0.3010
-4.6895 SPEAK -0.2944
-4.1455 SPEAKER -0.3010
-4.9906 SPECIAL -0.3010
-4.9906 SPECIALTY -0.3010
-4.9906 SPECIES -0.2990
-4.6895 SPECIFIC -0.3010
-4.9906 SPECTACULAR -0.3010
-4.9906 SPECULATED -0.2983
-3.8445 SPEECH -0.3010
-4.9906 SPHERE -0.2992
-4.0875 SPHERICAL -0.3010
-4.9906 SPIKE -0.3008
-4.6895 SPIRIT -0.2988
-4.9906 SPIRITED -0.3010
-4.9906 SPIRITS -0.3010
-4.9906 SPIRITUAL -0.3010
-4.9906 SPIT -0.3007
-4.9906 SPLASHED -0.3010
-4.9906 SPLENDIDLY -0.3010
-4.9906 SPLENDOR -0.3005
-3.8445 SPLINTER -0.2791
-4.1455 SPLURGE -0.2989
-4.1455 SPLURGED -0.2989
-4.9906 SPOILAGE -0.2990
-4.9906 SPOILED -0.2972
-4.5135 SPOKE -0.3002
-4.9906 SPOKES -0.2990
-4.9906 SPONGES -0.2800
-4.9906 SPONSORS -0.3007
-4.9906 SPORT -0.3010
-4.9906 SPORTS -0.2989
-4.9906 SPORTSMEN -0.2992
-4.9906 SPOT -0.2800
-4.1455 SPOTTED -0.3010
-4.6895 SPRANG -0.3007
-4.1455 SPRAY -0.3009
-4.9906 SPREAD -0.3010
-3.7353 SPRING -0.2942
-4.9906 SPROUTED -0.3010
-4.9906 SPUN -0.3010
-4.1455 SPURIOUS -0.3010
-4.9906 SPURS -0.2965
-4.9906 SPUTNIKS -0.3010
-4.1455 SQUARE -0.3008
-4.9906 SQUARED -0.3009
-4.9906 SQUASHY -0.3010
-4.1455 SQUEEZED -0.3005
-4.9906 SQUELCHED -0.2800
-4.1455 STAB -0.3010
-4.9906 STABLE -0.3010
-4.6895 STAFF -0.2990
-4.1455 STAG -0.3010
-4.9906 STAGE -0.2992
-4.9906 STAKE -0.2800
-4.9906 STAMPEDE -0.2800
-4.6895 STAND -0.2797
-4.1455 STANDARDIZED -0.3010
-4.9906 STANDARDS -0.2990
-4.1455 STANDBY -0.3007
-4.1455 STAR -0.3010
-4.9906 STARCHY -0.2800
-4.6895 STARED -0.3005
-4.1455 START -0.2962
-4.9906 STARTED -0.2800
-4.9906 STARTLING -0.3010
-3.9492 STATE -0.2990
-4.9906 STATEMENT -0.2992
-4.6895 STATES -0.3007
-4.9906 STATUE -0.2990
-4.1455 STATUESQUE -0.3010
-4.1455 STATUS -0.2965
-4.9906 STATUTORY -0.3010
-4.5135 STAY -0.3004
-4.0363 STAYED -0.3004
-4.6895 STEAM -0.3010
-4.1455 STEAMING -0.2968
-4.9906 STEEL -0.3010
-3.8445 STEEP -0.3009
-4.0875 STEMS -0.2794
-4.6895 STEP -0.2800
-4.1455 STEPH -0.3008
-4.9906 STEPMOTHER -0.3010
-4.0875 STEPS -0.2800
-4.1455 STEVE -0.3010
-4.1455 STEW -0.2800
-4.9906 STICK -0.3010
-4.9906 STIFFLY -0.2989
-4.2124 STILL -0.2999
-4.1455 STIMULATING -0.3010
-4.1455 STINGING -0.3010
-4.9906 STINGS -0.3010
-4.9906 STIRRED -0.3010
-4.9906 STIRRIN -0.3009
-4.9906 STIRRUPGUARD -0.3009
-4.9906 STOCK -0.3010
-4.9906 STOCKROOM -0.2800
-4.6895 STOMACH -0.2800
-4.1455 STOMPED -0.3009
-4.9906 STONE -0.3002
-4.9906 STONEWARE -0.3010
-4.6895 STOOD -0.2800
-4.9906 STOOP -0.2965
-4.5135 STOP -0.2768
-4.6895 STOPPED -0.2778
-4.9906 STOPPING -0.3010
-3.8145 STORE -0.2992
-4.9906 STORED -0.2939
-4.9906 STORMS -0.3007
-4.6895 STORY -0.2980
-4.9906 STORYLINE -0.2968
-4.9906 STORYLINES -0.3009
-4.0875 STRAIGHT -0.3010
-4.9906 STRAIGHTENED -0.3007
-4.1455 STRAIGHTFORWARD -0.3008
-4.9906 STRAIN -0.2990
-4.9906 STRATEGIC -0.3010
-4.9906 STRATEGY -0.3010
-4.9906 STRAW -0.3010
-4.9906 STRAWBERRIES -0.2800
-4.1455 STRAWBERRY -0.3010
-4.9906 STREAM -0.3010
-4.9906 STREAMED -0.3008
-4.0363 STREET -0.2990
-4.6895 STRENGTH -0.2983
-4.9906 STRESS -0.3010
-4.9906 STRETCHED -0.3002
-4.9906 STRIKINGLY -0.3010
-4.6895 STRIP -0.2990
-4.9906 STRIPPERS -0.2800
-4.9906 STROLLED -0.3009
-4.5135 STRONG -0.3010
-4.1455 STRONGHOLD -0.2800
-4.9906 STRONGLY -0.3010
-4.6895 STRUCK -0.3005
-4.6895 STRUCTURE -0.2779
-4.6895 STRUGGLE -0.2962
-4.9906 STRUGGLING -0.3008
-4.9906 STUCK -0.3010
-3.7118 STUDENTS -0.2979
-4.9906 STUDIO -0.3010
-4.0363 STUDY -0.2779
-4.9906 STUMPING -0.3010
-4.1455 STUNG -0.3002
-4.9906 STUPID -0.3007
-4.6895 STYLE -0.2997
-4.1455 STYLISH -0.3010
-4.1455 SUBDUED -0.3005
-3.8445 SUBJECT -0.2753
-4.9906 SUBMARINE -0.3010
-4.9906 SUBMIT -0.2965
-4.9906 SUBSTANTIAL -0.3010
-4.9906 SUBSTANTIALLY -0.3010
-4.1455 SUBTITLES -0.2800
-4.1455 SUBTRACTION -0.3000
-4.1455 SUBURBAN -0.3010
-4.1455 SUBURBANITES -0.3010
-4.9906 SUBURBS -0.2800
-4.1455 SUBWAY -0.3010
-4.9906 SUCCEEDING -0.3010
-4.0363 SUCCESS -0.2788
-4.9906 SUCCESSFULLY -0.3010
-4.6895 SUCCESSORS -0.3000
-3.7353 SUCH -0.2932
-4.9906 SUCKING -0.3010
-4.0875 SUDDEN -0.3010
-4.3885 SUDDENLY -0.2971
-4.9906 SUEY -0.2800
-4.1455 SUFFER -0.3005
-4.9906 SUFFERED -0.3010
-4.9906 SUFFICIENT -0.3010
-4.9906 SUFFICIENTLY -0.2968
-4.9906 SUGAR -0.2989
-4.1455 SUGGESTION -0.3010
-2.3259 SUIT -0.2968
-3.8445 SUITABLE -0.3000
-4.9906 SUITE -0.3000
-4.9906 SULLEN -0.3010
-4.6895 SUMMER -0.2800
-4.9906 SUMMERTIME -0.3010
-3.6482 SUN -0.2725
-4.6895 SUNBURN -0.2797
-4.9906 SUNBURNED -0.2983
-4.1455 SUNDAE -0.3009
-4.9906 SUNDOWN -0.2800
-4.9906 SUNLIGHT -0.2800
