Language model created by QuickLM on Tue Oct  6 11:49:41 EDT 2015
Copyright (c) 1996-2010 Carnegie Mellon University and Alexander I. Rudnicky

The model is in standard ARPA format, designed by Doug Paul while he was at MITRE.

The code that was used to produce this language model is available in Open Source.
Please visit http://www.speech.cs.cmu.edu/tools/ for more information

The (fixed) discount mass is 0.5. The backoffs are computed using the ratio method.
This model based on a corpus of 1680 sentences and 2375 words

\data\
ngram 1=2375
ngram 2=5427
ngram 3=5559

\1-grams:
-1.3279 </s> -0.3010
-1.3279 <s> -0.2226
-2.0761 A -0.2927
-3.7081 ABDOMEN -0.2996
-3.7081 ABILITY -0.2967
-3.8542 ABOUT -0.2963
-4.2521 ABOVE -0.2935
-3.7081 ABRUPTLY -0.3003
-4.5532 ABSENCES -0.3010
-4.5532 ABSOLUTE -0.3010
-4.5532 ABSORBED -0.3009
-4.5532 ABYSS -0.2988
-4.5532 ACCELERATING -0.3010
-4.5532 ACCENT -0.2801
-4.5532 ACCEPTANCE -0.2988
-4.5532 ACCESS -0.2967
-4.5532 ACCIDENT -0.3010
-4.5532 ACCLAIMED -0.3002
-3.7081 ACCOMPLISHED -0.3009
-3.7081 ACCOUNT -0.2801
-4.5532 ACCREDITATION -0.2988
-4.5532 ACCURACY -0.3006
-3.7081 ACCUSATIONS -0.3003
-4.5532 ACCUSE -0.2974
-3.7081 ACHES -0.3009
-4.5532 ACHIEVED -0.3003
-4.5532 ACKNOWLEDGE -0.2801
-4.5532 ACQUIRE -0.2974
-3.7081 ACROPOLIS -0.2983
-4.2521 ACROSS -0.2929
-4.5532 ACTION -0.2801
-4.5532 ACTIVITIES -0.3009
-4.2521 ACTIVITY -0.2781
-4.5532 ACTS -0.2988
-4.5532 ACTUAL -0.3010
-4.5532 ACTUALLY -0.3006
-3.6501 ADD -0.2900
-4.2521 ADDED -0.3010
-4.5532 ADDITIVES -0.3008
-4.5532 ADDRESS -0.3010
-4.5532 ADJUSTMENTS -0.2967
-4.5532 ADMITTED -0.3003
-4.5532 ADMITTING -0.3003
-4.5532 ADULT -0.3009
-4.5532 ADULTHOOD -0.2801
-4.5532 ADVANTAGE -0.2988
-4.5532 ADVENTURES -0.2989
-4.5532 ADVISABLE -0.2991
-3.2521 AFTER -0.2903
-4.5532 AFTERWARDS -0.3000
-4.0761 AGAIN -0.2801
-4.0761 AGE -0.2790
-4.5532 AGGLOMERATION -0.2988
-3.7081 AGLOW -0.2801
-4.2521 AGO -0.2801
-3.7081 AGRICULTURAL -0.3009
-4.5532 AHAH -0.2997
-4.5532 AHEAD -0.2989
-4.5532 AIM -0.2967
-4.5532 AIMED -0.2974
-4.5532 AINT -0.3000
-4.2521 AIR -0.2801
-3.7081 ALICES -0.3009
-4.5532 ALIGNING -0.2983
-2.2068 ALL -0.2881
-3.7081 ALLIGATORS -0.2997
-4.5532 ALLOT -0.3009
-3.3771 ALLOW -0.2899
-4.5532 ALLOWABLE -0.3010
-4.5532 ALLOWED -0.2991
-4.5532 ALLPURPOSE -0.3010
-4.5532 ALLURE -0.2991
-4.5532 ALMOST -0.3010
-4.5532 ALONE -0.3009
-4.2521 ALONG -0.2967
-4.5532 ALOUD -0.2801
-4.2521 ALREADY -0.3010
-3.5118 ALSO -0.3008
-4.5532 ALTERNATED -0.3003
-4.5532 ALTERNATIVE -0.2801
-3.7081 ALUMINUM -0.3009
-3.2979 ALWAYS -0.3006
-3.7081 AM -0.2801
-4.5532 AMAZE -0.3010
-4.5532 AMBASSADOR -0.3010
-4.5532 AMBIGUOUS -0.2801
-4.5532 AMBITIOUS -0.2801
-3.7081 AMBLED -0.3009
-3.7081 AMBULANCE -0.2991
-4.5532 AMERICAN -0.3010
-4.5532 AMMO -0.2801
-4.5532 AMORIST -0.3010
-2.2372 AN -0.2983
-4.5532 ANAESTHESIA -0.2801
-4.2521 ANALYSIS -0.2974
-2.3101 AND -0.2682
-4.5532 ANGER -0.3010
-4.5532 ANIMAL -0.3010
-3.7081 ANKLE -0.2998
-3.7081 ANNOYING -0.3007
-4.2521 ANOTHER -0.3010
-3.6501 ANSWER -0.2801
-4.2521 ANSWERED -0.2801
-3.7081 ANTELOPE -0.2801
-4.5532 ANTIINFECTIVE -0.3010
-4.5532 ANXIETY -0.3006
-3.3227 ANY -0.3004
-4.2521 ANYTHING -0.2781
-4.5532 ANYWAY -0.2801
-4.5532 APARTMENTS -0.2997
-3.7081 APOLOGY -0.2801
-4.5532 APPARENTLY -0.3010
-4.5532 APPEALING -0.2801
-4.5532 APPEARANCE -0.2989
-3.7081 APPETIZERS -0.2801
-4.5532 APPLES -0.2972
-4.5532 APPLIANCES -0.2989
-4.5532 APPLICABILITY -0.2967
-4.5532 APPLICATIONS -0.2801
-4.5532 APPLIED -0.3003
-4.5532 APPRAISAL -0.2801
-4.5532 APPROACH -0.3008
-3.7081 APPROVAL -0.2991
-4.5532 APPROXIMATED -0.3008
-4.5532 ARBITRARY -0.3006
-4.5532 ARBOREAL -0.3010
-2.5079 ARE -0.2714
-4.5532 AREA -0.2984
-4.5532 AREAS -0.2997
-3.7081 ARGUED -0.2972
-3.6501 ARM -0.2792
-4.5532 ARMCHAIR -0.3010
-4.2521 ARMS -0.3010
-4.2521 ARMY -0.2995
-3.8542 AROUND -0.2715
-3.7081 ARRANGE -0.2991
-4.5532 ARRANGED -0.2967
-4.5532 ARRIVAL -0.2988
-4.5532 ARRIVED -0.2801
-3.7081 ARRIVING -0.2998
-4.5532 ART -0.3010
-3.7081 ARTIFICIAL -0.3009
-3.7081 ARTISTS -0.3009
-2.6958 AS -0.2798
-4.2521 ASIDE -0.2966
-2.3253 ASK -0.2987
-4.5532 ASKED -0.3007
-4.5532 ASSEMBLED -0.2972
-4.5532 ASSEMBLING -0.3010
-3.7081 ASSISTANCE -0.2801
-4.5532 ASTROPHYSICS -0.2801
-2.7750 AT -0.2662
-4.5532 ATOMS -0.3008
-4.5532 ATTEMPTED -0.2972
-4.2521 ATTENTION -0.2796
-4.5532 ATTITUDE -0.3006
-4.5532 ATTRACTED -0.3009
-3.7081 AUDITION -0.2801
-4.5532 AUDITORS -0.2801
-3.7081 AUDITS -0.2801
-4.5532 AUGMENTED -0.3006
-4.5532 AUNT -0.3009
-4.5532 AUSTERE -0.3009
-4.5532 AUTHOR -0.3003
-4.5532 AUTHORITIES -0.3010
-3.7081 AUTHORIZED -0.2937
-4.2521 AUTISTIC -0.3010
-3.7081 AUTUMN -0.2801
-4.2521 AVAILABLE -0.2801
-3.6501 AVOID -0.3009
-4.5532 AW -0.3010
-4.5532 AWARE -0.2988
-3.4740 AWAY -0.2761
-4.5532 AWE -0.3009
-4.5532 AWEINSPIRING -0.2801
-3.6501 BACK -0.2801
-4.5532 BACKWARD -0.2801
-4.5532 BAD -0.3009
-4.5532 BAG -0.2801
-4.5532 BAKE -0.3009
-4.5532 BALANCE -0.2986
-4.2521 BALL -0.2779
-4.5532 BALLETS -0.3004
-3.7081 BALLS -0.2991
-3.7081 BARB -0.3009
-4.5532 BARBECUE -0.3010
-4.5532 BARGAINS -0.3002
-4.5532 BARK -0.2801
-3.7081 BAROMETRIC -0.3009
-4.5532 BASE -0.2988
-3.7081 BASED -0.2998
-3.7081 BASKETBALL -0.3006
-4.5532 BAY -0.2988
-2.6137 BE -0.2636
-3.7081 BEACH -0.3009
-4.5532 BEAT -0.2987
-3.6501 BEAUTIFUL -0.2801
-4.0761 BECAUSE -0.2977
-3.6501 BECOME -0.3009
-4.5532 BECOMES -0.3010
-4.5532 BED -0.3009
-3.6501 BEDROOM -0.3007
-4.5532 BEDROOMS -0.2801
-3.7081 BEEN -0.3008
-4.5532 BEERS -0.3000
-3.1730 BEFORE -0.2971
-3.6501 BEG -0.2984
-3.5532 BEGAN -0.2967
-3.7081 BEGGAR -0.2801
-4.5532 BEGINNING -0.2801
-4.2521 BEHAVIOR -0.2975
-4.5532 BEHIND -0.3003
-3.9511 BEING -0.3001
-4.2521 BELIEVE -0.2968
-4.5532 BELLHOPS -0.2801
-4.2521 BELOW -0.2801
-4.5532 BENEATH -0.2937
-4.5532 BENEFIT -0.3010
-4.5532 BENEFITS -0.2801
-4.5532 BEREFT -0.2801
-4.5532 BESIDE -0.3010
-3.3227 BEST -0.2943
-4.0761 BETTER -0.3003
-4.0761 BETWEEN -0.2937
-4.5532 BEVERAGES -0.2801
-4.2521 BEYOND -0.2801
-4.5532 BIBLIOGRAPHIES -0.2989
-3.2310 BIG -0.3008
-4.5532 BILL -0.3006
-4.5532 BIRACIAL -0.3009
-3.7081 BIRTH -0.3009
-4.5532 BIT -0.2988
-3.5989 BLACK -0.3009
-4.5532 BLAME -0.3003
-4.5532 BLANK -0.2801
-4.5532 BLASPHEMOUS -0.3010
-3.7081 BLEACHERS -0.2801
-4.5532 BLEW -0.3003
-4.5532 BLINDNESS -0.3010
-4.5532 BLITZ -0.3004
-3.7081 BLOCK -0.3009
-3.7081 BLOUSES -0.2801
-4.5532 BLOW -0.2801
-4.5532 BLUFFS -0.3010
-4.5532 BLUNTLY -0.3000
-4.5532 BOATS -0.3009
-3.7081 BOB -0.3009
-4.5532 BODY -0.3010
-3.7081 BOG -0.3009
-4.5532 BOILING -0.3009
-3.5989 BONES -0.2989
-3.7081 BONFIRE -0.2801
-4.5532 BOOK -0.2996
-4.5532 BOOKS -0.2997
-4.5532 BOOM -0.2972
-4.2521 BOOTS -0.2992
-3.7081 BORING -0.3009
-4.5532 BORROW -0.2985
-4.5532 BOSS -0.3010
-4.0761 BOTH -0.2985
-4.5532 BOTTLE -0.2801
-4.5532 BOUNDED -0.3006
-3.4740 BOWL -0.2693
-3.7081 BOX -0.3007
-3.5989 BOY -0.2799
-4.5532 BRAND -0.2988
-4.5532 BREAD -0.2801
-3.7081 BREAKDOWN -0.2988
-4.5532 BREAKING -0.3010
-4.5532 BREATH -0.2801
-4.5532 BREATHED -0.2991
-4.5532 BREATHLESSLY -0.2801
-4.5532 BREEZE -0.3009
-4.5532 BRICKS -0.2997
-4.5532 BRIDAL -0.3010
-4.5532 BRIDGE -0.3010
-4.5532 BRIDGES -0.3010
-4.2521 BRIEF -0.3010
-4.5532 BRIEFLY -0.3010
-3.7081 BRIGHT -0.3009
-4.0761 BRING -0.2961
-4.5532 BRINGS -0.3009
-4.5532 BROCCOLI -0.2989
-3.7081 BROCHURE -0.2996
-4.5532 BROIL -0.3006
-3.7081 BROKEN -0.2801
-4.5532 BROTHER -0.3009
-4.5532 BROUGHT -0.2987
-4.2521 BROWN -0.3009
-4.5532 BROWS -0.3009
-4.5532 BRUSH -0.3008
-4.5532 BUFF -0.2801
-3.7081 BUGLE -0.3009
-4.5532 BUILD -0.3010
-4.5532 BUILDERS -0.2801
-4.5532 BULGED -0.3010
-4.5532 BULLET -0.2985
-4.5532 BULLLIKE -0.3010
-3.7081 BUNGALOW -0.3000
-4.5532 BURN -0.2998
-3.7081 BURNED -0.3009
-4.5532 BURST -0.3010
-3.5532 BUSINESS -0.2795
-4.5532 BUSY -0.3010
-3.0347 BUT -0.2722
-3.7081 BUTCHER -0.3009
-4.5532 BUTTER -0.3010
-4.5532 BUTTONHOLES -0.2801
-4.5532 BUTTONS -0.3009
-3.1915 BUY -0.2992
-3.7081 BUYER -0.2801
-3.7081 BUYS -0.3009
-2.9621 BY -0.2646
-4.5532 CAFETERIA -0.3010
-3.7081 CALCIUM -0.3008
-3.6501 CALL -0.2977
-3.6501 CAME -0.2910
-4.5532 CAMERA -0.3010
-3.0217 CAN -0.2784
-3.7081 CANDY -0.3002
-4.5532 CANT -0.3010
-4.5532 CAPTAIN -0.3000
-4.5532 CAPTURED -0.2972
-4.5532 CARE -0.2988
-4.5532 CAREFUL -0.2988
-4.5532 CAREFULLY -0.3010
-3.7081 CAROL -0.3009
-3.7081 CARPET -0.3009
-4.5532 CARRIAGE -0.3010
-2.3253 CARRY -0.2948
-4.5532 CARRYING -0.2974
-4.5532 CARTILAGE -0.3010
-4.5532 CASE -0.2801
-4.2521 CASES -0.2795
-3.7081 CASHMERE -0.3009
-4.5532 CASUAL -0.3010
-3.7081 CATASTROPHIC -0.3009
-3.7081 CATS -0.3009
-4.5532 CATTLE -0.2801
-4.5532 CAULIFLOWER -0.2801
-3.7081 CAUSEWAY -0.3009
-4.5532 CENSORSHIP -0.2801
-4.5532 CENSUS -0.2801
-4.5532 CENTERING -0.2988
-4.5532 CENTRAL -0.3010
-3.7081 CENTRIFUGE -0.3009
-4.5532 CENTURIES -0.2967
-4.5532 CERAMIC -0.3010
-4.5532 CEREAL -0.3010
-4.2521 CERTAIN -0.3010
-4.5532 CERTAINLY -0.3010
-3.7081 CHABLIS -0.2801
-4.5532 CHAIR -0.2989
-3.7081 CHANGE -0.2801
-4.5532 CHANGED -0.2972
-3.7081 CHANGES -0.2801
-4.5532 CHARACTERS -0.2801
-3.6501 CHARGE -0.3008
-3.7081 CHARLIES -0.3009
-4.5532 CHART -0.3010
-4.5532 CHASTITY -0.2998
-3.6501 CHEAP -0.2800
-4.5532 CHECK -0.2986
-4.5532 CHEETAL -0.3010
-4.2521 CHEST -0.2801
-4.5532 CHICKEN -0.3007
-4.2521 CHIEF -0.3010
-4.0761 CHILD -0.2981
-3.3771 CHILDREN -0.2987
-4.5532 CHILLS -0.2989
-4.5532 CHOICES -0.2988
-4.5532 CHOIR -0.3010
-4.5532 CHOOSE -0.3010
-3.7081 CHOSEN -0.3009
-4.5532 CIGARETTE -0.2801
-4.5532 CIRCLED -0.3003
-4.5532 CITY -0.3009
-4.5532 CLAIMED -0.2983
-4.5532 CLASHED -0.2972
-4.5532 CLASS -0.2801
-4.5532 CLASSBIASED -0.3010
-3.6501 CLASSROOMS -0.2991
-3.8542 CLAY -0.2794
-4.2521 CLEANED -0.3009
-3.4071 CLEANERS -0.2990
-4.5532 CLEANING -0.2983
-3.8542 CLEANS -0.3009
-4.5532 CLEAR -0.3010
-4.2521 CLEARLY -0.3010
-4.5532 CLERKS -0.3004
-4.5532 CLEVER -0.3010
-3.7081 CLIFF -0.3000
-4.5532 CLIMATES -0.2801
-4.5532 CLIMAX -0.3010
-4.5532 CLIMBED -0.2998
-4.2521 CLOSE -0.2967
-3.7081 CLOTH -0.2967
-4.5532 CLOUD -0.2801
-4.5532 CLOUDS -0.3010
-4.5532 CLUB -0.3010
-3.7081 CLUMSY -0.3009
-4.5532 COAT -0.2989
-4.5532 COFFERS -0.3010
-4.5532 COIL -0.2988
-3.6501 COINCIDED -0.3003
-4.5532 COINS -0.2997
-4.5532 COKE -0.3010
-4.5532 COLD -0.3010
-3.7081 COLESLAW -0.3008
-4.5532 COLLARED -0.3007
-4.5532 COLLEGES -0.3010
-4.5532 COLOR -0.2988
-3.7081 COLORED -0.2937
-4.5532 COLOSSAL -0.3010
-3.7081 COMBINE -0.2983
-3.5118 COME -0.3006
-3.6501 COMES -0.3003
-4.2521 COMING -0.2959
-4.5532 COMMERCIAL -0.3010
-3.5989 COMMON -0.3008
-4.5532 COMPANY -0.2801
-4.5532 COMPARABLE -0.3010
-4.5532 COMPETITORS -0.2801
-4.5532 COMPLETE -0.3010
-3.6501 COMPLETELY -0.3009
-4.5532 COMPOSITIONS -0.2988
-4.5532 COMPOST -0.3010
-4.5532 COMPULSORY -0.3010
-4.5532 CONDITION -0.2937
-4.5532 CONFERENCES -0.2801
-4.5532 CONFORMATIONAL -0.3010
-4.5532 CONFORMISTS -0.3010
-4.5532 CONJURED -0.3008
-4.5532 CONSIDERED -0.2967
-3.6501 CONSISTS -0.2988
-4.5532 CONSTRUCTION -0.2801
-4.5532 CONTACT -0.3003
-3.7081 CONTAGIOUS -0.3009
-4.2521 CONTAIN -0.3010
-3.7081 CONTAINS -0.3009
-4.5532 CONTEMPORARY -0.2801
-4.5532 CONTINUED -0.2998
-4.5532 CONTRARY -0.2967
-4.5532 CONTRIBUTIONS -0.2967
-4.5532 CONTRIBUTORY -0.3006
-3.7081 CONTROL -0.2801
-3.7081 CONTROLLED -0.2937
-3.6501 CONVENIENT -0.2991
-4.5532 CONVERTED -0.3010
-4.5532 CONVINCING -0.3010
-3.7081 COOK -0.3008
-4.5532 COOL -0.2801
-4.5532 COPRA -0.3009
-4.5532 CORDIAL -0.3010
-3.6501 CORDUROY -0.3008
-4.5532 CORN -0.3010
-3.7081 CORNERED -0.3003
-3.7081 CORY -0.2989
-4.5532 COSMETICS -0.2801
-4.2521 COST -0.2967
-3.7081 COSTUME -0.3009
-4.5532 COSTUMES -0.2989
-4.5532 COTTON -0.3010
-3.7081 COULD -0.2715
-4.5532 COULDNT -0.3010
-4.5532 COUNTIES -0.3009
-4.5532 COUNTRY -0.3004
-3.7081 COUNTRYSIDE -0.2801
-4.5532 COURTYARD -0.2996
-4.5532 COVERAGE -0.2988
-4.5532 COVERS -0.2974
-4.5532 COY -0.3010
-3.7081 CRANBERRY -0.3009
-3.7081 CRAYONS -0.2801
-4.5532 CRAZY -0.3010
-3.6501 CREAM -0.2975
-4.5532 CREATE -0.3009
-4.5532 CREEPING -0.3010
-4.5532 CREPT -0.3010
-4.5532 CRESTFALLEN -0.3002
-4.5532 CROPS -0.2989
-4.5532 CROSSINGS -0.2801
-4.5532 CRUNCHED -0.3006
-4.5532 CRUSHED -0.3010
-4.5532 CRYSTALLINE -0.3010
-4.5532 CUPS -0.2801
-4.5532 CURIOSITY -0.2801
-4.5532 CURIOUS -0.3008
-4.5532 CUSTODY -0.3003
-3.7081 CUSTOMER -0.3009
-3.7081 CUTBACKS -0.3009
-4.5532 CUTS -0.2989
-4.2521 CUTTING -0.3008
-4.5532 DAD -0.3008
-3.7081 DANCE -0.2989
-4.5532 DANCES -0.3010
-4.5532 DANGEROUS -0.3010
-4.5532 DANGERS -0.3006
-3.7081 DAPHNES -0.3009
-2.3202 DARK -0.2989
-4.5532 DASH -0.2988
-4.5532 DATA -0.2997
-4.5532 DATE -0.2937
-4.5532 DAWN -0.2997
-3.3227 DAY -0.2795
-4.2521 DAYS -0.2799
-4.2521 DEAL -0.2778
-4.5532 DEANS -0.3006
-4.2521 DEATH -0.2761
-4.5532 DECAYING -0.3010
-4.5532 DECAYS -0.3010
-3.7081 DECEMBER -0.2989
-4.5532 DECIDE -0.3008
-4.5532 DECISIONS -0.2801
-4.5532 DECISIVE -0.2801
-4.5532 DECK -0.2801
-4.5532 DECLARED -0.2801
-3.7081 DECORATE -0.3008
-4.5532 DECORATED -0.2801
-4.5532 DECORATIVE -0.3010
-4.5532 DEDUCT -0.3010
-4.5532 DEEP -0.3010
-4.5532 DEEPLY -0.3010
-4.5532 DEER -0.3003
-4.5532 DEFENDED -0.3002
-4.5532 DEFENSIVE -0.3010
-4.5532 DEFINITE -0.2801
-4.2521 DEGREE -0.2988
-4.5532 DELIGHT -0.2937
-4.5532 DEMAND -0.2991
-4.5532 DEMANDS -0.2988
-3.7081 DEPICTS -0.2937
-4.5532 DEPLETION -0.2801
-4.5532 DEPRECIATION -0.2989
-4.5532 DEPRIVE -0.3002
-4.5532 DERELICTION -0.2801
-4.5532 DESCRIBED -0.3002
-4.5532 DESEGREGATION -0.3010
-4.5532 DESIGN -0.3010
-4.5532 DESSERTS -0.3009
-3.7081 DESTROY -0.3008
-4.5532 DESTROYING -0.2985
-4.2521 DETAILED -0.3009
-4.5532 DETERMINED -0.2967
-4.5532 DEVELOP -0.3010
-3.6501 DEVELOPMENT -0.2790
-4.5532 DEVICE -0.3010
-4.5532 DEVOUR -0.3009
-3.7081 DEW -0.2998
-4.5532 DIAGNOSED -0.3006
-3.7081 DIAGRAM -0.3008
-4.5532 DICE -0.2801
-4.5532 DICTIONARY -0.2996
-3.2744 DID -0.2651
-3.9511 DIDNT -0.2994
-3.9511 DIE -0.2957
-4.5532 DIED -0.2998
-4.2521 DIFFERENT -0.3010
-4.5532 DIFFERENTIATE -0.2974
-3.6501 DIG -0.2993
-4.5532 DIGNITY -0.2997
-4.5532 DIM -0.3010
-3.7081 DIME -0.3004
-4.5532 DIMES -0.2989
-4.5532 DINNER -0.2801
-4.5532 DIRT -0.3009
-3.4071 DIRTY -0.3008
-4.5532 DISAPPOINTED -0.2937
-4.5532 DISCIPLINE -0.3009
-3.7081 DISEASES -0.2801
-3.7081 DISHES -0.2801
-4.5532 DISK -0.2801
-3.7081 DISLIKES -0.3009
-4.5532 DISPEL -0.3010
-4.5532 DISPLAY -0.2972
-4.5532 DISPLAYED -0.3002
-4.5532 DISREPAIR -0.2801
-3.7081 DISTANCE -0.2801
-4.5532 DISTASTE -0.2801
-3.7081 DISTRIBUTED -0.2801
-4.5532 DISTRICTS -0.2801
-4.5532 DISTURB -0.3003
-4.5532 DIVE -0.3010
-4.2521 DIVERSITY -0.2988
-4.5532 DIVORCED -0.3009
-4.5532 DIVORCEE -0.3003
-3.2108 DO -0.2826
-3.8542 DOES -0.2991
-4.2521 DOESNT -0.3009
-4.0761 DOGS -0.2963
-4.5532 DOME -0.3009
-4.5532 DOMINANT -0.3010
-3.9511 DONE -0.2755
-2.2979 DONT -0.2984
-4.5532 DORMITORIES -0.2801
-4.5532 DOSES -0.2996
-3.7750 DOWN -0.2938
-4.5532 DOWNPOUR -0.2801
-4.5532 DOWNSTAIRS -0.3010
-4.5532 DOWNWARD -0.2989
-4.5532 DOZEN -0.3010
-4.5532 DRAIN -0.3008
-4.5532 DRAW -0.3010
-4.5532 DREAMS -0.2988
-4.5532 DRESSY -0.3006
-4.5532 DREW -0.2974
-4.5532 DRIFTED -0.2972
-4.5532 DRINKERS -0.2801
-4.5532 DRIVE -0.3009
-3.7081 DRIVING -0.3009
-3.7081 DROP -0.3009
-4.5532 DROUGHT -0.2801
-4.5532 DROVE -0.2989
-4.2521 DRUG -0.2786
-4.5532 DRUNK -0.2997
-4.2521 DRY -0.3002
-4.5532 DRYING -0.3010
-4.5532 DULL -0.3010
-4.5532 DURING -0.3008
-4.5532 DWELL -0.2998
-4.5532 DYING -0.2998
-3.1552 EACH -0.2990
-3.7081 EARN -0.3007
-3.7081 EARS -0.2801
-4.5532 EARTHLY -0.3010
-4.2521 EASY -0.2801
-3.9511 EAT -0.2926
-3.7081 EATING -0.3009
-3.6501 ECONOMIC -0.3008
-4.5532 EDGE -0.2996
-4.5532 EDUCATIONAL -0.3010
-4.2521 EFFECTS -0.2790
-4.5532 EFFICIENCY -0.2996
-4.5532 EFFICIENT -0.2989
-4.5532 EGGSIZED -0.3010
-4.5532 EGO -0.2801
-4.2521 EIGHT -0.2801
-4.2521 EITHER -0.2973
-3.7081 ELDERLY -0.3008
-4.5532 ELECTION -0.2998
-4.5532 ELECTRIC -0.3010
-4.2521 ELECTRICAL -0.3009
-4.5532 ELECTRICITY -0.2989
-4.2521 ELECTRON -0.3010
-4.5532 ELECTRONIC -0.3010
-4.5532 ELECTROSTATIC -0.3007
-3.7081 ELEGANT -0.2801
-4.5532 ELEMENTS -0.2988
-4.2521 ELSE -0.3004
-4.5532 ELSEWHERE -0.2801
-3.7081 EMBLEM -0.3009
-4.5532 EMBODIMENT -0.2988
-4.5532 EMOTION -0.2801
-4.5532 EMOTIONAL -0.3010
-4.5532 EMPHASIS -0.2998
-4.5532 EMPHASIZE -0.2937
-4.5532 EMPLOYEE -0.3010
-4.5532 EMPLOYEES -0.2801
-3.7081 EMPLOYMENT -0.2801
-4.5532 EMPTY -0.3010
-4.5532 ENABLING -0.3010
-4.5532 ENACT -0.3003
-4.5532 ENCOURAGE -0.3008
-4.5532 ENDEAVORED -0.2967
-3.7081 ENDED -0.3009
-4.5532 ENDOSPERM -0.2988
-3.7081 ENDURANCE -0.2801
-4.2521 ENEMY -0.2996
-3.6501 ENJOY -0.3002
-4.5532 ENLIGHTENMENT -0.2801
-4.5532 ENORMOUS -0.2801
-3.4740 ENOUGH -0.2734
-3.7081 ENTERTAINING -0.3009
-4.5532 ENTIRE -0.3010
-4.5532 ENTITY -0.3008
-4.5532 ENTROPY -0.2801
-4.5532 ENVELOPE -0.3010
-4.5532 ENZYME -0.3010
-4.5532 EPISODE -0.2996
-4.5532 EROTIC -0.3010
-3.7081 ERRORS -0.2801
-4.5532 ESCAPE -0.3008
-4.2521 ESPECIALLY -0.2937
-4.5532 ESTABLISH -0.3007
-4.5532 ESTIMATE -0.2988
-4.5532 ETERNITY -0.2996
-4.5532 EVASIVE -0.3010
-3.4740 EVEN -0.2967
-4.2521 EVENTS -0.3005
-4.5532 EVENTUALLY -0.3010
-4.5532 EVER -0.3008
-3.3771 EVERY -0.3008
-4.5532 EVERYONE -0.2996
-4.5532 EVERYTHING -0.2998
-4.5532 EVOLVE -0.2801
-4.5532 EXACTLY -0.3010
-3.7081 EXAM -0.3009
-4.5532 EXBOYFRIEND -0.3010
-4.5532 EXCELLENT -0.3010
-4.2521 EXCESS -0.3010
-4.5532 EXCITED -0.2989
-4.5532 EXCITING -0.3009
-3.7081 EXCLUDED -0.2801
-4.2521 EXERCISE -0.2799
-4.5532 EXHUSBAND -0.2801
-4.5532 EXIST -0.3002
-4.2521 EXISTED -0.2798
-4.5532 EXISTING -0.3010
-4.5532 EXPECT -0.2937
-4.5532 EXPECTATIONS -0.2801
-3.6501 EXPECTED -0.2967
-3.6501 EXPENSE -0.2987
-3.7081 EXPENSIVE -0.3009
-4.0761 EXPERIENCE -0.2800
-4.5532 EXPERIMENTAL -0.3010
-4.5532 EXPERTS -0.3003
-4.5532 EXPLORING -0.3003
-4.5532 EXPOSED -0.2967
-3.7081 EXPOSURE -0.2967
-4.5532 EXPRESSION -0.2972
-4.5532 EXTENSIVE -0.3010
-4.5532 EXTENT -0.3006
-3.6501 EXTRA -0.3006
-4.5532 EXTREMELY -0.3010
-4.5532 EXULTANTLY -0.3010
-4.5532 EYEBROW -0.3010
-3.7750 EYES -0.2957
-4.5532 FABRIC -0.2974
-4.5532 FABRICS -0.2801
-4.0761 FACE -0.2791
-4.2521 FACT -0.3007
-4.5532 FACTIONS -0.3010
-4.5532 FACTORS -0.3010
-4.5532 FACULTY -0.2801
-4.5532 FAIL -0.2801
-4.5532 FAINT -0.3010
-4.2521 FAIR -0.2801
-4.5532 FAIRLY -0.3010
-3.7081 FAIRY -0.3009
-4.5532 FALL -0.3010
-4.5532 FALLEN -0.3009
-4.2521 FALLOUT -0.3010
-4.5532 FAMILIAR -0.3010
-4.5532 FAMILIARITY -0.3008
-4.2521 FAMILY -0.3010
-4.5532 FAMOUS -0.3010
-4.5532 FAN -0.2801
-4.5532 FANCY -0.3010
-4.5532 FAR -0.3010
-4.5532 FARM -0.2996
-4.5532 FARMERS -0.3010
-4.5532 FARMHOUSES -0.3010
-3.7081 FARMYARD -0.2801
-3.7081 FASHION -0.3003
-4.5532 FAST -0.2989
-4.5532 FASTCLOSING -0.3009
-4.5532 FASTOPENING -0.3009
-4.5532 FAT -0.3010
-4.5532 FATHER -0.3010
-4.5532 FATHERS -0.3010
-4.5532 FATIGUE -0.3010
-4.5532 FAULT -0.2801
-3.7081 FAVOR -0.2988
-4.5532 FAVORABLE -0.3010
-4.5532 FEARED -0.2801
-4.5532 FEARS -0.2989
-4.2521 FEED -0.2801
-3.9511 FEEL -0.3005
-4.5532 FEELING -0.3009
-4.5532 FEELS -0.2984
-3.8542 FEET -0.2797
-3.6501 FELL -0.2969
-4.5532 FELLOWSHIP -0.2801
-3.5989 FELT -0.2964
-4.5532 FEMALE -0.3010
-4.5532 FENCES -0.2989
-4.5532 FERMENTED -0.3010
-4.5532 FERRIES -0.2997
-4.5532 FEVER -0.2801
-3.5532 FEW -0.2983
-4.5532 FIELD -0.3010
-4.5532 FIERCEST -0.2988
-4.5532 FIFTEEN -0.3010
-3.7081 FILE -0.3009
-4.5532 FILTERING -0.3009
-4.5532 FINAL -0.3010
-4.5532 FIND -0.2985
-4.5532 FINE -0.3010
-4.5532 FIRE -0.3009
-4.5532 FIREBUG -0.3010
-4.5532 FIRECRACKERS -0.2801
-4.5532 FIRING -0.2997
-4.5532 FIRMS -0.2997
-3.6501 FIRST -0.2798
-3.7081 FISH -0.3009
-4.5532 FISTS -0.3010
-4.5532 FITFULLY -0.2984
-3.6501 FIVE -0.3009
-4.5532 FLAME -0.3008
-4.5532 FLASH -0.3009
-3.7081 FLEECY -0.3009
-4.5532 FLEXIBILITY -0.3002
-4.5532 FLIES -0.3010
-3.7081 FLIMSY -0.2801
-4.2521 FLOOD -0.2796
-4.5532 FLOURISH -0.3010
-4.5532 FLOWER -0.2801
-4.5532 FLOWERS -0.3000
-4.5532 FLU -0.3009
-4.5532 FLUENT -0.2801
-4.5532 FOAM -0.3002
-3.7081 FOG -0.3009
-4.2521 FOIL -0.2960
-4.5532 FOLD -0.3009
-4.5532 FOLDED -0.3010
-4.5532 FOLLOW -0.2801
-3.9511 FOLLOWED -0.2995
-4.5532 FOLLOWING -0.2937
-4.5532 FOLLOWS -0.2801
-4.2521 FOOL -0.3000
-4.5532 FOOLISH -0.3008
-4.5532 FOOT -0.2801
-2.3464 FOR -0.2727
-4.5532 FORCE -0.2967
-3.5532 FORCES -0.2786
-4.5532 FORECASTS -0.3010
-4.5532 FOREHEAD -0.2989
-4.5532 FORGED -0.3003
-4.5532 FORGET -0.3008
-4.5532 FORGIVENESS -0.2801
-3.6501 FORGOT -0.2756
-4.2521 FORM -0.2985
-4.5532 FORMALITY -0.3000
-4.5532 FORMATION -0.2988
-3.7081 FORMS -0.2972
-3.7081 FORMULA -0.2801
-3.7081 FORTUNE -0.3009
-4.5532 FORWARD -0.2801
-4.5532 FOUL -0.3006
-4.2521 FRAME -0.2991
-4.2521 FRAMEWORK -0.2995
-3.7081 FRANTICALLY -0.2998
-4.5532 FREED -0.3004
-4.5532 FREEDOM -0.2988
-3.7081 FREEWAY -0.3009
-3.7081 FRESH -0.3009
-2.8542 FROM -0.2667
-4.2521 FRONT -0.2778
-3.7081 FROST -0.2801
-4.2521 FRUIT -0.2987
-4.5532 FULFILLMENT -0.2801
-4.5532 FULLY -0.2991
-4.5532 FUNCTIONAL -0.3010
-4.5532 FUNDS -0.2967
-4.5532 FUNNEL -0.2801
-3.5989 FURTHER -0.3003
-4.2521 FUSS -0.3009
-4.5532 GALLANT -0.3010
-3.7081 GALLON -0.2988
-3.7081 GALOSHES -0.2997
-4.5532 GALVANIC -0.2983
-3.7081 GARAGE -0.2801
-3.7081 GARBAGE -0.2801
-3.6501 GAS -0.2801
-4.5532 GATES -0.2801
-4.5532 GATEWAY -0.2801
-4.0761 GAVE -0.2898
-4.5532 GAY -0.2801
-3.7081 GEESE -0.2801
-4.2521 GENERAL -0.2792
-3.6501 GENERALS -0.2761
-3.7081 GENEROUS -0.3008
-4.5532 GENTLE -0.3003
-4.2521 GENTLEMAN -0.2801
-3.7750 GET -0.2934
-3.7081 GETS -0.3008
-4.2521 GETTING -0.2937
-4.5532 GHOST -0.3010
-4.5532 GHOSTLIKE -0.3010
-4.5532 GIFTED -0.3003
-4.5532 GIRL -0.3010
-4.0761 GIVE -0.2983
-4.5532 GIVEN -0.2801
-3.7081 GIVES -0.3009
-4.5532 GLAZING -0.2989
-4.5532 GLEAM -0.2989
-4.5532 GLEECLUB -0.2989
-3.7081 GLISTENED -0.2972
-4.5532 GLOOM -0.2801
-4.5532 GLORIES -0.2988
-4.5532 GLORIFIED -0.3002
-3.7081 GLOVES -0.2967
-4.5532 GLOW -0.2988
-4.5532 GLOWED -0.3010
-3.5532 GO -0.2974
-4.2521 GOALS -0.2977
-3.7081 GOAT -0.3009
-4.5532 GOES -0.2985
-4.5532 GOING -0.3010
-4.5532 GONE -0.2989
-3.2521 GOOD -0.2738
-4.5532 GOODNEWS -0.3008
-4.5532 GOODSIZE -0.3009
-3.7081 GOT -0.2938
-4.5532 GOVERNING -0.3010
-3.6501 GOVERNMENT -0.3009
-4.5532 GOVERNOR -0.2801
-4.5532 GRAB -0.3010
-3.7081 GRADES -0.3009
-4.5532 GRAINS -0.3007
-3.7081 GRANDMOTHER -0.3009
-4.5532 GRANTS -0.2988
-4.5532 GRAZING -0.3010
-2.3279 GREASY -0.2990
-3.9511 GREAT -0.3009
-4.5532 GREATER -0.3010
-4.5532 GREETED -0.3003
-3.4071 GREG -0.2966
-4.5532 GRILL -0.3010
-4.5532 GRIN -0.2988
-4.5532 GRINNED -0.3002
-4.5532 GROUP -0.2996
-4.5532 GROWNUPS -0.3010
-3.6501 GROWS -0.2995
-4.5532 GROWTH -0.2988
-3.6501 GUARD -0.2989
-3.7081 GUESS -0.2937
-4.5532 GUILTY -0.3010
-4.5532 GUN -0.3010
-3.7081 GUNMAN -0.3009
-3.7081 GUNPOINT -0.2991
-4.5532 GUNS -0.3004
-2.2907 HAD -0.2846
-4.5532 HAGGARD -0.2989
-4.5532 HAIR -0.3009
-4.5532 HALF -0.3010
-4.5532 HALFCITY -0.2996
-3.7081 HALLOWEEN -0.2801
-4.5532 HALVES -0.2998
-3.5532 HAND -0.2797
-4.5532 HANDY -0.2801
-4.2521 HAPPENING -0.2991
-4.5532 HAPPIER -0.2972
-4.5532 HAPPY -0.3010
-3.5532 HARD -0.2755
-3.7081 HARMONIZE -0.3009
-3.6501 HAS -0.2798
-4.5532 HATE -0.2937
-4.5532 HATED -0.3009
-3.7081 HATS -0.2997
-3.1552 HAVE -0.2914
-3.7081 HAVENT -0.3009
-4.5532 HAVING -0.2974
-4.5532 HAY -0.2989
-2.5198 HE -0.2913
-3.7081 HEALTHIER -0.2967
-4.5532 HEAR -0.2974
-4.2521 HEAT -0.2801
-4.5532 HEATER -0.2996
-3.7081 HEATING -0.3009
-4.5532 HEAVE -0.2998
-4.5532 HEAVENS -0.3010
-4.2521 HEAVY -0.3010
-4.5532 HECK -0.2988
-4.5532 HED -0.3010
-4.2521 HEELS -0.2997
-4.5532 HELD -0.3003
-4.2521 HELL -0.3000
-3.5532 HELP -0.2955
-4.5532 HEM -0.3010
-4.2521 HEN -0.3000
-4.5532 HENCEFORTH -0.2801
-4.5532 HENRY -0.3010
-2.7538 HER -0.2746
-3.4071 HERE -0.2724
-4.5532 HERES -0.3009
-4.5532 HERO -0.2801
-4.5532 HEROES -0.3010
-4.5532 HEROIC -0.3010
-4.2521 HERSELF -0.2999
-3.7081 HIERARCHIES -0.2801
-3.5532 HIGH -0.3001
-3.6501 HIGHER -0.2932
-3.7081 HIGHWAY -0.2989
-4.5532 HILLSIDE -0.3006
-3.4740 HIM -0.2704
-3.7750 HIMSELF -0.2751
-2.7608 HIS -0.2951
-4.5532 HISTORIANS -0.3007
-3.9511 HISTORY -0.2926
-4.5532 HOLD -0.3006
-3.7081 HOLIDAYS -0.2801
-3.9511 HOME -0.2794
-4.5532 HONEST -0.3010
-4.2521 HONEY -0.2800
-3.7081 HOOK -0.2801
-4.5532 HOPELESS -0.2801
-4.0761 HORIZON -0.2724
-4.5532 HORSES -0.2989
-4.5532 HOSPITALS -0.2801
-3.7081 HOSTAGES -0.3004
-4.2521 HOT -0.3010
-4.5532 HOUR -0.3010
-3.3771 HOURS -0.2801
-3.6501 HOUSE -0.2958
-4.5532 HOUSING -0.2937
-3.4071 HOW -0.2778
-4.0761 HOWEVER -0.2937
-4.5532 HOWS -0.3002
-4.5532 HUB -0.3000
-4.5532 HUGE -0.3010
-4.5532 HUGGED -0.2937
-4.2521 HUMAN -0.3010
-4.5532 HUNDRED -0.3008
-4.5532 HUNG -0.3010
-4.5532 HURRY -0.3010
-3.7081 HURTS -0.3006
-4.5532 HUSBANDRY -0.3000
-4.5532 HUSKY -0.3009
-3.1060 I -0.3007
-4.5532 ICY -0.3010
-3.4071 ID -0.3008
-4.2521 IDEA -0.2988
-4.5532 IDEAL -0.3010
-4.2521 IDEAS -0.2781
-4.5532 IDENTIFIABLE -0.3010
-4.5532 IDENTIFIED -0.3002
-4.5532 IDENTIFY -0.3010
-4.5532 IDIOSYNCRASIES -0.2801
-3.7081 IDLY -0.3009
-2.9511 IF -0.2843
-4.5532 IGNORED -0.2937
-3.7081 IGUANAS -0.2989
-4.5532 ILLNESS -0.2801
-4.5532 ILLNESSES -0.2989
-4.5532 ILLUMINATED -0.2801
-4.5532 ILLUMINATING -0.2801
-4.5532 ILLUSIONS -0.2801
-4.5532 IMITATE -0.2937
-3.9511 IMPORTANT -0.2756
-4.5532 IMPOSES -0.2974
-4.2521 IMPROVING -0.3010
-4.5532 IMPULSES -0.2801
-2.0576 IN -0.2542
-4.5532 INCLUDE -0.3009
-3.6501 INCOME -0.3001
-4.5532 INCORPORATED -0.2972
-4.2521 INCREASED -0.3005
-3.7081 INCREASES -0.3009
-4.5532 INCREASING -0.3010
-4.2521 INDEED -0.3002
-4.5532 INDEFINABLE -0.3010
-4.5532 INDICATES -0.2974
-4.5532 INDULGE -0.2972
-4.2521 INDUSTRY -0.3010
-4.5532 INEVITABLE -0.2801
-4.5532 INEXACT -0.2801
-4.5532 INEXHAUSTIBLE -0.3009
-4.5532 INFANCY -0.2989
-4.5532 INFIELD -0.2967
-3.7081 INFORMATIVE -0.2991
-4.5532 INFORMED -0.3009
-3.7081 INGREDIENTS -0.2972
-4.5532 INHIBIT -0.2937
-4.5532 INSTANT -0.2937
-4.5532 INSTINCT -0.2967
-4.5532 INSTRUCTIONS -0.2991
-4.5532 INSTRUMENT -0.2988
-4.5532 INSULATOR -0.2996
-4.5532 INTEGRATED -0.3003
-3.7081 INTELLIGENCE -0.2996
-4.5532 INTEREST -0.2972
-3.5118 INTO -0.2891
-4.5532 INTRODUCED -0.2972
-4.5532 INVADE -0.3009
-4.5532 INVESTIGATION -0.2801
-4.5532 INVESTIGATIONS -0.2801
-4.5532 INVIOLATE -0.3010
-4.5532 INVOKED -0.3010
-4.5532 IRONIC -0.3010
-4.5532 IRRADIATION -0.3010
-4.5532 IRRESPONSIBLE -0.2801
-2.4887 IS -0.2703
-4.5532 ISSUE -0.2997
-2.7403 IT -0.2549
-3.7081 ITEM -0.2998
-3.6501 ITEMS -0.2801
-3.2744 ITS -0.2970
-4.0761 ITSELF -0.2763
-4.5532 IVORY -0.2996
-4.5532 JACKASS -0.3010
-4.5532 JADED -0.3010
-3.7081 JANE -0.3006
-3.7081 JANUARY -0.2997
-4.5532 JAR -0.3010
-4.5532 JARS -0.2997
-3.7081 JEFF -0.3009
-3.7081 JENNIFERS -0.3009
-4.5532 JET -0.2801
-4.5532 JEWELBRIGHT -0.3009
-3.9511 JOB -0.2767
-3.7081 JOHN -0.3009
-4.5532 JOIN -0.3008
-4.5532 JOINING -0.3010
-4.5532 JOKING -0.2801
-3.7081 JOURNAL -0.2801
-4.5532 JUNIOR -0.3010
-3.7750 JUST -0.2761
-4.5532 JUSTIFICATION -0.3006
-4.5532 KEEP -0.2937
-3.7081 KEPT -0.3003
-4.5532 KERNELS -0.2997
-4.5532 KEY -0.3010
-4.5532 KEYS -0.3010
-3.7081 KIDNAPPERS -0.2801
-4.5532 KIDS -0.2989
-4.2521 KIND -0.2988
-3.7081 KINDERGARTEN -0.3008
-4.5532 KNACK -0.2991
-4.2521 KNEW -0.2984
-4.5532 KNITTED -0.3010
-4.2521 KNOW -0.2799
-4.5532 KNOWINGLY -0.2801
-4.5532 KNOWN -0.3002
-4.5532 KNOWS -0.3010
-4.5532 LABOR -0.2996
-4.5532 LABORATORY -0.3010
-4.5532 LACK -0.2988
-4.5532 LAD -0.2988
-4.5532 LADYLIKE -0.3010
-3.7081 LAKE -0.2801
-4.2521 LAMP -0.3010
-4.5532 LAMPS -0.2937
-3.7081 LARGE -0.3009
-4.5532 LARGER -0.3010
-4.5532 LASHED -0.2801
-4.2521 LAST -0.2779
-4.5532 LATENT -0.3007
-4.2521 LATER -0.2724
-4.5532 LATTER -0.3010
-3.6501 LAUGH -0.2988
-4.5532 LAUGHED -0.3003
-4.5532 LAUGHING -0.2801
-4.5532 LAVISHLY -0.2801
-4.5532 LAW -0.3010
-3.7081 LAWYERS -0.3008
-4.5532 LAY -0.3009
-4.5532 LAYOFFS -0.2801
-4.5532 LEAD -0.2801
-4.5532 LEADER -0.2989
-4.2521 LEADERSHIP -0.2801
-3.7081 LEAP -0.3009
-3.7081 LEARN -0.2996
-4.5532 LEAST -0.3010
-4.5532 LEATHER -0.2801
-3.5989 LEAVES -0.2912
-4.5532 LEAVING -0.3010
-4.5532 LEDGER -0.2997
-3.7081 LEEWAY -0.3009
-4.2521 LEFT -0.3001
-4.5532 LEGGED -0.3010
-4.5532 LEGISLATION -0.2801
-4.5532 LEGS -0.3010
-4.5532 LEISURE -0.2801
-4.5532 LENTILS -0.2972
-4.0761 LESS -0.3007
-3.7081 LESSONS -0.2998
-4.5532 LEST -0.3003
-3.7750 LET -0.2958
-4.5532 LETS -0.3000
-4.5532 LETTERS -0.3010
-4.5532 LIBERALLED -0.3010
-4.0761 LID -0.2768
-4.5532 LIDS -0.3010
-3.7081 LIE -0.2801
-3.8542 LIFE -0.2796
-4.5532 LIGHT -0.3010
-4.2521 LIGHTED -0.3008
-4.5532 LIGHTLY -0.2801
-4.5532 LIGHTS -0.3010
-2.3028 LIKE -0.2707
-4.5532 LIKELY -0.2967
-3.7081 LILY -0.2801
-4.5532 LINE -0.3010
-4.0761 LINES -0.2756
-4.5532 LIP -0.2988
-4.5532 LIST -0.2801
-4.5532 LITERARY -0.3010
-4.0761 LITERATURE -0.2997
-4.5532 LITTER -0.3010
-3.8542 LITTLE -0.3004
-4.2521 LIVED -0.2946
-4.2521 LIVESTOCK -0.2801
-3.3771 LIVING -0.2760
-4.5532 LOADED -0.2974
-4.5532 LOCATION -0.2967
-3.5989 LONG -0.2946
-4.0761 LONGER -0.2801
-4.5532 LONGOVERDUE -0.3010
-4.5532 LONGRANGE -0.3010
-3.8542 LOOK -0.2976
-3.9511 LOOKED -0.3000
-3.7081 LOOKING -0.2991
-4.5532 LOOMS -0.2998
-4.5532 LOOSE -0.3010
-3.7081 LORIS -0.3009
-4.5532 LOSE -0.3003
-3.7081 LOSS -0.3009
-4.5532 LOST -0.2801
-4.0761 LOT -0.2966
-4.5532 LOUDEST -0.2801
-3.3491 LOVE -0.2961
-4.5532 LOVIE -0.3000
-4.5532 LOVING -0.3010
-3.6501 LOWER -0.3007
-4.5532 LOWERED -0.2972
-4.5532 LUCK -0.3008
-3.7081 LUNCH -0.2801
-4.5532 LUNCHROOM -0.3010
-4.5532 LUSH -0.3010
-3.7081 LUXURIOUS -0.3009
-4.5532 LUXURY -0.2801
-4.5532 MACABRE -0.2801
-4.2521 MACHINE -0.3010
-3.5118 MADE -0.2979
-4.2521 MAGNETIC -0.3004
-4.2521 MAGNETISM -0.2779
-4.5532 MAGNIFICENTLY -0.3010
-4.5532 MAIN -0.3010
-4.5532 MAINTAIN -0.2801
-4.5532 MAJOR -0.3010
-3.5532 MAKE -0.2855
-3.3771 MAKES -0.2985
-3.5989 MAN -0.2728
-4.5532 MANIFEST -0.3010
-4.5532 MANNERISM -0.2801
-4.5532 MANUFACTURERS -0.2801
-4.5532 MANURE -0.3010
-3.7081 MANY -0.3008
-4.5532 MANYBODIED -0.3010
-4.2521 MARK -0.2778
-3.7081 MARRIAGE -0.2801
-3.7081 MARVELOUSLY -0.2801
-4.5532 MASK -0.3004
-4.5532 MASKS -0.2989
-4.5532 MASONRY -0.2989
-3.7081 MASSAGE -0.2801
-3.7081 MATCHED -0.3003
-4.5532 MATERIAL -0.2996
-4.2521 MATERIALS -0.2801
-4.5532 MATHEMATICS -0.3010
-4.5532 MAXIMIZE -0.3008
-2.9850 MAY -0.2986
-4.2521 MAYBE -0.2997
-2.2676 ME -0.2530
-3.7081 MEAN -0.2937
-4.5532 MEANING -0.3006
-4.5532 MEANNESS -0.2989
-4.2521 MEANS -0.3010
-4.2521 MEAT -0.3009
-4.2521 MEATS -0.2937
-3.7081 MEDICAL -0.3009
-4.5532 MEDICINE -0.2801
-3.7081 MEDIEVAL -0.3009
-4.0761 MEET -0.2924
-3.7081 MEETING -0.3003
-4.5532 MELODRAMATIC -0.2801
-4.5532 MEMO -0.2991
-4.5532 MEMORIZED -0.2937
-4.5532 MEN -0.3010
-4.5532 MENTAL -0.3010
-4.5532 MENTALITY -0.2988
-4.5532 MENTION -0.3009
-3.7081 MEOW -0.3008
-4.5532 MERCHANDISING -0.3010
-3.7081 MERGERS -0.2801
-4.5532 MERIT -0.3010
-4.5532 MESSAGE -0.2801
-4.2521 MET -0.2947
-4.5532 METAL -0.2801
-4.5532 METHOD -0.2801
-4.5532 METHODS -0.2988
-3.7081 MIAMI -0.2801
-3.7081 MICHAEL -0.3009
-4.5532 MIGHT -0.3000
-3.6501 MILITARY -0.3009
-3.5118 MILK -0.3007
-3.7081 MILLIONAIRES -0.2801
-4.5532 MIND -0.3010
-3.6501 MINE -0.2801
-4.5532 MINING -0.3010
-4.5532 MINISTER -0.3010
-4.5532 MINUTES -0.3010
-3.7081 MIRACULOUSLY -0.2801
-3.7081 MIRAGE -0.2801
-4.5532 MIRRORS -0.2937
-4.5532 MISBEHAVIOR -0.2801
-3.7081 MISQUOTE -0.3000
-4.5532 MOBILE -0.3010
-4.5532 MOCK -0.3010
-4.5532 MODELING -0.3010
-4.5532 MODERN -0.3010
-4.5532 MODERNIZING -0.2989
-4.2521 MOLD -0.2779
-3.7081 MOM -0.3009
-4.5532 MOMENTS -0.2988
-3.3227 MONEY -0.2734
-3.7081 MONTHS -0.2967
-4.5532 MOPPED -0.3010
-4.5532 MORAL -0.3010
-3.0908 MORE -0.2783
-4.5532 MOREOVER -0.3010
-3.4071 MORNING -0.2800
-4.5532 MORPHOPHONEMIC -0.3010
-4.5532 MORROW -0.2967
-4.5532 MOSS -0.2801
-3.5532 MOST -0.2986
-4.5532 MOTEL -0.3003
-4.0761 MOTHER -0.2977
-4.5532 MOTHERS -0.3010
-4.5532 MOTORISTS -0.3010
-4.5532 MOUNTING -0.2989
-4.5532 MOUTH -0.2989
-4.5532 MOUTHFUL -0.2988
-4.5532 MOVEMENT -0.2985
-4.5532 MOVING -0.3002
-4.5532 MR -0.3010
-3.5532 MUCH -0.3005
-4.5532 MUGS -0.3006
-3.7081 MURALS -0.2801
-4.5532 MURDER -0.3010
-4.5532 MUSCLE -0.3002
-3.7081 MUSCULAR -0.3009
-4.5532 MUSEUMS -0.2801
-3.7081 MUSICIANS -0.3009
-4.0761 MUST -0.3000
-4.5532 MUSTACHE -0.2801
-4.5532 MUTINEER -0.2801
-3.0217 MY -0.3002
-4.5532 MYSTERY -0.2967
-4.5532 NAKED -0.2801
-3.7081 NANCYS -0.2801
-4.5532 NATIONAL -0.3010
-4.2521 NATURE -0.2801
-3.6501 NEAR -0.2935
-4.5532 NEARBY -0.2801
-3.7081 NEAREST -0.3009
-4.5532 NEAT -0.3010
-3.9511 NECESSARY -0.2752
-3.5989 NEED -0.2957
-3.7081 NEEDED -0.3009
-3.7081 NEEDLEPOINT -0.3009
-3.7081 NEGLECT -0.2937
-4.5532 NEGOTIATIONS -0.2937
-4.5532 NESTED -0.2989
-3.9511 NEVER -0.3007
-3.5532 NEW -0.2944
-4.5532 NEWSPAPER -0.3010
-4.2521 NEXT -0.2935
-3.6501 NICE -0.3009
-4.5532 NICELY -0.2801
-3.7081 NIGHTLY -0.3009
-4.5532 NIGHTS -0.2988
-4.5532 NIHILISTIC -0.2801
-4.5532 NINE -0.3010
-3.1382 NO -0.2925
-4.0761 NOBODY -0.2972
-3.7081 NOISE -0.3009
-4.5532 NOISY -0.2801
-4.2521 NONCONTRIBUTORY -0.3010
-4.5532 NORMALLY -0.3010
-4.5532 NORMS -0.3010
-4.5532 NORTHERNERS -0.3010
-4.5532 NOSE -0.2998
-2.9621 NOT -0.2814
-4.5532 NOTE -0.2988
-4.5532 NOTED -0.3010
-3.7081 NOTEWORTHY -0.2801
-4.2521 NOTHING -0.2800
-3.7081 NOVEL -0.2996
-4.5532 NOVELTY -0.2801
-3.3771 NOW -0.2625
-4.5532 NOWADAYS -0.3006
-4.5532 NOWHERE -0.2801
-4.5532 NUCLEAR -0.3010
-4.0761 NUMBER -0.2988
-4.5532 NURSES -0.3010
-4.5532 NUT -0.3010
-4.5532 NUTRITION -0.3009
-4.5532 NYMPHOMANIACS -0.2998
-3.7081 OASIS -0.3000
-3.7081 OBEY -0.3009
-3.7081 OBJECTS -0.3009
-4.5532 OBSERVANCE -0.2937
-4.5532 OBSESSIONS -0.2988
-3.7081 OBTAIN -0.3009
-4.5532 OBVERSE -0.2988
-4.2521 OBVIOUS -0.3010
-4.5532 OBVIOUSLY -0.2937
-3.7081 OCCASIONALLY -0.3009
-4.5532 OCCUPIED -0.2801
-4.5532 OCCURRED -0.2989
-3.7081 OCEAN -0.2801
-4.5532 OCTILLION -0.3010
-4.5532 ODDS -0.3003
-2.2860 OF -0.2520
-3.8542 OFF -0.2733
-4.5532 OFFDUTY -0.3008
-4.5532 OFFERED -0.3003
-4.5532 OFFICE -0.3009
-4.5532 OFFICIALS -0.3010
-3.3227 OFTEN -0.2998
-4.2521 OH -0.2937
-3.3227 OIL -0.2772
-4.5532 OILS -0.2801
-2.3279 OILY -0.2990
-4.5532 OKAY -0.3008
-3.7750 OLD -0.3006
-4.5532 OLDSTERS -0.2997
-4.5532 OMITTED -0.2801
-4.5532 OMITTING -0.3010
-2.5532 ON -0.2625
-3.6501 ONCE -0.2801
-3.1218 ONE -0.2690
-4.5532 ONEHALF -0.3010
-4.5532 ONEOCLOCK -0.3010
-4.0761 ONES -0.2984
-3.0217 ONLY -0.2927
-4.2521 OPEN -0.3009
-4.5532 OPENED -0.2937
-4.5532 OPERA -0.3004
-4.5532 OPTICAL -0.3009
-4.5532 OPTIMISM -0.3000
-2.9621 OR -0.2923
-4.0761 ORDER -0.2930
-3.7081 ORDERS -0.2801
-4.5532 ORGANIST -0.2801
-3.7081 ORGANIZATIONS -0.3009
-3.7081 ORIENTAL -0.3009
-4.5532 ORIGINALLY -0.2937
-3.6501 OTHER -0.3007
-4.0761 OTHERS -0.2787
-4.5532 OTHERWISE -0.3000
-3.2521 OUR -0.3005
-3.1552 OUT -0.2716
-3.7081 OUTGREW -0.3003
-4.5532 OUTMODED -0.2801
-4.5532 OVAL -0.3010
-3.3227 OVER -0.2911
-3.3771 OVERALLS -0.2796
-3.7081 OVERCHARGED -0.2801
-3.7081 OVERLOOKED -0.2937
-4.5532 OVERLY -0.3010
-4.5532 OVERWRITTEN -0.2801
-3.4740 OWN -0.2972
-4.5532 PACK -0.2998
-4.5532 PACKAGE -0.2801
-4.5532 PAID -0.2801
-4.5532 PAIR -0.3009
-4.5532 PALE -0.3010
-4.2521 PALM -0.3008
-3.7081 PAM -0.3009
-4.5532 PANIC -0.3006
-3.5989 PAPER -0.2772
-3.7081 PAPERED -0.3008
-4.5532 PAPRIKA -0.2801
-4.5532 PARAMAGNETIC -0.3004
-3.7081 PARENTAL -0.3009
-3.7081 PARENTHOOD -0.3009
-3.5989 PART -0.2779
-4.5532 PARTICIPANT -0.2801
-3.6501 PARTICULARLY -0.3009
-4.5532 PARTNER -0.2801
-4.5532 PARTS -0.2974
-4.5532 PASSING -0.3010
-4.5532 PASSIONS -0.2801
-4.2521 PAST -0.2998
-4.5532 PASTURE -0.2997
-4.5532 PATIENTLY -0.2801
-4.5532 PATIENTS -0.3010
-4.5532 PATSY -0.2801
-4.5532 PATTERED -0.3010
-4.5532 PAUSED -0.3009
-4.5532 PAW -0.2801
-4.5532 PAY -0.3010
-4.5532 PEACE -0.2989
-4.5532 PEACEFULLY -0.2801
-4.5532 PEANUT -0.3008
-3.7081 PECK -0.2988
-4.5532 PEDESTAL -0.3004
-4.5532 PEERED -0.3010
-4.5532 PENSION -0.3010
-3.2521 PEOPLE -0.2749
-4.5532 PEPPER -0.3010
-4.5532 PERCEPTION -0.3010
-3.7081 PERFUME -0.2801
-3.9511 PERHAPS -0.3001
-4.5532 PERIOD -0.2801
-4.5532 PERIODS -0.2988
-4.5532 PERMIT -0.3010
-4.5532 PERSISTENTLY -0.3010
-4.5532 PERSISTING -0.3009
-4.5532 PERSONAL -0.3010
-3.7081 PERSONNEL -0.2997
-4.5532 PERSUADED -0.3007
-4.5532 PERSUASIVELY -0.2937
-3.7081 PETTICOATS -0.2801
-3.7081 PEWTER -0.2997
-4.5532 PHENOMENON -0.3000
-3.7081 PHONY -0.3009
-4.5532 PHOSPHATE -0.3010
-4.5532 PHOSPHATES -0.2801
-4.5532 PHRASE -0.3010
-4.5532 PHYSICAL -0.3010
-3.5532 PICK -0.2735
-4.5532 PICKED -0.3008
-4.5532 PICTURES -0.2988
-4.5532 PIECE -0.3009
-4.5532 PIECES -0.2801
-4.5532 PILGRIMS -0.2801
-3.7081 PILL -0.2801
-3.7081 PIZZERIAS -0.2997
-4.2521 PLACE -0.2988
-4.5532 PLACES -0.2801
-4.5532 PLAINTIFF -0.2972
-4.5532 PLAN -0.3010
-4.5532 PLANE -0.2801
-3.7081 PLANNED -0.3009
-4.5532 PLANS -0.2801
-4.5532 PLATED -0.3003
-3.6501 PLAYED -0.3009
-4.5532 PLAYS -0.3010
-4.5532 PLEASANT -0.3006
-3.7081 PLEASANTLY -0.3009
-3.4071 PLEASE -0.3007
-4.5532 PLEASURE -0.2801
-4.2521 PLENTY -0.2945
-4.5532 PLUMBER -0.3009
-4.5532 PLUNGED -0.3009
-4.5532 POACH -0.2937
-4.5532 POCKET -0.2801
-4.5532 POETS -0.3010
-4.5532 POINTS -0.2972
-4.5532 POISONED -0.2987
-4.5532 POISONS -0.2801
-4.5532 POLITICAL -0.3010
-4.5532 POLITICS -0.2989
-4.5532 POLYESTERS -0.2801
-3.7081 POND -0.2989
-4.5532 POOLS -0.2801
-3.7081 POOR -0.2801
-4.5532 POORLY -0.2989
-3.6501 POPULAR -0.2997
-3.7081 POPULARITY -0.2801
-4.5532 PORK -0.2801
-4.5532 PORTABLE -0.3010
-4.5532 PORTION -0.3010
-4.2521 POSITION -0.2797
-4.5532 POSSESSED -0.3010
-4.5532 POSSIBILITIES -0.2801
-4.0761 POSSIBLE -0.2756
-3.3771 POTATOES -0.2776
-4.5532 POTENT -0.3010
-4.2521 POULTRY -0.3007
-4.5532 POVERTY -0.3010
-4.5532 POWDERS -0.3008
-4.5532 POWER -0.3009
-4.5532 PRACTICALLY -0.2983
-4.5532 PREDOMINANTLY -0.3010
-4.2521 PREPARATION -0.2800
-4.5532 PREPARE -0.3010
-4.5532 PREPARING -0.3010
-4.5532 PRESENT -0.3010
-4.5532 PRESENTLY -0.3003
-4.5532 PRESERVES -0.3003
-4.5532 PRESIDENT -0.2989
-3.6501 PRESSURE -0.3009
-3.6501 PRESTIGE -0.2976
-4.5532 PRESUMABLY -0.3010
-3.6501 PRETTY -0.2972
-4.5532 PREVENT -0.3010
-3.7081 PREVENTED -0.3008
-4.5532 PRIMARY -0.3010
-4.2521 PRIME -0.3010
-4.5532 PRIMLY -0.3010
-4.5532 PRINCES -0.2989
-4.5532 PRISONERS -0.2801
-4.5532 PRIVATEEYE -0.3010
-4.5532 PROBABLY -0.3006
-3.5989 PROBLEM -0.2999
-3.7081 PROBLEMS -0.2801
-4.5532 PROCEDURE -0.3000
-3.7081 PROCEEDING -0.3009
-4.5532 PROCESS -0.3006
-4.5532 PROCESSES -0.3006
-4.5532 PROCESSING -0.2988
-4.5532 PRODUCE -0.3010
-4.5532 PRODUCT -0.3009
-4.2521 PRODUCTION -0.3006
-3.5989 PRODUCTS -0.2946
-4.5532 PROFESSION -0.2984
-4.2521 PROGRAM -0.2988
-4.5532 PROGRAMS -0.3010
-4.5532 PROGRESS -0.2996
-3.6501 PROJECT -0.3009
-4.5532 PROJECTS -0.3010
-3.7081 PROMOTE -0.3009
-4.5532 PROPERLY -0.3010
-4.5532 PROPERTIES -0.2988
-4.5532 PROPOSED -0.3010
-4.5532 PROPRIETY -0.3000
-4.5532 PROPS -0.3004
-4.5532 PROSPECT -0.2988
-3.7081 PROSPECTIVE -0.3009
-4.5532 PROTECTED -0.3006
-4.5532 PROTECTION -0.2801
-4.5532 PROTECTS -0.2937
-4.5532 PROTEIN -0.2801
-4.5532 PROVED -0.3010
-4.5532 PROVIDE -0.3010
-4.0761 PROVIDES -0.2954
-4.5532 PSYCHICAL -0.3010
-4.5532 PSYCHOLOGICALLY -0.2937
-4.5532 PSYCHOPATH -0.3010
-4.5532 PUBLIC -0.2801
-4.5532 PULSING -0.3010
-4.5532 PUMMELED -0.3009
-4.5532 PUNCTURING -0.3006
-4.5532 PUNISHES -0.2974
-4.5532 PUPPETS -0.3010
-3.7081 PURCHASE -0.2801
-4.5532 PURCHASERS -0.3010
-4.5532 PURPOSE -0.2989
-4.5532 PURSUED -0.2801
-3.3491 PUT -0.2916
-4.5532 PUZZLING -0.3010
-4.5532 QUACKERY -0.3006
-4.5532 QUALITY -0.3009
-4.5532 QUARTERCENTURYOLD -0.3010
-4.5532 QUARTERS -0.3003
-3.6501 QUESTION -0.2982
-4.5532 QUESTIONS -0.3006
-3.6501 QUICK -0.3009
-4.5532 QUICKLY -0.2989
-4.5532 QUIETLY -0.2997
-4.0761 QUITE -0.2973
-4.5532 QUOTE -0.3009
-4.5532 RABBITS -0.2801
-4.2521 RACE -0.2801
-4.5532 RACY -0.2801
-4.5532 RADIATED -0.3010
-4.5532 RADIATION -0.3010
-4.5532 RADICALISM -0.3000
-4.5532 RADIO -0.3010
-4.5532 RADIOACTIVITY -0.2988
-4.5532 RADIOSTERILIZATION -0.3010
-2.3279 RAG -0.2989
-4.5532 RAILROAD -0.3010
-4.5532 RAIN -0.2801
-4.5532 RAINDROPS -0.3010
-3.7081 RALPH -0.3009
-4.5532 RAMIFICATIONS -0.2988
-4.2521 RAN -0.2987
-4.5532 RANGE -0.2988
-4.5532 RAPE -0.3010
-4.5532 RAPIDLY -0.3003
-3.7081 RARE -0.3009
-3.6501 RATHER -0.3005
-4.5532 RATING -0.3003
-3.7081 RATIONALIZE -0.2983
-4.5532 RATIONING -0.3010
-4.5532 RATTLESNAKE -0.2967
-4.5532 REACHED -0.2937
-3.7081 READS -0.2937
-4.5532 READY -0.2991
-3.5989 REAL -0.2799
-4.5532 REALITY -0.3006
-4.5532 REALIZATION -0.3003
-4.5532 REALLY -0.3010
-4.2521 REASONS -0.2991
-4.5532 REASSURANCE -0.2937
-4.5532 RECEIVED -0.3010
-4.5532 RECENTLY -0.3010
-4.5532 RECEPTION -0.3009
-4.5532 RECOGNIZE -0.3003
-4.5532 RECOMMENDATION -0.2801
-4.5532 RECONSIDERED -0.2801
-4.5532 RECRIMINATIONS -0.2801
-4.5532 RECTOR -0.3000
-3.6501 RED -0.3009
-4.5532 REDCOATS -0.3010
-4.5532 REDECORATING -0.2801
-4.5532 REFERRED -0.2967
-4.2521 REFLECT -0.2937
-4.5532 REFORM -0.2801
-4.2521 REFUSED -0.2967
-4.5532 REGRET -0.2989
-4.5532 REGULAR -0.3009
-4.5532 REGULARS -0.2801
-4.5532 REGULATIVE -0.3010
-4.5532 REHABILITATION -0.2801
-4.5532 REINFORCE -0.3010
-4.5532 REJECTED -0.2937
-3.7081 RELATED -0.2967
-4.2521 RELIEF -0.2801
-4.5532 RELIGION -0.3010
-4.5532 RELISH -0.2801
-4.5532 RELY -0.2801
-4.5532 REMAIN -0.3009
-4.5532 REMAINED -0.3010
-4.5532 REMAINS -0.2937
-4.5532 REMEMBERED -0.3008
-4.5532 REMINDED -0.3010
-3.7081 REMOTE -0.3009
-4.5532 RENT -0.3010
-4.5532 RENTED -0.2937
-4.5532 RENUNCIATION -0.3009
-4.5532 REPLACE -0.3010
-4.5532 REPLIED -0.3010
-4.5532 REPORTED -0.2801
-4.5532 REPRESENTATION -0.2801
-4.5532 REPRESENTED -0.3006
-3.7081 REPTILES -0.2801
-4.5532 REQUESTS -0.2984
-3.7081 REQUIRES -0.3009
-3.7081 RESCUE -0.3009
-4.5532 RESEARCH -0.3006
-4.5532 RESIDES -0.2972
-4.5532 RESPECT -0.2991
-4.5532 RESULT -0.2997
-4.5532 RESULTED -0.2801
-4.0761 RESULTS -0.2944
-4.5532 RETIREMENT -0.3003
-4.5532 RETIRES -0.2801
-3.7081 RETRACTED -0.3003
-4.5532 RETURN -0.3010
-3.7081 REVIEW -0.3008
-4.5532 REVIEWERS -0.2989
-4.5532 REVISED -0.3010
-4.5532 RHYTHMICALLY -0.2937
-4.2521 RICH -0.2951
-3.7081 RIDE -0.2937
-4.5532 RIDING -0.2937
-4.5532 RIFLE -0.3010
-4.5532 RIFLEMAN -0.3010
-3.2979 RIGHT -0.2991
-4.5532 RISING -0.3010
-4.5532 RITES -0.3003
-4.5532 RITUAL -0.3010
-4.5532 RITUALS -0.2984
-4.5532 RIVER -0.3010
-4.5532 ROAD -0.3010
-4.5532 ROAM -0.2937
-3.7081 ROB -0.3009
-3.7081 ROBIN -0.3009
-4.5532 ROCKY -0.3010
-4.5532 RODS -0.3010
-3.7081 ROGERS -0.3009
-4.5532 ROLES -0.2801
-4.5532 ROLLS -0.3010
-3.5532 ROOM -0.2799
-4.5532 ROOMS -0.2801
-4.5532 ROOT -0.3010
-4.5532 ROOTLESS -0.2989
-4.5532 ROPES -0.2937
-4.5532 RUBBED -0.3003
-4.5532 RUBBERIZED -0.3010
-4.5532 RUBBISH -0.2801
-3.7081 RUG -0.2801
-4.2521 RULE -0.2724
-4.5532 RULES -0.3006
-4.5532 RUMEN -0.3010
-3.5989 RUN -0.2934
-4.5532 RURAL -0.3010
-4.5532 RUSTLING -0.3009
-4.5532 SACRIFICIAL -0.3010
-4.5532 SADDLED -0.3003
-4.5532 SADNESS -0.2989
-3.5118 SAID -0.2643
-4.5532 SAILORS -0.3008
-4.5532 SALARY -0.2988
-4.0761 SALESMANSHIP -0.2786
-4.5532 SALESMEN -0.2997
-4.2521 SALT -0.2989
-4.5532 SALVATION -0.3010
-3.5532 SAME -0.2791
-4.0761 SAMPLING -0.2790
-4.5532 SARCASM -0.3000
-3.5989 SAT -0.2991
-3.9511 SAW -0.2874
-4.2521 SAY -0.2984
-4.2521 SAYS -0.3008
-4.5532 SCAFFOLD -0.2801
-4.5532 SCALLOPED -0.3010
-3.7081 SCARED -0.2937
-3.7081 SCARF -0.3009
-4.5532 SCENES -0.3010
-4.5532 SCHNOOKS -0.2801
-3.9511 SCHOOL -0.2926
-4.5532 SCHOOLS -0.2972
-4.5532 SCIENTIFIC -0.3010
-4.5532 SCOURING -0.3010
-4.5532 SEA -0.2988
-4.5532 SEAM -0.3003
-4.5532 SEAR -0.3010
-3.7081 SEATTLE -0.2801
-4.5532 SECOND -0.3010
-4.5532 SECTION -0.3006
-4.5532 SECULARIST -0.2989
-4.5532 SECURITY -0.2801
-4.5532 SEE -0.3009
-4.2521 SEED -0.2801
-4.5532 SEEDS -0.2988
-4.5532 SEEKERS -0.3008
-3.8542 SEEMED -0.2964
-4.5532 SELECTED -0.3010
-4.5532 SELECTIONS -0.2997
-4.5532 SEMIDRYING -0.3010
-3.6501 SENSE -0.2797
-4.5532 SEPARATE -0.3010
-4.5532 SERIES -0.2801
-4.5532 SERMON -0.2801
-3.7081 SERVE -0.2937
-4.5532 SERVED -0.3002
-4.5532 SERVICES -0.2801
-4.5532 SESAME -0.2989
-4.0761 SET -0.2990
-4.0761 SEVERAL -0.3010
-4.5532 SEW -0.2998
-4.5532 SHABBY -0.2801
-4.5532 SHACKLES -0.2801
-4.5532 SHADE -0.2801
-4.5532 SHADOW -0.2988
-4.5532 SHADY -0.2989
-4.5532 SHAKERS -0.3010
-4.5532 SHALL -0.3008
-4.5532 SHALLOWNESS -0.3010
-4.0761 SHAME -0.2742
-3.7081 SHAMPOOED -0.3008
-4.5532 SHAPE -0.3004
-4.5532 SHAPES -0.3010
-4.5532 SHARKS -0.3007
-3.7081 SHAVING -0.3009
-2.2351 SHE -0.2952
-4.5532 SHED -0.3010
-4.5532 SHEETS -0.3007
-3.7081 SHELLFISH -0.2991
-4.2521 SHELTER -0.2937
-4.5532 SHELTERS -0.2972
-4.5532 SHIP -0.2996
-4.5532 SHIPMATE -0.2988
-4.5532 SHIPS -0.2997
-4.5532 SHIPSHAPE -0.2801
-4.2521 SHIRT -0.2800
-4.5532 SHIRTSLEEVE -0.2989
-3.5989 SHOES -0.2758
-4.5532 SHOP -0.2801
-3.4071 SHORE -0.2801
-3.9511 SHORT -0.2988
-4.5532 SHORTLY -0.2989
-3.4392 SHOULD -0.2889
-3.7081 SHOULDER -0.3009
-4.2521 SHOWED -0.2972
-4.5532 SHOWERING -0.2989
-4.5532 SHOWING -0.3010
-4.2521 SHOWN -0.2999
-4.5532 SHREDDER -0.3009
-4.5532 SHRIMP -0.3010
-4.5532 SHRUGS -0.3010
-4.5532 SHUT -0.3008
-4.5532 SHUTTER -0.3009
-4.2521 SIDE -0.2724
-4.5532 SIDES -0.2989
-4.5532 SIGH -0.2988
-4.5532 SIGHTSEERS -0.3010
-4.5532 SIGNALS -0.2801
-4.5532 SILHOUETTE -0.2801
-3.6501 SILLY -0.3006
-3.7081 SILVERWARE -0.3006
-3.6501 SIMPLE -0.3009
-4.5532 SIMPLER -0.3010
-4.5532 SIMPLY -0.3010
-4.5532 SINEWY -0.3010
-3.7081 SING -0.3005
-4.2521 SINGLE -0.2987
-4.2521 SIR -0.2775
-4.5532 SIT -0.3008
-3.7081 SITUATED -0.3009
-4.5532 SITUATION -0.2801
-4.5532 SITUATIONS -0.2801
-4.2521 SIX -0.3010
-4.5532 SIXTYFIVE -0.3010
-4.5532 SIZZLED -0.2801
-3.7081 SKETCHED -0.2937
-4.5532 SKIRMISH -0.2801
-3.7081 SKIRT -0.2801
-3.7081 SKIRTS -0.2989
-4.5532 SLANTED -0.3010
-4.5532 SLAPPED -0.3008
-4.5532 SLASH -0.3010
-4.5532 SLEEP -0.3006
-4.5532 SLEEPILY -0.3003
-3.7081 SLEEPING -0.3009
-4.5532 SLEEPY -0.3010
-4.5532 SLID -0.2937
-3.7081 SLIPPED -0.2989
-4.5532 SLIPS -0.3009
-3.7081 SLOPE -0.2801
-4.5532 SLOVENLINESS -0.2984
-4.5532 SLOW -0.3008
-4.5532 SLOWED -0.3010
-3.5989 SLOWLY -0.2773
-4.5532 SLUICING -0.3010
-4.5532 SLUMS -0.2989
-4.5532 SLYNESS -0.2801
-3.3771 SMALL -0.3000
-4.5532 SMILE -0.2801
-3.7081 SMILES -0.3009
-4.5532 SMOOTHED -0.2801
-4.5532 SNAKERAIL -0.3010
-4.5532 SNEEZED -0.3003
-3.7081 SO -0.2794
-4.5532 SOAKED -0.2801
-4.5532 SOCALLED -0.3010
-4.5532 SOCIAL -0.3009
-4.5532 SOCIALIZED -0.3010
-3.6501 SOCIETY -0.3000
-4.5532 SOFT -0.3010
-4.5532 SOIL -0.3010
-4.5532 SOLAR -0.3010
-4.5532 SOLDIERING -0.3006
-4.5532 SOLID -0.3010
-4.5532 SOLIDSTATE -0.3010
-4.5532 SOLITARY -0.3010
-4.5532 SOLUTION -0.2996
-3.7081 SOLVE -0.3009
-4.5532 SOLVED -0.2801
-3.4392 SOME -0.2985
-4.5532 SOMEBODY -0.3003
-4.5532 SOMEHOW -0.3010
-3.8542 SOMETHING -0.2735
-4.5532 SOMETIME -0.3008
-4.5532 SOMETIMES -0.2997
-4.2521 SOMEWHAT -0.3007
-4.2521 SONGS -0.2967
-4.5532 SONIC -0.3010
-4.0761 SOON -0.2891
-3.7081 SOOTHED -0.3006
-4.5532 SOOTHINGLY -0.2801
-4.5532 SORT -0.2988
-3.7081 SOUND -0.2988
-4.2521 SOUNDED -0.3001
-4.5532 SOURCES -0.2988
-4.5532 SOYBEAN -0.3010
-4.5532 SPACE -0.2967
-3.7081 SPECIAL -0.3009
-4.5532 SPECTATORTYPE -0.3010
-4.5532 SPECULATIONS -0.3006
-3.7081 SPEND -0.2972
-4.5532 SPENDING -0.2996
-4.5532 SPENT -0.2974
-3.7081 SPIDER -0.3009
-3.7081 SPILLED -0.3009
-3.7081 SPINACH -0.3009
-4.5532 SPOILED -0.3009
-4.5532 SPOKE -0.3010
-4.5532 SPOKEN -0.3010
-3.7081 SPORT -0.2801
-4.5532 SPOUTED -0.2974
-3.7081 SPRAINED -0.3003
-4.5532 SPREADER -0.2801
-4.5532 SPRING -0.3010
-4.5532 SPRINKLING -0.2988
-4.5532 SPROUTING -0.2988
-4.2521 SQUEAKED -0.2998
-4.5532 SQUEAMISHNESS -0.3010
-4.5532 STACKED -0.3010
-4.5532 STAGE -0.3010
-4.5532 STAGGERED -0.3010
-4.5532 STAKE -0.2987
-4.5532 STAKEOUT -0.3010
-4.5532 STANDARDS -0.2801
-4.5532 STEEL -0.3010
-3.7081 STEEP -0.3009
-4.5532 STEP -0.2972
-4.5532 STEPLADDERS -0.2974
-4.5532 STERILIZATION -0.3010
-3.7081 STEVE -0.3008
-4.5532 STICK -0.2801
-3.7750 STILL -0.2976
-4.5532 STIMULATES -0.3010
-3.7081 STOCKINGS -0.3009
-4.5532 STOICISM -0.2801
-3.7081 STOLE -0.2974
-4.5532 STOOL -0.2801
-3.7081 STOPWATCH -0.3004
-4.5532 STORM -0.3010
-4.2521 STORY -0.2988
-4.5532 STRAINED -0.3009
-4.2521 STRANDED -0.2761
-4.5532 STRANGER -0.2801
-3.7081 STRAW -0.3009
-3.7081 STRAY -0.3009
-4.5532 STREAMLINED -0.3010
-4.5532 STREAMS -0.2988
-3.6501 STREET -0.2988
-4.5532 STREETS -0.2972
-3.6501 STRENGTH -0.3008
-4.5532 STRENGTHEN -0.2937
-4.5532 STRESS -0.3010
-4.5532 STRIKE -0.3000
-4.5532 STRIPED -0.3010
-4.5532 STRIPPED -0.3010
-3.7081 STRONG -0.2801
-3.7081 STRONGLY -0.3009
-4.5532 STRUCTURAL -0.2989
-4.5532 STRUCTURES -0.3010
-4.5532 STUDENTS -0.3010
-3.5118 STUDY -0.2778
-4.2521 STUPID -0.3010
-4.2521 STYLE -0.2949
-4.5532 SUBGROUPS -0.2989
-4.5532 SUBJECTIVE -0.3010
-4.2521 SUBSTANCES -0.2962
-4.5532 SUBSYSTEMS -0.2801
-3.7081 SUBWAY -0.3006
-4.5532 SUCCESSFUL -0.2801
-3.4392 SUCH -0.2964
-4.5532 SUDDENLY -0.3009
-4.5532 SUFFERED -0.2972
-4.5532 SUFFERS -0.3004
-3.5989 SUGAR -0.2800
-4.5532 SUICIDE -0.3008
-2.3279 SUIT -0.2972
-4.5532 SUITABLY -0.3010
-4.5532 SULPHUR -0.3008
-4.5532 SUM -0.2991
-3.7081 SUN -0.2801
-4.5532 SUNG -0.3006
-4.5532 SUNLIGHT -0.3006
-3.7081 SUPERB -0.3009
-4.5532 SUPERIOR -0.3008
-3.7081 SUPERVISION -0.2996
-4.5532 SUPPERS -0.2801
-4.5532 SUPPLEMENTS -0.2801
-4.5532 SURE -0.3008
-4.5532 SURELY -0.3003
-3.7081 SURFACE -0.2988
-4.5532 SURFACES -0.2988
-4.5532 SURPRISE -0.2801
-4.5532 SURPRISINGLY -0.3003
-4.5532 SURVEYING -0.3010
-4.5532 SWAM -0.3010
-4.5532 SWARMED -0.3010
-4.5532 SWARTHY -0.3010
-4.5532 SWEAT -0.3010
-3.7081 SWEATER -0.2801
-3.7081 SWEDISH -0.3009
-4.5532 SWEETHEART -0.3009
-4.5532 SWIMMING -0.3010
-3.7081 SWING -0.2986
-4.5532 SWIRLED -0.3007
-4.0761 SWUNG -0.2969
-3.7081 SYMBOLS -0.2801
-4.5532 SYMPATHETICALLY -0.3010
-3.7081 SYNAGOGUE -0.3006
-4.5532 SYNONYMOUS -0.3003
-4.5532 SYRUP -0.2991
-3.5118 SYSTEM -0.2766
-3.4071 TABLE -0.2971
-4.5532 TABLECLOTHS -0.2801
-4.5532 TABLES -0.2988
-3.7081 TAG -0.3003
-4.5532 TAIL -0.3007
-4.5532 TAILORED -0.3009
-3.3491 TAKE -0.2859
-4.5532 TAKES -0.2972
-4.5532 TALE -0.2997
-4.5532 TALENT -0.3006
-4.2521 TALK -0.2792
-4.5532 TALL -0.2967
-4.5532 TANK -0.3003
-4.2521 TARGET -0.2801
-3.7081 TASK -0.3009
-4.5532 TAUT -0.3010
-4.5532 TAXATION -0.3008
-4.2521 TEA -0.2800
-4.5532 TECHNICAL -0.3010
-4.5532 TECHNIQUES -0.2801
-4.5532 TECHNOLOGICAL -0.2801
-4.2521 TECHNOLOGY -0.2988
-4.5532 TEENY -0.3010
-3.5532 TEETH -0.2791
-4.5532 TELLERS -0.3006
-4.5532 TELLS -0.3000
-4.5532 TEMPO -0.2988
-4.5532 TEMPTED -0.2967
-4.5532 TEN -0.3010
-4.5532 TENANT -0.3000
-4.5532 TEND -0.2967
-4.5532 TENDS -0.2967
-4.5532 TENTACLES -0.2801
-4.5532 TERMS -0.2801
-4.5532 TEST -0.3008
-4.5532 TESTS -0.3003
-4.5532 TEXT -0.2989
-4.5532 TEXTFORM -0.3010
-3.1730 THAN -0.2949
-2.2207 THAT -0.2667
-4.5532 THATLL -0.3000
-4.2521 THATS -0.3006
-1.7758 THE -0.2878
-3.3227 THEIR -0.3006
-4.5532 THEIRS -0.2996
-3.3771 THEM -0.2721
-4.2521 THEME -0.2796
-4.5532 THEMSELVES -0.3010
-3.5989 THEN -0.2782
-4.5532 THEORY -0.3010
-3.2521 THERE -0.2724
-4.5532 THERES -0.3010
-3.2744 THESE -0.2996
-2.9734 THEY -0.2924
-3.7081 THEYRE -0.3009
-4.2521 THICK -0.3009
-4.2521 THIGHS -0.2801
-4.2521 THIN -0.2980
-3.5532 THING -0.2778
-4.0761 THINGS -0.2986
-4.5532 THINK -0.2988
-4.5532 THINKING -0.3010
-3.7081 THINNER -0.3007
-4.5532 THIRD -0.3007
-2.7898 THIS -0.2733
-4.5532 THOROUGHLY -0.3010
-3.4740 THOSE -0.3002
-4.2521 THOUGH -0.2932
-3.4392 THOUGHT -0.2919
-4.5532 THOUSAND -0.3010
-4.5532 THREATENING -0.2967
-3.7081 THREE -0.3008
-4.5532 THREW -0.3002
-4.5532 THRIVED -0.2998
-3.4392 THROUGH -0.2917
-4.5532 THROW -0.3009
-3.4071 THURSDAYS -0.2800
-4.0761 THUS -0.3010
-4.2521 TIED -0.2965
-4.5532 TIGHT -0.2801
-4.5532 TIMBER -0.2801
-3.1060 TIME -0.2755
-4.2521 TIMES -0.2976
-4.5532 TIN -0.2801
-4.5532 TINDER -0.3008
-4.5532 TISSUE -0.2989
-2.0066 TO -0.2753
-4.5532 TOAST -0.3002
-4.5532 TODAYLL -0.3000
-4.5532 TOGETHER -0.3009
-4.5532 TOLL -0.3010
-3.7081 TOMORROW -0.3007
-3.4392 TOO -0.2959
-4.0761 TOOK -0.2971
-3.4071 TOOTH -0.3008
-4.5532 TOOTHBRUSH -0.2801
-4.5532 TOP -0.3010
-4.5532 TOSS -0.3010
-4.5532 TOUCHDOWN -0.3010
-4.2521 TOWARD -0.2937
-4.5532 TOWN -0.2801
-4.5532 TRACKS -0.3009
-3.7081 TRADITION -0.3009
-4.5532 TRAFFIC -0.3010
-4.2521 TRAGIC -0.3010
-4.5532 TRAINING -0.3009
-4.5532 TRANSACT -0.3009
-4.5532 TRANSMIT -0.3010
-4.2521 TRAP -0.2977
-4.5532 TRAVELER -0.3010
-4.2521 TRAY -0.2801
-4.2521 TREATMENT -0.2801
-3.7081 TREATS -0.2801
-4.5532 TREMBLED -0.3010
-4.5532 TREND -0.3000
-4.5532 TRENDS -0.3006
-4.5532 TRICK -0.2801
-4.2521 TRIM -0.3009
-4.5532 TRIP -0.3010
-3.7081 TRISH -0.3009
-4.5532 TRIVIALITY -0.3010
-3.7081 TROPICAL -0.3009
-4.2521 TRUE -0.2990
-4.5532 TRUNKS -0.2801
-4.5532 TRUTH -0.2801
-4.5532 TUNNELS -0.2989
-4.5532 TURN -0.3008
-4.5532 TURNED -0.3003
-4.5532 TURNPIKES -0.2801
-3.7081 TWELFTH -0.3008
-4.5532 TWELVE -0.3010
-3.7081 TWILIGHT -0.2998
-4.5532 TWITCHED -0.3003
-3.4392 TWO -0.2796
-4.5532 TYPES -0.3010
-4.5532 TYRANNY -0.2988
-4.5532 ULTRASONIC -0.3010
-4.5532 UMBRELLA -0.3002
-4.5532 UNCERTAIN -0.3010
-4.5532 UNCOMFORTABLE -0.2801
-3.7081 UNDERAGE -0.3009
-4.5532 UNDERSTAND -0.2801
-4.5532 UNDESIRABLE -0.3010
-4.5532 UNEASY -0.2801
-4.5532 UNENTHUSIASTIC -0.2801
-3.7081 UNEVENLY -0.3009
-4.5532 UNEXPECTEDLY -0.3010
-4.5532 UNFORTUNATELY -0.3008
-4.5532 UNION -0.2801
-4.2521 UNIT -0.3001
-4.5532 UNITY -0.2988
-4.5532 UNJUSTIFIED -0.2801
-3.7081 UNLIMITED -0.3009
-4.5532 UNLINED -0.3010
-4.5532 UNNECESSARILY -0.3010
-4.5532 UNPLEASANT -0.3007
-4.5532 UNQUESTIONABLY -0.3010
-4.5532 UNSEEN -0.3010
-4.5532 UNSPECIFIED -0.3010
-4.5532 UNSTUCK -0.2801
-4.2521 UNTIL -0.2986
-3.7081 UNTIMELY -0.3009
-4.2521 UNUSUAL -0.2801
-3.2310 UP -0.2621
-3.7081 UPBRINGING -0.2972
-3.6501 UPON -0.2999
-4.5532 UPPER -0.3009
-4.5532 UPSTAIRS -0.3010
-4.5532 URETHANE -0.3010
-3.5532 US -0.2753
-3.5989 USE -0.2981
-3.9511 USED -0.2871
-3.7081 USEFUL -0.2972
-4.5532 USUAL -0.2801
-4.5532 USUALLY -0.3010
-4.5532 VAGABOND -0.3010
-4.5532 VAGUELY -0.3010
-4.5532 VALIDATED -0.3010
-4.5532 VALUE -0.2801
-4.5532 VAPOR -0.3009
-4.2521 VARIOUS -0.3010
-4.5532 VASES -0.3009
-4.5532 VEGETABLE -0.3010
-4.5532 VEGETABLES -0.2801
-4.5532 VELOCITY -0.3009
-4.5532 VERSES -0.2801
-3.2521 VERY -0.3008
-4.5532 VICES -0.2801
-3.7081 VICTIM -0.3009
-4.5532 VICTIMS -0.3010
-4.2521 VIEW -0.3010
-3.7081 VIEWPOINT -0.3009
-4.5532 VIGOROUS -0.3010
-4.5532 VIOLENCE -0.3000
-4.5532 VIRTUOUS -0.2801
-4.5532 VISITORS -0.2967
-4.5532 VISUALLY -0.3008
-3.7081 VOCABULARY -0.3009
-4.2521 VOICE -0.2801
-4.5532 WADDED -0.3003
-4.5532 WAGE -0.3010
-4.5532 WAIT -0.2974
-4.5532 WAKE -0.3009
-3.6501 WALKING -0.3009
-3.4071 WALL -0.3003
-4.5532 WANT -0.3008
-3.7081 WARDROBE -0.3009
-3.6501 WARM -0.3009
-4.5532 WARMTH -0.2989
-4.5532 WARN -0.3009
-2.6238 WAS -0.2633
-2.3279 WASH -0.2990
-4.2521 WASNT -0.2967
-2.3227 WATER -0.2982
-4.5532 WAVE -0.2988
-4.5532 WAVES -0.2801
-3.5118 WAY -0.2742
-4.5532 WAYS -0.3009
-3.0347 WE -0.2903
-4.5532 WEAKNESS -0.2972
-4.5532 WEAPON -0.2801
-3.7081 WEAR -0.2974
-4.5532 WEATHER -0.3009
-3.7081 WEATHERPROOF -0.3009
-3.7081 WEB -0.3009
-4.5532 WEDDING -0.3010
-3.7081 WEEKDAY -0.3009
-4.5532 WEEPING -0.2801
-4.5532 WELCOMED -0.3010
-3.7081 WELFARE -0.2801
-3.4071 WELL -0.2790
-4.5532 WELLMADE -0.2801
-4.5532 WENT -0.3010
-2.8372 WERE -0.2694
-4.5532 WERENT -0.3000
-4.5532 WEVE -0.2983
-3.3491 WHAT -0.2760
-4.5532 WHATSOEVER -0.2801
-4.2521 WHEEL -0.2801
-3.1915 WHEN -0.2982
-3.7081 WHENEVER -0.2937
-3.5118 WHERE -0.2993
-3.7081 WHICH -0.2897
-3.5118 WHILE -0.2756
-4.5532 WHIMSICAL -0.2801
-4.5532 WHIPPED -0.3009
-4.2521 WHITE -0.3005
-3.6501 WHO -0.3005
-4.2521 WHOLE -0.3010
-3.1218 WHY -0.2988
-4.5532 WIDE -0.3010
-4.5532 WIDOW -0.3009
-4.5532 WIFE -0.3010
-3.0347 WILL -0.2979
-4.5532 WINDOW -0.2801
-4.5532 WINDOWS -0.3010
-4.5532 WIRED -0.3010
-4.5532 WISED -0.3008
-4.5532 WITCHES -0.2997
-2.8050 WITH -0.2845
-3.7081 WITHDRAW -0.2983
-3.5118 WITHIN -0.2901
-3.3227 WITHOUT -0.2983
-4.5532 WOBBLED -0.3010
-4.0761 WOMAN -0.2800
-4.5532 WOMEN -0.2988
-4.2521 WONDERED -0.3004
-4.5532 WONDERS -0.3010
-4.2521 WONT -0.3008
-4.5532 WOODLAND -0.3010
-4.5532 WOODS -0.3010
-3.7081 WOOLEN -0.3008
-4.5532 WOPS -0.2987
-4.2521 WORDS -0.3004
-3.3227 WORE -0.2898
-3.5118 WORK -0.2798
-4.5532 WORKER -0.3010
-3.7081 WORKING -0.3009
-4.2521 WORLD -0.2800
-3.7081 WORM -0.2998
-3.6501 WORN -0.2779
-4.5532 WORRIES -0.2801
-3.7081 WORRY -0.3008
-4.5532 WORSE -0.3009
-4.5532 WORTH -0.3006
-3.1915 WOULD -0.2980
-4.5532 WRIST -0.2801
-4.2521 WRITTEN -0.2951
-4.5532 YALL -0.3009
-4.5532 YARN -0.3009
-2.3052 YEAR -0.2796
-4.0761 YEARS -0.2801
-3.7081 YELL -0.3006
-3.7081 YELLOW -0.3009
-3.9511 YES -0.2800
-3.7081 YET -0.2730
-4.5532 YIELD -0.3010
-2.6087 YOU -0.2714
-3.5989 YOUNG -0.3007
-3.7081 YOUNGSTERS -0.3008
-2.2478 YOUR -0.2984
-4.2521 YOURE -0.3010
-3.9511 YOURSELF -0.2774
-4.5532 YOUVE -0.3009
-4.5532 ZIP -0.3008
-4.5532 ZONING -0.2801

\2-grams:
-1.8636 <s> A -0.2480
-3.5263 <s> ABOUT -0.2553
-3.5263 <s> ABOVE -0.1761
-3.5263 <s> ACCIDENT 0.0000
-3.5263 <s> ACTUALLY 0.0000
-3.2253 <s> AFTER -0.2788
-3.5263 <s> AFTERWARDS 0.0000
-2.6812 <s> AGRICULTURAL 0.0000
-3.5263 <s> AHAH 0.0000
-3.5263 <s> AIM 0.0000
-2.6812 <s> ALICES 0.0000
-3.5263 <s> ALIGNING 0.0000
-3.0492 <s> ALL -0.2901
-2.6812 <s> ALLOW -0.1856
-2.6812 <s> ALUMINUM 0.0000
-3.5263 <s> AMERICAN 0.0000
-3.5263 <s> AN -0.3000
-3.2253 <s> AND -0.2985
-3.5263 <s> ANOTHER -0.1761
-2.3802 <s> ARE -0.2727
-2.6812 <s> ARTIFICIAL 0.0000
-2.9243 <s> AS -0.2665
-3.5263 <s> ASKED 0.0000
-2.4849 <s> AT -0.2218
-3.5263 <s> AUTHORITIES 0.0000
-3.5263 <s> AW 0.0000
-3.5263 <s> BAKE 0.0000
-3.5263 <s> BALLETS 0.0000
-2.6812 <s> BARB 0.0000
-2.6812 <s> BASKETBALL 0.0000
-3.5263 <s> BE -0.2985
-3.5263 <s> BEAT 0.0000
-2.6812 <s> BEFORE -0.2326
-2.6812 <s> BEG -0.0512
-3.5263 <s> BEST -0.2881
-2.6812 <s> BOB 0.0000
-3.5263 <s> BONES 0.0000
-3.5263 <s> BOOKS 0.0000
-3.5263 <s> BRICKS 0.0000
-3.5263 <s> BRIDGES 0.0000
-3.5263 <s> BRING -0.2218
-3.5263 <s> BROIL 0.0000
-3.5263 <s> BROWN -0.1761
-2.5721 <s> BUT -0.2297
-3.2253 <s> BY -0.2897
-2.6812 <s> CALCIUM 0.0000
-2.6812 <s> CALL -0.0512
-3.5263 <s> CAREFUL 0.0000
-2.6812 <s> CATASTROPHIC 0.0000
-3.5263 <s> CEREAL 0.0000
-2.6812 <s> CHEAP -0.0512
-3.5263 <s> CHECK 0.0000
-3.5263 <s> CHIEF -0.1761
-3.5263 <s> CHOOSE 0.0000
-3.5263 <s> CLEVER 0.0000
-2.6812 <s> CLIFF 0.0000
-2.6812 <s> COMBINE 0.0000
-3.5263 <s> COME -0.2808
-3.5263 <s> COMPARABLE 0.0000
-3.5263 <s> COMPULSORY 0.0000
-2.6812 <s> CORY 0.0000
-3.5263 <s> COULD -0.2688
-3.5263 <s> COVERAGE 0.0000
-3.5263 <s> DANCES 0.0000
-2.6812 <s> DAPHNES 0.0000
-3.5263 <s> DAY -0.2881
-3.5263 <s> DEANS 0.0000
-2.6812 <s> DECEMBER 0.0000
-2.6812 <s> DESTROY 0.0000
-2.6812 <s> DID -0.2126
-3.5263 <s> DISPLAYED 0.0000
-3.5263 <s> DIVERSITY 0.0000
-2.6232 <s> DO -0.2139
-3.5263 <s> DOES -0.2553
-3.5263 <s> DOGS -0.2218
-1.2833 <s> DONT -0.0119
-2.6812 <s> DROP 0.0000
-2.5721 <s> EACH -0.2148
-2.6812 <s> EATING 0.0000
-3.5263 <s> EIGHT -0.1761
-2.6812 <s> ELDERLY 0.0000
-3.5263 <s> ENCOURAGE 0.0000
-3.5263 <s> ETERNITY 0.0000
-2.6812 <s> EVEN -0.1513
-3.5263 <s> EVERY -0.2863
-3.5263 <s> EXBOYFRIEND 0.0000
-3.5263 <s> EYES -0.2632
-3.5263 <s> FAMILY -0.1761
-3.5263 <s> FAT 0.0000
-3.5263 <s> FEW -0.2788
-3.5263 <s> FISTS 0.0000
-3.5263 <s> FLIES 0.0000
-3.5263 <s> FOLD 0.0000
-3.0492 <s> FOR -0.2929
-3.5263 <s> FURTHER -0.2762
-3.5263 <s> FUSS -0.1761
-3.5263 <s> GETTING -0.1761
-3.5263 <s> GIVE -0.2218
-3.2253 <s> GOT -0.1963
-2.6812 <s> GRANDMOTHER 0.0000
-2.6812 <s> GREG -0.1761
-2.6812 <s> GUESS 0.0000
-3.5263 <s> HAVE -0.2923
-3.5263 <s> HAY 0.0000
-1.8021 <s> HE -0.1127
-3.5263 <s> HEAVE 0.0000
-3.5263 <s> HEAVY -0.1761
-3.5263 <s> HED 0.0000
-3.5263 <s> HEELS -0.1761
-2.6812 <s> HELP -0.1139
-2.2959 <s> HER -0.2381
-3.5263 <s> HERE -0.2852
-3.5263 <s> HERES 0.0000
-2.6812 <s> HIGHWAY 0.0000
-2.3502 <s> HIS -0.2450
-3.5263 <s> HISTORIANS 0.0000
-2.4849 <s> HOW -0.0843
-3.5263 <s> HOWEVER -0.2218
-3.5263 <s> HOWS 0.0000
-3.5263 <s> HUSBANDRY 0.0000
-3.5263 <s> HUSKY 0.0000
-2.3802 <s> ID 0.0000
-2.2476 <s> IF -0.1614
-2.6812 <s> IGUANAS 0.0000
-2.7482 <s> IN -0.2848
-3.5263 <s> INCREASING 0.0000
-3.5263 <s> INDEED -0.1761
-3.5263 <s> INSTRUCTIONS 0.0000
-3.2253 <s> IS -0.2935
-2.2041 <s> IT -0.1999
-2.5721 <s> ITS -0.1684
-2.6812 <s> JANE 0.0000
-3.5263 <s> JARS 0.0000
-2.6812 <s> JEFF 0.0000
-2.6812 <s> JOHN 0.0000
-3.5263 <s> JUST -0.2632
-3.5263 <s> KEEP 0.0000
-2.6812 <s> KINDERGARTEN 0.0000
-3.5263 <s> LABORATORY 0.0000
-2.6812 <s> LAUGH -0.0512
-3.5263 <s> LESS -0.2218
-3.0492 <s> LET 0.0000
-3.5263 <s> LETS 0.0000
-3.5263 <s> LIGHTED -0.1761
-3.5263 <s> LIVING -0.2863
-3.2253 <s> LOOK -0.2041
-2.6812 <s> LORIS 0.0000
-3.5263 <s> LOT -0.1249
-3.5263 <s> LOVIE 0.0000
-3.5263 <s> MAKE -0.2788
-3.2253 <s> MANY -0.2341
-3.5263 <s> MATERIALS -0.1761
-3.2253 <s> MAYBE 0.0000
-3.5263 <s> MEATS -0.1761
-2.6812 <s> MEDIEVAL 0.0000
-2.6812 <s> MICHAEL 0.0000
-2.6812 <s> MILITARY -0.0512
-3.5263 <s> MILK -0.2808
-2.6812 <s> MOM 0.0000
-3.5263 <s> MORE -0.2935
-3.5263 <s> MORPHOPHONEMIC 0.0000
-3.5263 <s> MOST -0.2788
-3.5263 <s> MUSCULAR 0.0000
-2.8274 <s> MY -0.2679
-3.5263 <s> NEVER -0.2430
-3.5263 <s> NEW -0.2788
-3.2253 <s> NEXT 0.0000
-2.9243 <s> NO -0.2571
-3.2253 <s> NOBODY -0.1249
-3.5263 <s> NORTHERNERS 0.0000
-3.5263 <s> NOT -0.2954
-3.5263 <s> NOTHING -0.1761
-3.2253 <s> NOW -0.2553
-3.5263 <s> NOWADAYS 0.0000
-3.5263 <s> NURSES 0.0000
-2.6812 <s> OBJECTS 0.0000
-3.5263 <s> OBVIOUSLY 0.0000
-3.5263 <s> OFFICIALS 0.0000
-3.5263 <s> OFTEN -0.2881
-3.2253 <s> OH 0.0000
-3.5263 <s> OKAY 0.0000
-3.5263 <s> OLD -0.2632
-3.5263 <s> ON -0.2989
-2.7482 <s> ONE -0.2499
-2.3502 <s> ONLY -0.1928
-2.9243 <s> OR -0.2663
-3.5263 <s> ORIGINALLY 0.0000
-3.5263 <s> OTHERS -0.2218
-3.5263 <s> OTHERWISE 0.0000
-3.0492 <s> OUR -0.2672
-3.5263 <s> OVAL 0.0000
-3.5263 <s> PALM -0.1761
-2.6812 <s> PAM 0.0000
-3.5263 <s> PASSING 0.0000
-3.2253 <s> PERHAPS -0.0969
-2.6812 <s> PIZZERIAS 0.0000
-2.6812 <s> PLANNED 0.0000
-2.3802 <s> PLEASE 0.0000
-3.5263 <s> POACH 0.0000
-3.5263 <s> POETS 0.0000
-3.5263 <s> POULTRY -0.1761
-3.5263 <s> POVERTY 0.0000
-3.5263 <s> PRACTICALLY 0.0000
-3.5263 <s> PRESENTLY 0.0000
-3.5263 <s> PRETTY -0.2730
-3.5263 <s> PRINCES 0.0000
-3.5263 <s> PRODUCTION 0.0000
-3.5263 <s> PROGRESS 0.0000
-2.6812 <s> PROJECT -0.0512
-3.5263 <s> PROPERLY 0.0000
-3.5263 <s> PROPRIETY 0.0000
-3.5263 <s> PSYCHOLOGICALLY 0.0000
-2.6232 <s> PUT -0.0263
-3.5263 <s> QUIETLY 0.0000
-2.6812 <s> RALPH 0.0000
-3.5263 <s> RECTOR 0.0000
-3.5263 <s> REGULATIVE 0.0000
-3.5263 <s> RELIGION 0.0000
-2.6812 <s> RIGHT -0.2071
-2.6812 <s> ROB 0.0000
-3.5263 <s> SAID -0.2808
-3.5263 <s> SALESMANSHIP -0.2218
-3.5263 <s> SALVATION 0.0000
-3.5263 <s> SEEDS 0.0000
-3.5263 <s> SELECTED 0.0000
-2.6812 <s> SERVE 0.0000
-3.5263 <s> SET -0.1249
-3.5263 <s> SEVERAL -0.2218
-2.6812 <s> SHAVING 0.0000
-1.2341 <s> SHE -0.0204
-3.2253 <s> SHOULD -0.2663
-3.5263 <s> SHRUGS 0.0000
-3.5263 <s> SO -0.2688
-3.5263 <s> SOLAR 0.0000
-3.2253 <s> SOME -0.2663
-3.5263 <s> SOMEBODY 0.0000
-3.5263 <s> SOMETIMES 0.0000
-3.5263 <s> SONIC 0.0000
-3.5263 <s> SOON -0.2218
-2.6812 <s> SPECIAL 0.0000
-3.5263 <s> STACKED 0.0000
-3.5263 <s> STAKE 0.0000
-2.6812 <s> STEVE 0.0000
-2.6812 <s> STRAW 0.0000
-3.5263 <s> STRENGTH -0.2730
-3.5263 <s> STUDENTS 0.0000
-3.5263 <s> SUBSTANCES -0.1761
-3.5263 <s> SUCH -0.2840
-3.5263 <s> SULPHUR 0.0000
-3.5263 <s> SURELY 0.0000
-2.6812 <s> SWING 0.0000
-3.5263 <s> TAKE -0.2872
-2.3502 <s> THAT -0.2856
-3.5263 <s> THATLL 0.0000
-3.5263 <s> THATS -0.1761
-1.3010 <s> THE -0.2290
-3.2253 <s> THEIR -0.2747
-3.5263 <s> THEIRS 0.0000
-3.5263 <s> THEM -0.2863
-3.5263 <s> THEN -0.2762
-2.6232 <s> THERE -0.0607
-3.5263 <s> THERES 0.0000
-3.0492 <s> THESE -0.2653
-2.1284 <s> THEY -0.1104
-2.2041 <s> THIS -0.2051
-3.5263 <s> THOROUGHLY 0.0000
-2.6232 <s> THOSE -0.1249
-3.2253 <s> THUS -0.1249
-2.4849 <s> TO -0.2936
-3.5263 <s> TOO -0.2840
-2.6812 <s> TRADITION 0.0000
-3.2253 <s> TRIM 0.0000
-3.5263 <s> UNFORTUNATELY 0.0000
-3.5263 <s> UPSTAIRS 0.0000
-3.5263 <s> URETHANE 0.0000
-3.5263 <s> VAPOR 0.0000
-3.5263 <s> VASES 0.0000
-3.5263 <s> VERY -0.2900
-3.5263 <s> VIEW -0.1761
-3.5263 <s> VISUALLY 0.0000
-3.5263 <s> WAIT 0.0000
-2.5263 <s> WE -0.2058
-3.5263 <s> WEAKNESS 0.0000
-2.6812 <s> WEATHERPROOF 0.0000
-3.5263 <s> WELL -0.2852
-3.5263 <s> WERE -0.2968
-3.5263 <s> WEVE 0.0000
-2.7482 <s> WHAT -0.2109
-3.2253 <s> WHEN -0.2817
-2.6232 <s> WHERE -0.1047
-3.5263 <s> WHILE -0.2808
-2.6812 <s> WHO -0.0512
-2.1284 <s> WHY -0.0310
-3.5263 <s> WIDOW 0.0000
-2.6812 <s> WILL -0.2523
-2.6812 <s> WITHDRAW 0.0000
-3.2253 <s> WITHIN -0.2596
-3.5263 <s> YALL 0.0000
-3.2253 <s> YES -0.1761
-3.0492 <s> YET -0.1963
-2.5721 <s> YOU -0.2756
-2.6812 <s> YOUNG -0.0872
-2.6812 <s> YOUNGSTERS 0.0000
-3.5263 <s> YOURE -0.1761
-3.5263 <s> YOUVE 0.0000
-2.4771 A BALL 0.0000
-1.9331 A BEGGAR 0.0000
-1.4559 A BIG 0.0000
-2.7782 A BIT 0.0000
-2.7782 A BOOM 0.0000
-1.9331 A BORING 0.0000
-2.7782 A BREAKING 0.0000
-2.4771 A BRIEF 0.0000
-1.9331 A BRIGHT 0.0000
-2.7782 A BULLET 0.0000
-2.7782 A BUY -0.2915
-2.7782 A CARRIAGE 0.0000
-2.7782 A CASUAL 0.0000
-2.7782 A CENTERING 0.0000
-2.7782 A CENTRAL 0.0000
-1.9331 A CENTRIFUGE 0.0000
-2.7782 A CHAIR 0.0000
-1.9331 A CHOSEN 0.0000
-2.7782 A CIGARETTE 0.0000
-2.7782 A COIL 0.0000
-2.7782 A COLOSSAL 0.0000
-2.7782 A COMPLETE 0.0000
-2.7782 A COMPOST 0.0000
-2.7782 A CONVERTED 0.0000
-2.7782 A CORDIAL 0.0000
-2.7782 A CRUSHED 0.0000
-2.7782 A DASH 0.0000
-2.7782 A DEEP 0.0000
-2.7782 A DEEPLY 0.0000
-2.7782 A DETAILED -0.1761
-2.7782 A DIFFERENT -0.1761
-1.9331 A DIME 0.0000
-2.7782 A DULL 0.0000
-2.7782 A FAIRLY 0.0000
-2.7782 A FAMOUS 0.0000
-2.7782 A FASTCLOSING 0.0000
-2.7782 A FASTOPENING 0.0000
-2.4771 A FEW -0.2553
-2.7782 A FLAME 0.0000
-2.7782 A FOLDED 0.0000
-2.7782 A FORMALITY 0.0000
-2.7782 A FRAME -0.1761
-2.7782 A GENTLEMAN 0.0000
-2.7782 A GHOST 0.0000
-2.3010 A GOOD -0.2672
-2.7782 A GOODNEWS 0.0000
-2.7782 A GOODSIZE 0.0000
-2.7782 A GRAB 0.0000
-2.4771 A GREAT -0.1761
-1.9331 A HEATING 0.0000
-2.7782 A HECK 0.0000
-2.7782 A HEM 0.0000
-2.4771 A HIGH -0.2553
-2.7782 A HUB 0.0000
-2.7782 A HUNDRED 0.0000
-2.7782 A HURRY 0.0000
-2.7782 A KIND 0.0000
-2.7782 A LACK 0.0000
-2.7782 A LAMP -0.1761
-1.9331 A LARGE 0.0000
-2.7782 A LIFE -0.2553
-2.7782 A LITERARY 0.0000
-2.3010 A LITTLE -0.1461
-1.9331 A LIVING -0.1856
-2.7782 A LONGOVERDUE 0.0000
-2.7782 A LOT -0.1249
-2.7782 A LUSH 0.0000
-2.7782 A MAGNETIC -0.1761
-2.4771 A MAN -0.2499
-2.7782 A MEDICAL 0.0000
-1.9331 A MEETING 0.0000
-2.7782 A MESSAGE 0.0000
-1.9331 A MIRAGE 0.0000
-2.7782 A MOUTHFUL 0.0000
-2.7782 A MUCH -0.2788
-2.0000 A MUSCULAR 0.0000
-2.7782 A MUTINEER 0.0000
-2.7782 A NATIONAL 0.0000
-2.7782 A NEW -0.2788
-2.7782 A NONCONTRIBUTORY -0.1761
-2.7782 A NOTE 0.0000
-2.7782 A NOVELTY 0.0000
-2.7782 A NUMBER 0.0000
-2.7782 A PALE 0.0000
-2.7782 A PALM -0.1761
-2.7782 A PARTICIPANT 0.0000
-1.9331 A PECK 0.0000
-2.7782 A PLEASANT 0.0000
-2.7782 A PLUMBER 0.0000
-1.9331 A POPULAR -0.0512
-2.7782 A PORTABLE 0.0000
-2.7782 A POTENT 0.0000
-2.7782 A PRIME -0.1761
-2.7782 A PROFESSION 0.0000
-2.7782 A PROGRAM -0.1761
-2.0000 A PROSPECTIVE 0.0000
-2.7782 A QUARTERCENTURYOLD 0.0000
-2.0000 A QUICK 0.0000
-2.7782 A RANGE 0.0000
-1.9331 A RARE 0.0000
-2.7782 A RATING 0.0000
-2.7782 A REAL -0.2762
-2.7782 A REALITY 0.0000
-2.7782 A RECOMMENDATION 0.0000
-2.7782 A REGULAR 0.0000
-2.7782 A RESULT 0.0000
-2.4771 A RULE 0.0000
-2.7782 A SACRIFICIAL 0.0000
-2.7782 A SEA 0.0000
-2.7782 A SECOND 0.0000
-2.7782 A SHAPE 0.0000
-2.7782 A SHELTER -0.1761
-2.7782 A SHIP 0.0000
-2.7782 A SHIPMATE 0.0000
-2.4771 A SHORT -0.1761
-1.9331 A SIMPLE -0.0512
-2.7782 A SINGLE -0.1761
-2.7782 A SLEEPY 0.0000
-2.7782 A SOFT 0.0000
-2.7782 A SOMEWHAT -0.1761
-2.7782 A SPRING 0.0000
-2.7782 A STAKEOUT 0.0000
-2.7782 A STORM 0.0000
-2.7782 A STORY -0.1761
-2.7782 A STREAMLINED 0.0000
-2.7782 A STUDY -0.2139
-2.4771 A STUPID 0.0000
-1.9331 A SUPERB 0.0000
-2.7782 A TEA -0.1761
-2.7782 A TEENY 0.0000
-2.4771 A THING -0.2553
-2.7782 A TISSUE 0.0000
-2.7782 A TRAY -0.1761
-2.7782 A TRUE -0.1761
-2.7782 A UNIT -0.1761
-2.7782 A VAGABOND 0.0000
-2.7782 A VERY -0.2900
-2.7782 A WALKING -0.2730
-2.7782 A WARM -0.2730
-2.7782 A WAY -0.2808
-2.7782 A WEAPON 0.0000
-2.7782 A WEDDING 0.0000
-2.7782 A WHEEL -0.1761
-2.7782 A WINDOW 0.0000
-2.7782 A WIRED 0.0000
-2.4771 A WOMAN -0.1249
-2.7782 A YEAR -0.2998
-1.9331 A YELLOW 0.0000
-0.3010 ABDOMEN IS -0.2877
-0.3010 ABILITY TO -0.2967
-1.0000 ABOUT A -0.3003
-1.0000 ABOUT ADMITTING 0.0000
-1.0000 ABOUT DAWN 0.0000
-1.0000 ABOUT IT -0.2977
-1.0000 ABOUT ITS -0.2894
-0.6021 ABOVE HIM -0.2825
-0.6021 ABOVE THE -0.3007
-0.3010 ABRUPTLY AT -0.2632
-0.3010 ABSENCES ILLNESSES 0.0000
-0.3010 ABSOLUTE FALLOUT -0.1761
-0.3010 ABSORBED WAY -0.2808
-0.3010 ABYSS OF -0.2999
-0.3010 ACCELERATING GROWTH 0.0000
-0.3010 ACCENT </s> -0.3010
-0.3010 ACCEPTANCE OF -0.2999
-0.3010 ACCESS TO -0.2998
-0.3010 ACCIDENT MURDER 0.0000
-0.3010 ACCLAIMED AS -0.2762
-0.3010 ACCOMPLISHED ARTISTS 0.0000
-0.3010 ACCOUNT </s> -0.3010
-0.3010 ACCREDITATION OF -0.2999
-0.3010 ACCURACY BY -0.2954
-0.3010 ACCUSATIONS AT -0.2749
-0.3010 ACCUSE A -0.3003
-0.3010 ACHES WHENEVER 0.0000
-0.3010 ACHIEVED AT -0.2632
-0.3010 ACKNOWLEDGE </s> -0.3010
-0.3010 ACQUIRE A -0.3003
-0.3010 ACROPOLIS ALL -0.2941
-0.6021 ACROSS IT -0.2977
-0.6021 ACROSS THE -0.3007
-0.3010 ACTION </s> -0.3010
-0.3010 ACTIVITIES COULD -0.2688
-0.6021 ACTIVITY </s> -0.3010
-0.6021 ACTIVITY FOR -0.2615
-0.3010 ACTS OF -0.2999
-0.3010 ACTUAL EXPERIENCE -0.2218
-0.3010 ACTUALLY THEY -0.2953
-1.2041 ADD A -0.3003
-0.3590 ADD THE -0.2985
-0.6021 ADDED EVERYTHING 0.0000
-0.6021 ADDED TRAFFIC 0.0000
-0.3010 ADDITIVES DO -0.2910
-0.3010 ADDRESS WHATSOEVER 0.0000
-0.3010 ADJUSTMENTS TO -0.2992
-0.3010 ADMITTED HIS -0.2975
-0.3010 ADMITTING THIS -0.2897
-0.3010 ADULT GO -0.2788
-0.3010 ADULTHOOD </s> -0.3010
-0.3010 ADVANTAGE OF -0.2794
-0.3010 ADVENTURES AND -0.2973
-0.3010 ADVISABLE FOR -0.2997
-1.6021 AFTER DAY -0.2881
-1.6021 AFTER EIGHT -0.1761
-0.7570 AFTER I -0.2430
-0.7570 AFTER MUCH -0.1139
-1.3010 AFTER THAT -0.2990
-1.6021 AFTER THE -0.3007
-1.6021 AFTER TRUTH 0.0000
-0.3010 AFTERWARDS YOU -0.2986
-0.7782 AGAIN </s> -0.3010
-0.7782 AGAIN BELOW -0.1761
-0.7782 AGAIN SHED 0.0000
-0.4771 AGE </s> -0.3010
-0.7782 AGE YOU -0.2986
-0.3010 AGGLOMERATION OF -0.2999
-0.3010 AGLOW </s> -0.3010
-0.3010 AGO </s> -0.3010
-0.3010 AGRICULTURAL PRODUCTS -0.0872
-0.3010 AHAH HE -0.2929
-0.3010 AHEAD AND -0.2998
-0.3010 AIM TO -0.3004
-0.3010 AIMED A -0.2989
-0.3010 AINT YOU -0.2730
-0.3010 AIR </s> -0.3010
-0.3010 ALICES ABILITY 0.0000
-0.3010 ALIGNING ALL -0.2921
-2.6474 ALL ACKNOWLEDGE 0.0000
-1.8023 ALL AGLOW 0.0000
-2.6474 ALL ARE -0.2991
-2.6474 ALL BEEN -0.2688
-2.6474 ALL BLANK 0.0000
-2.6474 ALL CRYSTALLINE 0.0000
-2.6474 ALL DID -0.2894
-1.8023 ALL ERRORS 0.0000
-2.6474 ALL FORECASTS 0.0000
-2.6474 ALL HER -0.2976
-1.8023 ALL HOLIDAYS 0.0000
-2.6474 ALL NUT 0.0000
-2.6474 ALL OTHER -0.2730
-1.8023 ALL PHONY 0.0000
-2.6474 ALL PROJECTS 0.0000
-2.3464 ALL SEEMED -0.2041
-2.6474 ALL SET -0.2218
-2.6474 ALL SITUATIONS 0.0000
-1.6931 ALL THE -0.2978
-2.3464 ALL THESE -0.2775
-0.4221 ALL YEAR -0.0024
-0.3010 ALLIGATORS ARE -0.2871
-0.3010 ALLOT EXTRA -0.2730
-0.6320 ALLOW A -0.2959
-0.6320 ALLOW LEEWAY 0.0000
-1.4771 ALLOW THE -0.3007
-0.3010 ALLOWABLE DEPRECIATION 0.0000
-0.3010 ALLOWED FOR -0.2997
-0.3010 ALLPURPOSE MUGS 0.0000
-0.3010 ALLURE FOR -0.2997
-0.3010 ALMOST ABSOLUTE 0.0000
-0.3010 ALONE YET -0.2688
-0.6021 ALONG CARRYING 0.0000
-0.6021 ALONG TO -0.3004
-0.3010 ALOUD </s> -0.3010
-0.6021 ALREADY EXISTED -0.1761
-0.6021 ALREADY SOAKED 0.0000
-1.3424 ALSO AVAILABLE -0.1761
-1.3424 ALSO COMING -0.1761
-1.3424 ALSO CONTAIN -0.1761
-1.3424 ALSO COVERS 0.0000
-1.3424 ALSO HONEST 0.0000
-1.3424 ALSO INCORPORATED 0.0000
-1.3424 ALSO POPULAR -0.2730
-1.3424 ALSO PROVIDES -0.2218
-1.3424 ALSO REMINDED 0.0000
-1.3424 ALSO THREATENING 0.0000
-1.3424 ALSO WANT 0.0000
-0.3010 ALTERNATED WITH -0.2971
-0.3010 ALTERNATIVE </s> -0.3010
-0.3010 ALUMINUM SILVERWARE 0.0000
-0.7112 ALWAYS HURTS 0.0000
-1.5563 ALWAYS PREVENT 0.0000
-1.5563 ALWAYS SEEMED -0.2553
-1.5563 ALWAYS THOUGHT -0.2840
-1.5563 ALWAYS TOGETHER 0.0000
-0.7112 ALWAYS USE -0.0872
-0.3010 AM </s> -0.3010
-0.3010 AMAZE YOURSELF -0.2430
-0.3010 AMBASSADOR HIMSELF -0.2632
-0.3010 AMBIGUOUS </s> -0.3010
-0.3010 AMBITIOUS </s> -0.3010
-0.3010 AMBLED THROUGH -0.1165
-0.3010 AMBULANCE FOR -0.2526
-0.3010 AMERICAN NEWSPAPER 0.0000
-0.3010 AMMO </s> -0.3010
-0.3010 AMORIST CONJURED 0.0000
-2.6170 AN ABSORBED 0.0000
-2.6170 AN ALTERNATIVE 0.0000
-1.7719 AN AMBULANCE 0.0000
-1.7719 AN APOLOGY 0.0000
-2.6170 AN ARBOREAL 0.0000
-2.6170 AN AREA 0.0000
-2.6170 AN ARMY -0.1761
-2.6170 AN AUTISTIC 0.0000
-1.7719 AN ENTERTAINING 0.0000
-2.6170 AN ENTITY 0.0000
-2.6170 AN EXCELLENT 0.0000
-2.6170 AN EXPRESSION 0.0000
-2.6170 AN EXTREMELY 0.0000
-2.6170 AN IMPORTANT -0.2430
-2.6170 AN INCOME -0.2730
-2.6170 AN INSTANT 0.0000
-2.6170 AN INSULATOR 0.0000
-2.6170 AN OCTILLION 0.0000
-0.3917 AN OILY 0.0000
-2.6170 AN UNPLEASANT 0.0000
-2.6170 AN UNSPECIFIED 0.0000
-2.6170 AN UNUSUAL -0.1761
-0.3010 ANAESTHESIA </s> -0.3010
-0.6021 ANALYSIS IS -0.2992
-0.6021 ANALYSIS OF -0.2975
-1.9420 AND A -0.2981
-2.5441 AND ABOVE -0.1761
-2.5441 AND ACQUIRE 0.0000
-2.5441 AND ADD -0.2730
-2.5441 AND ADULT 0.0000
-2.5441 AND ADULTHOOD 0.0000
-2.5441 AND ALL -0.2991
-1.6990 AND ALLIGATORS 0.0000
-2.5441 AND ALLOT 0.0000
-2.2430 AND ARE -0.2971
-2.5441 AND AS -0.2980
-2.5441 AND BAD 0.0000
-1.6990 AND BLOUSES 0.0000
-2.5441 AND BREATHED 0.0000
-2.5441 AND BRIEFLY 0.0000
-2.5441 AND BURST 0.0000
-2.5441 AND CARTILAGE 0.0000
-2.5441 AND CAULIFLOWER 0.0000
-2.5441 AND CHOIR 0.0000
-2.5441 AND CLIMBED 0.0000
-2.5441 AND COMMON -0.2762
-2.5441 AND CONSIDERED 0.0000
-2.5441 AND COOL 0.0000
-2.5441 AND COPRA 0.0000
-2.5441 AND COSMETICS 0.0000
-2.5441 AND DEFENDED 0.0000
-2.5441 AND DEPLETION 0.0000
-2.5441 AND DIED 0.0000
-2.5441 AND DONT -0.2998
-2.5441 AND DOWN -0.2632
-2.5441 AND EXCITING 0.0000
-2.5441 AND FACTIONS 0.0000
-2.5441 AND FERRIES 0.0000
-2.5441 AND FIRING 0.0000
-2.5441 AND FITFULLY 0.0000
-2.5441 AND FRAME -0.1761
-1.6990 AND FREEWAY 0.0000
-2.5441 AND FUNCTIONAL 0.0000
-2.5441 AND GOOD -0.2900
-2.5441 AND GRINNED 0.0000
-2.5441 AND GUILTY 0.0000
-2.2430 AND HAD -0.2987
-2.5441 AND HAGGARD 0.0000
-2.5441 AND HAVING 0.0000
-2.0669 AND HE -0.2825
-2.5441 AND HELP -0.2788
-2.5441 AND HIS -0.2975
-2.5441 AND IRRESPONSIBLE 0.0000
-2.5441 AND IT -0.2663
-1.6990 AND JANUARY 0.0000
-2.5441 AND LAYOFFS 0.0000
-1.6990 AND LEAVES -0.0872
-2.5441 AND LESS -0.2218
-2.5441 AND LET -0.1761
-2.5441 AND LITERATURE -0.2218
-2.5441 AND LIVESTOCK -0.1761
-2.5441 AND LOOKED -0.2430
-2.5441 AND MADE -0.2808
-2.5441 AND MASKS 0.0000
-2.5441 AND MR 0.0000
-2.5441 AND NEW -0.2788
-2.5441 AND NOW -0.2711
-2.5441 AND OPENED 0.0000
-2.2430 AND OTHER -0.2430
-2.5441 AND PASTURE 0.0000
-2.5441 AND PEPPER 0.0000
-2.5441 AND PLACES 0.0000
-2.5441 AND POSSESSED 0.0000
-2.5441 AND PUZZLING 0.0000
-2.5441 AND QUARTERS 0.0000
-2.5441 AND RAPE 0.0000
-2.5441 AND REDECORATING 0.0000
-2.5441 AND REHABILITATION 0.0000
-2.5441 AND RESPECT 0.0000
-2.5441 AND ROLES 0.0000
-2.5441 AND SADNESS 0.0000
-2.5441 AND SECURITY 0.0000
-2.5441 AND SET -0.1249
-2.5441 AND SHABBY 0.0000
-2.5441 AND SHIPSHAPE 0.0000
-2.5441 AND SHRIMP 0.0000
-1.6990 AND SING 0.0000
-1.6990 AND SKETCHED 0.0000
-2.5441 AND SLYNESS 0.0000
-2.5441 AND SPOILED 0.0000
-1.6990 AND SPRAINED 0.0000
-2.5441 AND SPRINKLING 0.0000
-2.5441 AND SQUEAKED -0.1761
-2.5441 AND STRIPPED 0.0000
-2.5441 AND TABLES 0.0000
-1.6990 AND TEETH -0.1139
-2.5441 AND TEND 0.0000
-2.0669 AND THE -0.2999
-2.5441 AND THEIR -0.2881
-2.5441 AND THERE -0.2788
-2.5441 AND THIN -0.1761
-2.5441 AND THREW 0.0000
-2.2430 AND TO -0.2998
-1.6990 AND TRISH 0.0000
-2.5441 AND UNDESIRABLE 0.0000
-2.5441 AND VICTIMS 0.0000
-2.5441 AND WE -0.2944
-2.5441 AND WELLMADE 0.0000
-2.5441 AND WHAT -0.2872
-0.3010 ANGER SMOOTHED 0.0000
-0.3010 ANIMAL MAGNETISM -0.1761
-0.3010 ANKLE ON -0.1987
-0.3010 ANNOYING EACH -0.2355
-0.6021 ANOTHER MEMO 0.0000
-0.6021 ANOTHER PACK 0.0000
-0.3010 ANSWER </s> -0.3010
-0.3010 ANSWERED </s> -0.3010
-0.3010 ANTELOPE </s> -0.3010
-0.3010 ANTIINFECTIVE PROPERTIES 0.0000
-0.3010 ANXIETY OR -0.2897
-1.5315 ANY BETTER -0.2218
-0.6864 ANY CORDUROY -0.0512
-1.5315 ANY FIREBUG 0.0000
-1.5315 ANY GOVERNOR 0.0000
-1.5315 ANY INCREASED -0.1761
-1.5315 ANY LAMP -0.1761
-1.5315 ANY MORE -0.2858
-1.5315 ANY NECESSARY -0.2430
-1.5315 ANY PRIVATEEYE 0.0000
-1.5315 ANY RACE 0.0000
-1.5315 ANY STAGE 0.0000
-0.6021 ANYTHING </s> -0.3010
-0.6021 ANYTHING FOR -0.2997
-0.3010 ANYWAY </s> -0.3010
-0.3010 APARTMENTS ARE -0.2991
-0.3010 APOLOGY </s> -0.3010
-0.3010 APPARENTLY MEMORIZED 0.0000
-0.3010 APPEALING </s> -0.3010
-0.3010 APPEARANCE AND -0.2998
-0.3010 APPETIZERS </s> -0.3010
-0.3010 APPLES IN -0.2989
-0.3010 APPLIANCES AND -0.2998
-0.3010 APPLICABILITY TO -0.3004
-0.3010 APPLICATIONS </s> -0.3010
-0.3010 APPLIED WITH -0.2812
-0.3010 APPRAISAL </s> -0.3010
-0.3010 APPROACH DID -0.2894
-0.3010 APPROVAL FOR -0.2915
-0.3010 APPROXIMATED WHAT -0.2872
-0.3010 ARBITRARY OR -0.2954
-0.3010 ARBOREAL PHRASE 0.0000
-2.0453 ARE A -0.2996
-1.8692 ARE ALSO -0.2374
-2.3464 ARE AN -0.3000
-2.3464 ARE AS -0.2980
-2.3464 ARE ASSEMBLED 0.0000
-1.5013 ARE BEAUTIFUL -0.0512
-1.5013 ARE CONVENIENT 0.0000
-2.3464 ARE DECISIVE 0.0000
-2.3464 ARE DECORATIVE 0.0000
-2.3464 ARE ENORMOUS 0.0000
-1.5013 ARE EXPECTED -0.0512
-2.3464 ARE FOR -0.2997
-2.3464 ARE GETTING -0.1761
-2.3464 ARE HAPPENING -0.1761
-2.3464 ARE IN -0.3003
-2.3464 ARE LAUGHING 0.0000
-2.3464 ARE MERCHANDISING 0.0000
-2.0453 ARE MORE -0.2858
-1.5013 ARE NICE -0.0512
-2.0453 ARE NOT -0.2897
-2.3464 ARE NOW -0.2863
-2.3464 ARE OF -0.2999
-1.5013 ARE OFTEN -0.2009
-1.5013 ARE OUT -0.2355
-2.3464 ARE OVERWRITTEN 0.0000
-2.3464 ARE PLATED 0.0000
-2.3464 ARE PROTECTED 0.0000
-2.3464 ARE RICH -0.1761
-2.3464 ARE SOMEWHAT -0.1761
-1.8692 ARE THE -0.2970
-2.3464 ARE THEMSELVES 0.0000
-1.5013 ARE TROPICAL 0.0000
-1.5013 ARE UNEVENLY 0.0000
-1.4433 ARE VERY -0.2041
-2.3464 ARE WELL -0.2852
-1.5013 ARE YOU -0.2834
-1.5013 ARE YOUR -0.2934
-0.3010 AREA THAT -0.3000
-0.3010 AREAS ARE -0.2991
-0.3010 ARGUED IN -0.2961
-1.2041 ARM </s> -0.3010
-0.3590 ARM AS -0.2794
-0.3010 ARMCHAIR TRAVELER 0.0000
-0.6021 ARMS CLOSE -0.1761
-0.6021 ARMS SWIRLED 0.0000
-0.6021 ARMY IS -0.2819
-0.6021 ARMY SHOES -0.2762
-1.0000 AROUND </s> -0.3010
-1.0000 AROUND EYES -0.2632
-1.0000 AROUND HER -0.2976
-1.0000 AROUND LIP 0.0000
-1.0000 AROUND THE -0.3007
-0.3010 ARRANGE FOR -0.2615
-0.3010 ARRANGED TO -0.3004
-0.3010 ARRIVAL OF -0.2999
-0.3010 ARRIVED </s> -0.3010
-0.3010 ARRIVING ON -0.2856
-0.3010 ART SCHOOLS 0.0000
-0.3010 ARTIFICIAL INTELLIGENCE 0.0000
-0.3010 ARTISTS OBTAIN 0.0000
-1.2553 AS A -0.2952
-1.8573 AS AN -0.2989
-2.1584 AS CONFORMATIONAL 0.0000
-2.1584 AS CREEPING 0.0000
-2.1584 AS ELECTRICAL -0.1761
-2.1584 AS FOLLOWS 0.0000
-2.1584 AS GENERAL -0.1761
-2.1584 AS GLEECLUB 0.0000
-2.1584 AS GOOD -0.2900
-2.1584 AS HE -0.2990
-1.3133 AS HIGH -0.1139
-1.1584 AS IF -0.2240
-2.1584 AS JAR 0.0000
-2.1584 AS JOINING 0.0000
-2.1584 AS LAMPS 0.0000
-2.1584 AS MENTAL 0.0000
-2.1584 AS MINE -0.2730
-2.1584 AS MUCH -0.2788
-2.1584 AS ORGANIST 0.0000
-2.1584 AS PILGRIMS 0.0000
-1.8573 AS POSSIBLE -0.1249
-2.1584 AS REASSURANCE 0.0000
-2.1584 AS SALT 0.0000
-1.8573 AS SHE -0.2979
-2.1584 AS SMALL -0.2863
-2.1584 AS SOON -0.2218
-2.1584 AS SUCH -0.2840
-2.1584 AS THE -0.3007
-1.8573 AS THOUGH 0.0000
-1.3133 AS TREATS 0.0000
-2.1584 AS USUAL 0.0000
-2.1584 AS WE -0.2944
-2.1584 AS WELL -0.2518
-1.3133 AS YOU -0.2834
-0.6021 ASIDE TO -0.3004
-0.6021 ASIDE WHILE -0.2808
-0.3036 ASK ME -0.0509
-2.5289 ASK QUESTIONS 0.0000
-0.3010 ASKED WHY -0.2929
-0.3010 ASSEMBLED IN -0.3003
-0.3010 ASSEMBLING LID -0.2218
-0.3010 ASSISTANCE </s> -0.3010
-0.3010 ASTROPHYSICS </s> -0.3010
-2.0792 AT </s> -0.3010
-1.7782 AT A -0.2996
-2.0792 AT ANY -0.2881
-2.0792 AT DIFFERENT -0.1761
-2.0792 AT FAULT 0.0000
-2.0792 AT FIRST -0.2730
-1.2341 AT GUNPOINT 0.0000
-2.0792 AT HER -0.2976
-2.0792 AT HOME -0.1761
-2.0792 AT LAST -0.1761
-2.0792 AT LAW 0.0000
-2.0792 AT LEAST 0.0000
-2.0792 AT LEISURE 0.0000
-2.0792 AT LOUDEST 0.0000
-2.0792 AT ODDS 0.0000
-1.2341 AT ONCE -0.0512
-2.0792 AT RIGHT -0.2888
-2.0792 AT SIXTYFIVE 0.0000
-2.0792 AT STERILIZATION 0.0000
-1.0792 AT THE -0.2948
-2.0792 AT THOSE -0.2825
-2.0792 AT TOLL 0.0000
-1.2341 AT TWILIGHT 0.0000
-1.2341 AT TWO -0.1648
-2.0792 AT VARIOUS -0.1761
-2.0792 AT WOODLAND 0.0000
-0.3010 ATOMS NOW -0.2863
-0.3010 ATTEMPTED IN -0.2989
-0.6021 ATTENTION </s> -0.3010
-0.6021 ATTENTION OR -0.2954
-0.3010 ATTITUDE WILL -0.2944
-0.3010 ATTRACTED HIM -0.1761
-0.3010 AUDITION </s> -0.3010
-0.3010 AUDITORS </s> -0.3010
-0.3010 AUDITS </s> -0.3010
-0.3010 AUGMENTED BY -0.2954
-0.3010 AUNT FELT -0.2762
-0.3010 AUSTERE YET -0.2688
-0.3010 AUTHOR AT -0.2937
-0.3010 AUTHORITIES SAY 0.0000
-0.3010 AUTHORIZED THE -0.2985
-0.3010 AUTISTIC CHILD -0.1249
-0.3010 AUTUMN </s> -0.3010
-0.6021 AVAILABLE </s> -0.3010
-0.6021 AVAILABLE DATA 0.0000
-0.3590 AVOID EXPOSURE 0.0000
-1.2041 AVOID PUNCTURING 0.0000
-0.3010 AW SHUT 0.0000
-0.3010 AWARE OF -0.2794
-0.4260 AWAY </s> -0.3010
-1.3802 AWAY A -0.3003
-1.3802 AWAY EXCESS 0.0000
-1.3802 AWAY OVERALLS -0.2863
-0.3010 AWE CAME -0.2430
-0.3010 AWEINSPIRING </s> -0.3010
-0.3590 BACK </s> -0.3010
-1.2041 BACK SPENDING 0.0000
-0.3010 BACKWARD </s> -0.3010
-0.3010 BAD TEETH -0.2788
-0.3010 BAG </s> -0.3010
-0.3010 BAKE SLOWLY -0.2762
-0.3010 BALANCE YOUR -0.3000
-0.6021 BALL </s> -0.3010
-0.6021 BALL AND -0.2998
-0.3010 BALLETS WERE -0.2968
-0.3010 BALLS FOR -0.2915
-0.3010 BARB BURNED 0.0000
-0.3010 BARBECUE FIRE 0.0000
-0.3010 BARGAINS AS -0.2762
-0.3010 BARK </s> -0.3010
-0.3010 BAROMETRIC PRESSURE -0.0512
-0.3010 BASE OF -0.2794
-0.3010 BASED ON -0.2856
-0.3010 BASKETBALL CAN -0.2319
-0.3010 BAY OF -0.2999
-2.2405 BE </s> -0.3010
-1.5416 BE A -0.2974
-1.3955 BE AN -0.2936
-2.2405 BE ARRANGED 0.0000
-1.3955 BE COMPLETELY -0.0512
-2.2405 BE DESCRIBED 0.0000
-1.9395 BE DONE -0.1761
-2.2405 BE EITHER -0.1761
-2.2405 BE EXCITED 0.0000
-2.2405 BE FINE 0.0000
-1.3955 BE FLIMSY 0.0000
-2.2405 BE HARD -0.2788
-2.2405 BE HATED 0.0000
-2.2405 BE HERE -0.2688
-2.2405 BE ILLUMINATED 0.0000
-2.2405 BE ILLUMINATING 0.0000
-2.2405 BE INCREASED -0.1761
-2.2405 BE MY -0.2946
-2.2405 BE NECESSARY -0.2430
-1.3375 BE NO -0.2185
-2.2405 BE NOTED 0.0000
-2.2405 BE OCCUPIED 0.0000
-2.2405 BE OMITTED 0.0000
-1.3955 BE OVERCHARGED 0.0000
-2.2405 BE PAID 0.0000
-1.9395 BE PLENTY 0.0000
-2.2405 BE SADDLED 0.0000
-2.2405 BE SHADY 0.0000
-2.2405 BE SHOWN -0.1761
-2.2405 BE SNEEZED 0.0000
-2.2405 BE SO -0.2688
-2.2405 BE TECHNOLOGICAL 0.0000
-1.2405 BE THE -0.2945
-2.2405 BE THOUGHT -0.2840
-1.3955 BE WITHIN -0.1347
-0.3010 BEACH BALLS 0.0000
-0.3010 BEAT ME -0.0509
-0.3590 BEAUTIFUL </s> -0.3010
-1.2041 BEAUTIFUL BOOTS -0.1761
-0.7782 BECAUSE OF -0.2999
-0.7782 BECAUSE THATS -0.1761
-0.7782 BECAUSE YOU -0.2986
-0.3590 BECOME GENERALS -0.0512
-1.2041 BECOME LESS -0.2218
-0.3010 BECOMES INTEGRATED 0.0000
-0.3010 BED MAN -0.2762
-1.2041 BEDROOM SOME -0.2840
-0.3590 BEDROOM WALL -0.1761
-0.3010 BEDROOMS </s> -0.3010
-1.1461 BEEN DONE -0.2430
-1.1461 BEEN HAPPENING -0.1761
-1.1461 BEEN LOST 0.0000
-1.1461 BEEN LOWERED 0.0000
-1.1461 BEEN QUITE -0.2218
-1.1461 BEEN RICH -0.1761
-1.1461 BEEN USED -0.2430
-0.3010 BEERS WAS -0.2985
-0.8361 BEFORE FROST 0.0000
-1.6812 BEFORE HE -0.2970
-1.6812 BEFORE HER -0.2976
-1.6812 BEFORE THEY -0.2953
-0.8361 BEFORE THURSDAYS -0.1761
-0.8361 BEFORE YOU -0.2834
-1.2041 BEG FORGIVENESS 0.0000
-0.3590 BEG THAT -0.2939
-1.3010 BEGAN JUST -0.2632
-0.3468 BEGAN TO -0.2948
-0.3010 BEGGAR </s> -0.3010
-0.3010 BEGINNING </s> -0.3010
-0.6021 BEHAVIOR AND -0.2998
-0.6021 BEHAVIOR ARE -0.2991
-0.3010 BEHIND THIS -0.2897
-0.9031 BEING AT -0.2974
-0.9031 BEING BEHIND 0.0000
-0.9031 BEING IDENTIFIED 0.0000
-0.9031 BEING MADE -0.2808
-0.6021 BELIEVE IN -0.3003
-0.6021 BELIEVE WILL -0.2944
-0.3010 BELLHOPS </s> -0.3010
-0.6021 BELOW </s> -0.3010
-0.6021 BELOW EXPECTATIONS 0.0000
-0.3010 BENEATH THE -0.3007
-0.3010 BENEFIT PACKAGE 0.0000
-0.3010 BENEFITS </s> -0.3010
-0.3010 BEREFT </s> -0.3010
-0.3010 BESIDE HERSELF -0.1761
-1.5315 BEST FOR -0.2901
-1.5315 BEST SOLUTION 0.0000
-0.6864 BEST TIME -0.2341
-1.5315 BEST TO -0.3004
-0.6864 BEST WAY -0.1047
-0.7782 BETTER CAN -0.2319
-0.7782 BETTER QUALITY 0.0000
-0.7782 BETTER THAN -0.2919
-0.7782 BETWEEN CONTRIBUTORY 0.0000
-0.7782 BETWEEN INFANCY 0.0000
-0.7782 BETWEEN THE -0.3007
-0.3010 BEVERAGES </s> -0.3010
-0.6021 BEYOND </s> -0.3010
-0.6021 BEYOND POLITICS 0.0000
-0.3010 BIBLIOGRAPHIES AND -0.2998
-0.7782 BIG BONFIRE 0.0000
-0.7782 BIG GOAT 0.0000
-0.7782 BIG HOUSE -0.0512
-0.3010 BILL BY -0.2954
-0.3010 BIRACIAL CLASSROOMS -0.2730
-0.3010 BIRTH CONTROL 0.0000
-0.3010 BIT OF -0.2999
-1.2553 BLACK BREAD 0.0000
-1.2553 BLACK FUNNEL 0.0000
-0.4102 BLACK GLOVES 0.0000
-0.3010 BLAME HER -0.2870
-0.3010 BLANK </s> -0.3010
-0.3010 BLASPHEMOUS RITES 0.0000
-0.3010 BLEACHERS </s> -0.3010
-0.3010 BLEW HER -0.2976
-0.3010 BLINDNESS MANIFEST 0.0000
-0.3010 BLITZ WERE -0.2968
-0.3010 BLOCK TABLE -0.1761
-0.3010 BLOUSES </s> -0.3010
-0.3010 BLOW </s> -0.3010
-0.3010 BLUFFS HUGGED 0.0000
-0.3010 BLUNTLY YOU -0.2961
-0.3010 BOATS COME -0.2808
-0.3010 BOB PAPERED 0.0000
-0.3010 BODY PROCESSES 0.0000
-0.3010 BOG GETS 0.0000
-0.3010 BOILING MILK -0.2808
-0.3010 BONES AND -0.2897
-0.3010 BONFIRE </s> -0.3010
-0.3010 BOOK IS -0.2973
-0.3010 BOOKS ARE -0.2991
-0.3010 BOOM IN -0.3003
-0.6021 BOOTS ON -0.2967
-0.6021 BOOTS WERE -0.2968
-0.3010 BORING NOVEL 0.0000
-0.3010 BORROW AN -0.3000
-0.3010 BOSS RATTLESNAKE 0.0000
-0.7782 BOTH HALVES 0.0000
-0.7782 BOTH OF -0.2975
-0.7782 BOTH VERY -0.2900
-0.3010 BOTTLE </s> -0.3010
-0.3010 BOUNDED BY -0.2954
-0.4771 BOWL </s> -0.3010
-1.0792 BOWL OF -0.2987
-1.3802 BOWL THE -0.2978
-1.3802 BOWL WITH -0.2971
-0.3010 BOX BEFORE -0.2326
-1.2553 BOY </s> -0.3010
-1.2553 BOY DIDNT -0.2430
-0.4102 BOY PUT -0.0512
-0.3010 BRAND OF -0.2999
-0.3010 BREAD </s> -0.3010
-0.3010 BREAKDOWN OF -0.2744
-0.3010 BREAKING WAVE 0.0000
-0.3010 BREATH </s> -0.3010
-0.3010 BREATHED FOR -0.2956
-0.3010 BREATHLESSLY </s> -0.3010
-0.3010 BREEZE PLAYED -0.2730
-0.3010 BRICKS ARE -0.2991
-0.3010 BRIDAL PAIR 0.0000
-0.3010 BRIDGE BETWEEN -0.2218
-0.3010 BRIDGES TUNNELS 0.0000
-0.6021 BRIEF BURN 0.0000
-0.6021 BRIEF CASE 0.0000
-0.3010 BRIEFLY TELLS 0.0000
-0.3010 BRIGHT RED -0.0512
-0.7782 BRING LONG -0.2762
-0.7782 BRING ME -0.2999
-0.7782 BRING YOUR -0.3000
-0.3010 BRINGS US -0.2788
-0.3010 BROCCOLI AND -0.2998
-0.3010 BROCHURE IS -0.2858
-0.3010 BROIL OR -0.2954
-0.3010 BROKEN </s> -0.3010
-0.3010 BROTHER SAID -0.2808
-0.3010 BROUGHT ME -0.2999
-0.6021 BROWN CORDUROY -0.2730
-0.6021 BROWN EYES -0.2632
-0.3010 BROWS WHICH -0.2688
-0.3010 BRUSH OUR -0.2900
-0.3010 BUFF </s> -0.3010
-0.3010 BUGLE SCARED 0.0000
-0.3010 BUILD DORMITORIES 0.0000
-0.3010 BUILDERS </s> -0.3010
-0.3010 BULGED DOWNWARD 0.0000
-0.3010 BULLET SHE -0.3000
-0.3010 BULLLIKE MUSCLE 0.0000
-0.3010 BUNGALOW WAS -0.2828
-0.3010 BURN ON -0.2945
-0.3010 BURNED PAPER -0.0872
-0.3010 BURST SUDDENLY 0.0000
-1.3010 BUSINESS </s> -0.3010
-0.4559 BUSINESS MERGERS 0.0000
-1.3010 BUSINESS OVER -0.2881
-1.3010 BUSINESS UP -0.2906
-0.3010 BUSY FEET -0.2553
-1.5185 BUT A -0.2989
-1.8195 BUT CHARGE -0.2730
-1.8195 BUT EVEN -0.2825
-1.8195 BUT HE -0.2990
-1.8195 BUT HOW -0.2852
-0.9744 BUT I -0.2430
-1.8195 BUT IN -0.2989
-1.8195 BUT ITS -0.2653
-1.8195 BUT MATHEMATICS 0.0000
-1.8195 BUT ONE -0.2929
-0.9744 BUT RATIONALIZE 0.0000
-1.8195 BUT SHE -0.3000
-1.8195 BUT SO -0.2688
-1.8195 BUT SUCH -0.2840
-1.8195 BUT THAT -0.2980
-1.8195 BUT THE -0.3007
-1.8195 BUT THEY -0.2953
-1.8195 BUT TO -0.2986
-1.8195 BUT WHAT -0.2872
-1.8195 BUT WITHIN -0.2808
-0.3010 BUTCHER BLOCK 0.0000
-0.3010 BUTTER MOLD -0.1761
-0.3010 BUTTONHOLES </s> -0.3010
-0.3010 BUTTONS MAKE -0.2788
-1.6628 BUY ALLPURPOSE 0.0000
-0.8177 BUY ANY -0.2009
-0.8177 BUY OIL -0.2009
-1.6628 BUY ON -0.2945
-0.8177 BUY THESE -0.2126
-0.3010 BUYER </s> -0.3010
-0.3010 BUYS FRESH 0.0000
-1.8921 BY </s> -0.3010
-1.4150 BY A -0.2981
-1.8921 BY EARTHLY 0.0000
-1.8921 BY EXISTING 0.0000
-1.8921 BY HAND -0.2788
-1.8921 BY ITS -0.2894
-1.8921 BY MILK -0.2808
-1.8921 BY NO -0.2926
-1.8921 BY SEVERAL -0.2218
-1.8921 BY SNAKERAIL 0.0000
-1.8921 BY SURPRISE 0.0000
-1.5911 BY THAT -0.2990
-0.6880 BY THE -0.2952
-1.0470 BY WORKING 0.0000
-1.8921 BY ZONING 0.0000
-0.3010 CAFETERIA LOCATION 0.0000
-0.3010 CALCIUM MAKES -0.1856
-0.3590 CALL AN -0.2936
-1.2041 CALL HIS -0.2975
-1.2041 CAME ALONG -0.1761
-0.9031 CAME INTO -0.2596
-1.2041 CAME ON -0.2967
-1.2041 CAME THE -0.2981
-1.2041 CAME THEY -0.2953
-1.2041 CAME UPON -0.2730
-1.2041 CAME WITH -0.2688
-0.3010 CAMERA ALONG -0.1761
-0.9874 CAN </s> -0.3010
-0.8325 CAN BE -0.2753
-1.5315 CAN DIE -0.1761
-1.8325 CAN FORM -0.1761
-1.8325 CAN GET -0.2632
-1.8325 CAN HOWEVER -0.2218
-1.8325 CAN IMITATE 0.0000
-1.8325 CAN LEAD 0.0000
-0.9874 CAN OFTEN -0.2009
-1.8325 CAN PROJECT -0.2730
-1.8325 CAN RELY 0.0000
-1.8325 CAN SYMPATHETICALLY 0.0000
-0.3010 CANDY AS -0.2794
-0.3010 CANT EXPECT 0.0000
-0.3010 CAPTAIN WAS -0.2985
-0.3010 CAPTURED IN -0.3003
-0.3010 CARE OF -0.2999
-0.3010 CAREFUL DONT -0.2998
-0.3010 CAREFULLY BETWEEN -0.2218
-0.3010 CAROL COMES -0.0512
-0.3010 CARPET CLEANERS -0.1761
-0.3010 CARRIAGE CRUNCHED 0.0000
-2.5289 CARRY A -0.2996
-0.3036 CARRY AN -0.0750
-0.3010 CARRYING A -0.3003
-0.3010 CARTILAGE TRANSMIT 0.0000
-0.3010 CASE </s> -0.3010
-0.6021 CASES </s> -0.3010
-0.6021 CASES WERE -0.2926
-0.3010 CASHMERE SWEATER 0.0000
-0.3010 CASUAL STYLE -0.1761
-0.3010 CATASTROPHIC ECONOMIC -0.0512
-0.3010 CATS MEOW 0.0000
-0.3010 CATTLE </s> -0.3010
-0.3010 CAULIFLOWER </s> -0.3010
-0.3010 CAUSEWAY ENDED 0.0000
-0.3010 CENSORSHIP </s> -0.3010
-0.3010 CENSUS </s> -0.3010
-0.3010 CENTERING OF -0.2987
-0.3010 CENTRAL TANK 0.0000
-0.3010 CENTRIFUGE PURCHASE 0.0000
-0.3010 CENTURIES TO -0.3004
-0.3010 CERAMIC MODELING 0.0000
-0.3010 CEREAL GRAINS 0.0000
-0.6021 CERTAIN POINTS 0.0000
-0.6021 CERTAIN WORDS -0.1761
-0.3010 CERTAINLY CANT 0.0000
-0.3010 CHABLIS </s> -0.3010
-0.3010 CHAIR AND -0.2960
-0.3010 CHANGE </s> -0.3010
-0.3010 CHANGED IN -0.3003
-0.3010 CHANGES </s> -0.3010
-0.3010 CHARACTERS </s> -0.3010
-0.3590 CHARGE MONEY -0.2009
-1.2041 CHARGE SOMETHING -0.2553
-0.3010 CHARLIES DIRTY -0.1761
-0.3010 CHART QUICKLY 0.0000
-0.3010 CHASTITY ON -0.1987
-1.2041 CHEAP </s> -0.3010
-0.3590 CHEAP STOCKINGS 0.0000
-0.3010 CHECK YOUR -0.3000
-0.3010 CHEETAL DEER 0.0000
-0.3010 CHEST </s> -0.3010
-0.3010 CHICKEN OUT -0.2923
-0.6021 CHIEF INTEREST 0.0000
-0.6021 CHIEF SOURCES 0.0000
-0.7782 CHILD AND -0.2998
-0.7782 CHILD AT -0.2974
-0.7782 CHILD DOESNT -0.1761
-1.4771 CHILDREN AND -0.2985
-0.6320 CHILDREN DECORATE 0.0000
-0.6320 CHILDREN SHOULD -0.1648
-0.3010 CHILLS AND -0.2998
-0.3010 CHOICES OF -0.2999
-0.3010 CHOIR LEADER 0.0000
-0.3010 CHOOSE CAREFULLY 0.0000
-0.3010 CHOSEN FEW -0.1139
-0.3010 CIGARETTE </s> -0.3010
-0.3010 CIRCLED HER -0.2976
-0.3010 CITY INTO -0.2139
-0.3010 CLAIMED ALL -0.3001
-0.3010 CLASHED IN -0.2760
-0.3010 CLASS </s> -0.3010
-0.3010 CLASSBIASED DECISIONS 0.0000
-0.3590 CLASSROOMS FOR -0.2901
-1.2041 CLASSROOMS PEACEFULLY 0.0000
-1.0000 CLAY </s> -0.3010
-1.0000 CLAY DRYING 0.0000
-1.0000 CLAY FROM -0.2967
-1.0000 CLAY RED -0.2730
-1.0000 CLAY REINFORCE 0.0000
-0.3010 CLEANED SHELLFISH 0.0000
-0.6021 CLEANERS FOR -0.2915
-0.6021 CLEANERS SHAMPOOED 0.0000
-0.3010 CLEANING ALL -0.2991
-0.3010 CLEANS SHELLFISH 0.0000
-0.3010 CLEAR SLUMS 0.0000
-0.6021 CLEARLY CONTRARY 0.0000
-0.6021 CLEARLY IDENTIFIABLE 0.0000
-0.3010 CLERKS FROM -0.2967
-0.3010 CLEVER LIGHT 0.0000
-0.3010 CLIFF WAS -0.2828
-0.3010 CLIMATES </s> -0.3010
-0.3010 CLIMAX FOLLOWING 0.0000
-0.3010 CLIMBED ON -0.2989
-0.6021 CLOSE SOMETIME 0.0000
-0.6021 CLOSE TO -0.2998
-0.3010 CLOTH TO -0.2954
-0.3010 CLOUD </s> -0.3010
-0.3010 CLOUDS BULGED 0.0000
-0.3010 CLUB EXISTED -0.1761
-0.3010 CLUMSY CUSTOMER 0.0000
-0.3010 COAT AND -0.2998
-0.3010 COFFERS ATTRACTED 0.0000
-0.3010 COIL OF -0.2999
-0.3010 COINCIDED WITH -0.2646
-0.3010 COINS HE -0.2970
-0.3010 COKE BOTTLE 0.0000
-0.3010 COLD CLIMATES 0.0000
-0.3010 COLESLAW AFTER -0.2175
-0.3010 COLLARED ONE -0.2929
-0.3010 COLLEGES BUILD 0.0000
-0.3010 COLOR OF -0.2999
-0.3010 COLORED THE -0.2981
-0.3010 COLOSSAL SHAME -0.2218
-0.3010 COMBINE ALL -0.2921
-1.3424 COME DOWN -0.2632
-1.3424 COME HOME -0.2430
-1.3424 COME UNSTUCK 0.0000
-0.4973 COME WHEN -0.2293
-1.3424 COME YOURE -0.1761
-1.2041 COMES FROM -0.2967
-0.3590 COMES TOMORROW 0.0000
-0.6021 COMING HE -0.2990
-0.6021 COMING IN -0.3003
-0.3010 COMMERCIAL APPLICATIONS 0.0000
-0.4102 COMMON CANDY 0.0000
-1.2553 COMMON METHODS 0.0000
-1.2553 COMMON SENSE -0.2730
-0.3010 COMPANY </s> -0.3010
-0.3010 COMPARABLE TRENDS 0.0000
-0.3010 COMPETITORS </s> -0.3010
-0.3010 COMPLETE EROTIC 0.0000
-0.3590 COMPLETELY ELEGANT 0.0000
-1.2041 COMPLETELY UNJUSTIFIED 0.0000
-0.3010 COMPOSITIONS OF -0.2999
-0.3010 COMPOST SHREDDER 0.0000
-0.3010 COMPULSORY RETIREMENT 0.0000
-0.3010 CONDITION THE -0.3007
-0.3010 CONFERENCES </s> -0.3010
-0.3010 CONFORMATIONAL ENTROPY 0.0000
-0.3010 CONFORMISTS LOOK -0.2553
-0.3010 CONJURED UP -0.2906
-0.3010 CONSIDERED TO -0.2923
-0.3010 CONSISTS OF -0.2915
-0.3010 CONSTRUCTION </s> -0.3010
-0.3010 CONTACT WITH -0.2971
-0.3010 CONTAGIOUS DISEASES 0.0000
-0.6021 CONTAIN PHOSPHATE 0.0000
-0.6021 CONTAIN PHOSPHATES 0.0000
-0.3010 CONTAINS SYMBOLS 0.0000
-0.3010 CONTEMPORARY </s> -0.3010
-0.3010 CONTINUED ON -0.2967
-0.3010 CONTRARY TO -0.3004
-0.3010 CONTRIBUTIONS TO -0.3004
-0.3010 CONTRIBUTORY OR -0.2954
-0.3010 CONTROL </s> -0.3010
-0.3010 CONTROLLED THE -0.2985
-0.3010 CONVENIENT FOR -0.2571
-0.3010 CONVERTED MANURE 0.0000
-0.3010 CONVINCING CONTRIBUTIONS 0.0000
-0.3010 COOK WITHOUT -0.2009
-0.3010 COOL </s> -0.3010
-0.3010 COPRA MAKE -0.2788
-0.3010 CORDIAL BARK 0.0000
-1.2041 CORDUROY COAT 0.0000
-0.3590 CORDUROY OVERALLS -0.0280
-0.3010 CORN SESAME 0.0000
-0.3010 CORNERED AT -0.2749
-0.3010 CORY AND -0.2923
-0.3010 COSMETICS </s> -0.3010
-0.6021 COST ANYTHING -0.1761
-0.6021 COST TO -0.2998
-0.3010 COSTUME NEEDED 0.0000
-0.3010 COSTUMES AND -0.2998
-0.3010 COTTON CORN 0.0000
-1.1461 COULD </s> -0.3010
-1.1461 COULD HEAR 0.0000
-1.1461 COULD NOT -0.2954
-1.1461 COULD PICK -0.2788
-1.1461 COULD PRESUMABLY 0.0000
-1.1461 COULD TAKE -0.2872
-1.1461 COULD THE -0.3007
-0.3010 COULDNT BLAME 0.0000
-0.3010 COUNTIES TWO -0.2840
-0.3010 COUNTRY WERE -0.2968
-0.3010 COUNTRYSIDE </s> -0.3010
-0.3010 COURTYARD IS -0.2992
-0.3010 COVERAGE OF -0.2999
-0.3010 COVERS A -0.3003
-0.3010 COY TRAGIC -0.1761
-0.3010 CRANBERRY BOG 0.0000
-0.3010 CRAYONS </s> -0.3010
-0.3010 CRAZY FOOL -0.1761
-1.2041 CREAM AND -0.2998
-0.3590 CREAM IS -0.2639
-0.3010 CREATE SUCH -0.2478
-0.3010 CREEPING MANNERISM 0.0000
-0.3010 CREPT PAST -0.1761
-0.3010 CRESTFALLEN AS -0.2698
-0.3010 CROPS AND -0.2998
-0.3010 CROSSINGS </s> -0.3010
-0.3010 CRUNCHED BY -0.2954
-0.3010 CRUSHED UNLINED 0.0000
-0.3010 CRYSTALLINE SUBSTANCES -0.1761
-0.3010 CUPS </s> -0.3010
-0.3010 CURIOSITY </s> -0.3010
-0.3010 CURIOUS OFTEN -0.2881
-0.3010 CUSTODY HIS -0.2975
-0.3010 CUSTOMER SPILLED 0.0000
-0.3010 CUTBACKS NEGLECT 0.0000
-0.3010 CUTS AND -0.2998
-0.6021 CUTTING BACK -0.2730
-0.6021 CUTTING INTO -0.2808
-0.3010 DAD DID -0.2894
-0.3010 DANCE AND -0.2923
-0.3010 DANCES ALTERNATED 0.0000
-0.3010 DANGEROUS LUXURY 0.0000
-0.3010 DANGERS NOT -0.2954
-0.3010 DAPHNES SWEDISH 0.0000
-2.5340 DARK BROWS 0.0000
-2.5340 DARK CAME -0.2730
-0.3087 DARK SUIT 0.0000
-2.5340 DARK WOODS 0.0000
-0.3010 DASH OF -0.2999
-0.3010 DATA ARE -0.2991
-0.3010 DATE THE -0.3007
-0.3010 DAWN HE -0.2970
-0.6284 DAY </s> -0.3010
-1.5315 DAY AFTER -0.2900
-1.5315 DAY SOME -0.2840
-0.6864 DAY WELL -0.1761
-0.6021 DAYS </s> -0.3010
-0.6021 DAYS AFTER -0.2900
-0.6021 DEAL </s> -0.3010
-0.6021 DEAL OF -0.2987
-0.3010 DEANS CAN -0.2946
-0.6021 DEATH </s> -0.3010
-0.6021 DEATH IN -0.2996
-0.3010 DECAYING MOSS 0.0000
-0.3010 DECAYS RAPIDLY 0.0000
-0.3010 DECEMBER AND -0.2923
-0.3010 DECIDE WHAT -0.2872
-0.3010 DECISIONS </s> -0.3010
-0.3010 DECISIVE </s> -0.3010
-0.3010 DECK </s> -0.3010
-0.3010 DECLARED </s> -0.3010
-0.3010 DECORATE THEIR -0.2009
-0.3010 DECORATED </s> -0.3010
-0.3010 DECORATIVE ACCENT 0.0000
-0.3010 DEDUCT ALLOWABLE 0.0000
-0.3010 DEEP BREATH 0.0000
-0.3010 DEEPLY MORAL 0.0000
-0.3010 DEER AT -0.2974
-0.3010 DEFENDED IT -0.2805
-0.3010 DEFENSIVE UNIT -0.1761
-0.3010 DEFINITE </s> -0.3010
-0.3010 DEGREE OF -0.2987
-0.3010 DELIGHT THE -0.3007
-0.3010 DEMAND FOR -0.2997
-0.3010 DEMANDS OF -0.2999
-0.3010 DEPICTS THE -0.2985
-0.3010 DEPLETION </s> -0.3010
-0.3010 DEPRECIATION AND -0.2998
-0.3010 DEPRIVE IT -0.2977
-0.3010 DERELICTION </s> -0.3010
-0.3010 DESCRIBED AS -0.2980
-0.3010 DESEGREGATION CASES -0.1761
-0.3010 DESIGN DISK 0.0000
-0.3010 DESSERTS SIMPLE -0.2730
-0.3010 DESTROY EVERY -0.1856
-0.3010 DESTROYING AN -0.3000
-0.6021 DETAILED ANALYSIS -0.1761
-0.6021 DETAILED STUDY -0.2139
-0.3010 DETERMINED TO -0.3004
-0.3010 DEVELOP IMPORTANT -0.2430
-1.2041 DEVELOPMENT </s> -0.3010
-0.3590 DEVELOPMENT WAS -0.2828
-0.3010 DEVICE QUACKERY 0.0000
-0.3010 DEVOUR US -0.2304
-0.3010 DEW ON -0.1987
-0.3010 DIAGNOSED BUT -0.2944
-0.3010 DIAGRAM MAKES -0.1856
-0.3010 DICE </s> -0.3010
-0.3010 DICTIONARY IS -0.2992
-1.5798 DID </s> -0.3010
-1.5798 DID A -0.2989
-1.5798 DID IT -0.2977
-1.5798 DID LAST -0.1761
-1.5798 DID LOOK -0.2553
-1.5798 DID NOT -0.2954
-1.5798 DID ONE -0.2929
-1.5798 DID SLEEP 0.0000
-1.5798 DID SOMETHING -0.2553
-1.5798 DID SUCH -0.2478
-1.5798 DID THE -0.3007
-1.5798 DID WELL -0.2852
-0.7347 DID YOU -0.2834
-0.9031 DIDNT CHICKEN 0.0000
-0.9031 DIDNT EVEN -0.2825
-0.9031 DIDNT HE -0.2990
-0.9031 DIDNT RUN -0.2762
-0.9031 DIE LIKE -0.2998
-0.9031 DIE OF -0.2999
-0.9031 DIE TOO -0.2840
-0.9031 DIE WITH -0.2932
-0.3010 DIED ON -0.1987
-0.6021 DIFFERENT BRAND 0.0000
-0.6021 DIFFERENT TIMES -0.1761
-0.3010 DIFFERENTIATE A -0.2996
-1.2041 DIG HE -0.2909
-0.3590 DIG MY -0.2539
-0.3010 DIGNITY HE -0.2909
-0.3010 DIM LIGHTS 0.0000
-0.3010 DIME FROM -0.2553
-0.3010 DIMES AND -0.2998
-0.3010 DINNER </s> -0.3010
-0.3010 DIRT CHEAP -0.2730
-0.6021 DIRTY DISHES 0.0000
-0.6021 DIRTY TABLE -0.1761
-0.3010 DISAPPOINTED THE -0.3007
-0.3010 DISCIPLINE HAS -0.2109
-0.3010 DISEASES </s> -0.3010
-0.3010 DISHES </s> -0.3010
-0.3010 DISK </s> -0.3010
-0.3010 DISLIKES APPETIZERS 0.0000
-0.3010 DISPEL FATIGUE 0.0000
-0.3010 DISPLAY IN -0.2996
-0.3010 DISPLAYED AS -0.2980
-0.3010 DISREPAIR </s> -0.3010
-0.3010 DISTANCE </s> -0.3010
-0.3010 DISTASTE </s> -0.3010
-0.3010 DISTRIBUTED </s> -0.3010
-0.3010 DISTRICTS </s> -0.3010
-0.3010 DISTURB HER -0.2870
-0.3010 DIVE SEEMED -0.2553
-0.3010 DIVERSITY OF -0.2987
-0.3010 DIVORCED HIM -0.1761
-0.3010 DIVORCEE AT -0.2974
-1.3424 DO ANY -0.2747
-1.6435 DO AVOID -0.2730
-1.6435 DO BUY -0.2915
-0.7984 DO CHARLIES 0.0000
-1.6435 DO IT -0.2805
-1.6435 DO LINE 0.0000
-1.6435 DO NOT -0.2954
-1.6435 DO THAT -0.3000
-1.6435 DO THE -0.3007
-1.6435 DO THEY -0.2894
-1.6435 DO TO -0.3004
-1.6435 DO WHAT -0.2730
-1.6435 DO WITHOUT -0.2881
-1.3424 DO YOU -0.2936
-1.0000 DOES HE -0.2990
-1.0000 DOES NICELY 0.0000
-1.0000 DOES NOT -0.2954
-1.0000 DOES SOCIETY -0.2730
-1.0000 DOES STIMULATES 0.0000
-0.6021 DOESNT COST -0.1761
-0.6021 DOESNT ENJOY -0.2730
-0.7782 DOGS DID -0.2894
-0.7782 DOGS IN -0.3003
-0.7782 DOGS WERE -0.2968
-0.3010 DOME FELL -0.2730
-0.3010 DOMINANT STRESS 0.0000
-0.9031 DONE </s> -0.3010
-0.9031 DONE ANYTHING -0.1761
-0.9031 DONE TO -0.2986
-0.9031 DONE YET -0.2688
-0.3310 DONT ASK -0.0026
-2.5563 DONT DISTURB 0.0000
-1.7112 DONT DO -0.2258
-2.5563 DONT EAT -0.2430
-2.5563 DONT GET -0.2632
-2.5563 DONT GO -0.2788
-2.5563 DONT IDENTIFY 0.0000
-0.3010 DORMITORIES </s> -0.3010
-0.3010 DOSES IS -0.2992
-1.0792 DOWN ENOUGH -0.2825
-1.0792 DOWN HIS -0.2975
-1.0792 DOWN LONG -0.2762
-1.0792 DOWN ON -0.2900
-1.0792 DOWN TO -0.2998
-1.0792 DOWN WITH -0.2971
-0.3010 DOWNPOUR </s> -0.3010
-0.3010 DOWNSTAIRS LOADED 0.0000
-0.3010 DOWNWARD AND -0.2998
